tree
version=v4
num_class=1
num_tree_per_iteration=1
label_index=0
max_feature_idx=50
objective=regression
feature_names=quote_asset_volume number_of_trades taker_buy_quote_asset_volume ret_2 ret_4 ret_16 ret_32 taker_buy_ratio avg_trade_size avg_trade_size_chg quote_volume_ratio volatility_5 price_ma_ratio_5 zscore_close_5 zscore_volume_5 volatility_10 price_ma_ratio_10 volume_ma_ratio_10 zscore_volume_10 volatility_20 price_ma_ratio_20 zscore_close_48 volatility_96 price_ma_ratio_96 zscore_close_96 zscore_volume_96 zscore_taker_buy_96 ema_12 ema_26 ema_50 sma_20 rsi_14 MACD_12_26_9 MACDs_12_26_9 BBU_20_2.0_2.0 STOCHk_14_3_3 STOCHd_14_3_3 STOCHh_14_3_3 ADX_14 ADXR_14_2 DMN_14 ret_1_1h ret_4_1h range_hl_1h vol_ma_ratio_1h volatility_1h price_ma_ratio_1h ret_1_4h vol_ma_ratio_4h volatility_4h price_ma_ratio_4h
feature_infos=[0:3297601643.8953199] [0:1219180] [0:1681510168.4810901] [-0.13130813174121958:0.14580989616952222] [-0.22781918774541976:0.15469538819110817] [-0.2946137305994494:0.36528654859693277] [-0.29840399484321445:0.22123873538606009] [0:0.9321833622165886] [0:3.7577102061886438] [-1:inf] [0:4861.6003579412345] [3.7488373419997361e-05:0.07498118263969511] [-0.13991659302262882:0.089164236484549964] [-1.7886177661436795:1.7888543785839393] [-1.7879105855337039:1.7888152396054273] [0.0001160023164162905:0.068136138044410904] [-0.1893941143415776:0.11301309795654513] [-1:7.441971382333751] [-2.3567456027184606:2.8457371473856279] [0.0002450328158310948:0.050872643882240068] [-0.24031328194689883:0.12644413026249857] [-6.3490442320174907:6.1431564745397527] [0.00033063061320806364:0.030409913811468799] [-0.33308385418565034:0.16772303076199813] [-8.1780814469653507:7.7598990026462724] [-1.8181721572624392:9.4840742661367958] [-6.9218872273685035:4.2763131273907691] [921.55154503535778:4839.1932727456733] [945.55872922900153:4815.4977304844979] [964.25098498603154:4798.1954983625155] [935.63200000000006:4838.8634999999995] [4.129737648064232:95.624613228907393] [-194.42234872779272:130.80727327971817] [-154.66344813152972:119.58466140923244] [971.29916092631527:4933.9345183504474] [1.0462429503062696:99.636661892345501] [2.8530254484900173:98.527301151013802] [-30.075887675236881:30.273087614642719] [5.2572012594061945:83.075834920966614] [5.4276135974974071:82.697264299028859] [0.55760662701925612:79.170064275738881] [-0.14318126748463555:0.092547282525802022] [-0.21701759330085746:0.22379617965395782] [0.00042183367854962462:0.48981357411971893] [-0.99541497994285744:11.183745965331276] [0.00051938582783684815:0.05789410108320292] [-0.24954769220528916:0.15234878306076749] [-0.12160164075169322:0.113485816379848] [-0.86100057096272709:6.065844543119062] [0.001505640639590074:0.056063878207591421] [-0.24162191795790666:0.24071051974615965]
tree_sizes=14450

Tree=0
num_leaves=127
num_cat=0
split_feature=6 22 49 31 24 21 1 5 4 27 8 39 43 12 49 32 30 40 50 44 31 48 31 44 43 23 2 36 17 50 23 32 22 8 31 26 22 30 25 50 50 4 43 1 20 1 20 43 24 40 18 8 22 21 46 24 49 5 2 48 47 4 48 19 24 43 18 23 21 43 35 47 43 44 6 48 44 49 1 43 24 22 32 50 48 36 1 50 21 21 46 6 36 46 49 47 21 19 50 46 12 35 22 48 27 39 31 6 20 27 41 49 6 22 50 8 40 5 39 34 50 47 17 5 19 19
split_gain=0.196464 0.158773 0.138293 0.135267 0.117367 0.0888097 0.0662918 0.061898 0.040303 0.0455193 0.0395688 0.0362248 0.0293883 0.0290042 0.0404092 0.0286238 0.0355751 0.0285006 0.0280577 0.0561307 0.0272235 0.0266981 0.026492 0.0262029 0.0281246 0.0244975 0.022545 0.0223144 0.0220315 0.0217268 0.0228107 0.0222994 0.0216266 0.0216261 0.0204931 0.0202072 0.0199548 0.0195898 0.0188729 0.0187872 0.0315377 0.0302364 0.0198213 0.0185432 0.0178123 0.0202029 0.0251613 0.0175031 0.0165934 0.0162821 0.0162672 0.0157006 0.0291709 0.036668 0.0244622 0.0231494 0.0186722 0.0196611 0.0150012 0.0147463 0.0143612 0.0143011 0.0137728 0.021 0.0170065 0.0136976 0.0134862 0.0133815 0.0132658 0.0160029 0.0129823 0.0302923 0.021516 0.0548485 0.0377776 0.0298029 0.0292194 0.0412117 0.0378529 0.0273465 0.0245725 0.0884956 0.0270874 0.0213191 0.0287726 0.0322255 0.0204995 0.0198296 0.0226645 0.0188009 0.0166612 0.0162604 0.0158465 0.0158052 0.0188415 0.0156762 0.0238464 0.0154081 0.0151737 0.0140168 0.0139884 0.013621 0.0129199 0.0161312 0.0214581 0.0147445 0.0125257 0.0124188 0.0170972 0.0117749 0.019168 0.0117146 0.0116715 0.0122973 0.0229378 0.0199953 0.0186257 0.0323991 0.0140784 0.0126747 0.0117802 0.0116132 0.0138263 0.0131034 0.0142261 0.0124796
threshold=-0.091877259883355808 0.014432175345315944 0.048045383713153512 45.487215945295716 -2.223909298169414 -1.6839494678504134 82428.000000000015 -0.055862375274106361 -0.0069547412837052671 1208.2624095973144 1.0028855463888404 54.951669273689966 0.068342820812867147 -0.01391576977335973 0.014067304026858332 9.4116944585221081 1052.5492500000003 34.549535393260911 -0.11277360920334727 -0.28572425381945032 52.91228937328237 -0.24758171301848345 21.776671652392817 -0.32857456384983685 0.042158275989096272 0.013969877546203715 62773442.326105006 18.416881762344062 -0.161716889459698 0.058282991578691219 -0.03569219884574653 6.4653865333630174 0.009487140046690816 1.830659608159585 42.284648803393502 -0.47798706308481326 0.016991986772179033 2053.3312500000006 1.5883162613488098 -0.11277360920334727 -0.01448893889625774 0.0116044772408348 0.048773827600209665 66207.000000000015 0.029949294938304564 98656.500000000015 0.0047164125417398237 0.045115441379657735 -1.6940122259365327 9.7150864785843059 -1.4056534482123191 0.76273662098038009 0.016991986772179033 1.2927028577187747 0.070934090529468433 1.510478027126976 0.043759955469437804 -0.0011174290069789759 65987564.904335007 -0.074541446649174212 -0.0095298480792378997 -0.036185055975485651 0.78656274892465849 0.005727948677267075 -0.78330746599244139 0.02127336592780393 0.54819069909839568 -0.076291424918541392 -0.61155173181305478 0.018361426825412218 54.790908196143498 -0.068614181981510911 0.039262216868236381 0.1673556647167064 -0.036841219349319713 0.25698671672117318 0.54479340065082782 0.023422982681260369 44566.500000000007 0.028334227018177175 -1.9377835428838943 0.0099594634069859658 -26.574387260219961 -0.095433737135186422 0.57637574092069288 20.239768438741404 59377.500000000007 -0.0064344307420178262 -1.0481720334121629 -1.9359872246778436 -0.034536664998450199 -0.067096086971201049 14.776167712999072 -0.024821282949252562 0.013312707532250201 -0.01921189909469356 -1.4887568642136737 0.0084671833026669745 0.1391512696613533 -0.02950347720616053 -0.0041575018629579344 43.451670444358591 0.0069249388230267677 -0.30567853632859288 1273.300757273485 21.797461633119077 41.674106267771421 -0.003706602605861697 0.011747455701666245 1526.9116861738923 0.0045388904227895441 0.036302297047269172 0.013675086229817503 0.0043333154863123896 -0.035148072245413213 1.5508390677360244 42.586999156431965 -0.018595337888950566 10.160470899906851 3175.9473875724925 -0.054874167261686306 0.0024841476963072266 0.46282851198093616 -0.025946554529357343 0.005472036074335467 0.0080550674043332448
decision_type=2 2 2 2 2 2 2 2 2 2 2 2 2 2 2 2 2 2 2 2 2 2 2 2 2 2 2 2 2 2 2 2 2 2 2 2 2 2 2 2 2 2 2 2 2 2 2 2 2 2 2 2 2 2 2 2 2 2 2 2 2 2 2 2 2 2 2 2 2 2 2 2 2 2 2 2 2 2 2 2 2 2 2 2 2 2 2 2 2 2 2 2 2 2 2 2 2 2 2 2 2 2 2 2 2 2 2 2 2 2 2 2 2 2 2 2 2 2 2 2 2 2 2 2 2 2
left_child=1 2 6 13 -4 10 17 -7 12 15 -3 27 50 14 22 16 23 -1 19 -16 44 48 61 59 -25 70 -23 -8 -29 30 31 111 34 -17 -28 -24 39 -30 47 41 42 -18 49 -40 45 67 -47 102 -20 -41 -5 54 56 -54 107 -55 -53 -58 -59 -10 -45 -2 63 -52 68 -61 -66 -11 -65 -70 71 89 79 74 75 -74 86 93 91 83 81 82 -81 84 85 92 -75 88 97 -15 -76 -79 -73 94 -78 96 -80 -82 112 -87 -91 -99 109 105 -105 -104 -50 108 -32 110 -31 -22 113 114 116 118 119 -118 -115 -85 -117 122 -120 124 -124 -123
right_child=3 5 4 8 -6 7 11 -9 9 20 -12 -13 -14 25 18 33 36 -19 21 -21 29 26 35 24 -26 -27 32 28 37 38 51 -33 -34 -35 -36 -37 -38 -39 43 40 -42 -43 -44 60 -46 46 -48 -49 106 -51 62 52 53 55 -56 -57 57 58 -60 65 -62 -63 -64 64 66 -67 -68 -69 69 -71 -72 72 73 76 90 -77 77 78 95 80 87 -83 -84 98 -86 99 -88 -89 -90 100 -92 -93 -94 -95 -96 -97 -98 101 -100 -101 -102 -103 103 104 -106 -107 -108 -109 -110 -111 -112 -113 -114 115 -116 120 117 -119 121 -121 -122 125 123 -125 -126 -127
leaf_value=-0.00029805253105414037 0.00039701377811653658 0.0018942761564287129 0.0001111382695866333 -0.0003721504737778721 -0.0013405303298866789 -0.00017057696215376996 0.00056797481716447439 0.0008521583997847448 0.0001925640323660791 0.00037968442591325554 0.00082602006396457063 0.0008674482803167667 -0.00065147168443103608 -0.00013452357332224387 0.00036928592233142663 5.0284326288381149e-05 0.00073658270726487975 0.00031597144175200711 -0.00014463267546867913 -0.00054891332631957297 -0.00019957658131705455 3.524158026675691e-05 -7.1846319649452377e-05 -4.2551798532870503e-05 0.00056053937335249192 0.00013992227865130855 0.00027920498899954818 0.00051457354589170157 -0.00033503648211429915 2.5576909642472499e-05 2.5934272596995059e-05 -0.00075324824493193474 0.00062305622341893437 -0.00039801680513880161 -0.00027368418095936051 -0.00072670806860261812 -0.0004041878512512949 0.00029398266521382351 0.00016476919937393996 -0.00076932124099530629 0.0002200923628514829 3.524158026675691e-05 0.0008222636866275345 0.00021498402536721897 0.00098152278384241597 -3.9281859245563703e-06 -0.00055155862206260277 0.000448364159297255 0.00028124760866802688 1.3877824949914389e-05 4.2633488242118159e-05 9.2150864863968165e-05 0.00079027767890771329 -0.00037898678017848149 -0.00084283697854784791 0.00038409794569568107 0.0004019174397225456 -6.4636489611682871e-05 -0.00058606223869215614 0.0011965664184009255 -0.00029429952034675812 -0.00012488665525210485 0.00013230681066243261 3.524158026675691e-05 -9.1966045736354774e-05 0.00042678503169789415 0.00010423132852911407 2.9825465255699347e-05 3.524158026675691e-05 -0.00055841675330190474 3.1589210081992721e-05 -0.00023769294021271187 -0.0011553507888049561 1.0320483473808595e-05 -0.00046792115207494221 -0.00022985331184306694 -6.0581238982756552e-05 0.00052854399522614555 2.4269843444346335e-05 0.00022301369917834674 0.00017059791693014266 -0.0011451819873624306 -0.00010115776319962811 -6.5144377167073193e-05 3.524158026675691e-05 -0.0003185935987166322 0.00052894277410683551 3.5194845620298152e-06 -5.4419051227206811e-06 0.00089202454434012955 3.524158026675691e-05 -0.00010792045939431001 -0.0010383967246415933 -0.00022710108701325064 0.00032969008464141616 -0.00067525544672307621 -0.00061736186885748235 0.00057590151207981884 0.00056992164547992074 0.00015480193910233231 0.00022934059113540083 3.524158026675691e-05 0.00044179036274314006 -0.00047160590084133799 -4.9240765732280842e-05 -5.7280396029068962e-05 -0.00023917200882060715 6.1265648342087256e-05 -0.00030511628120980004 3.1804495418301451e-05 0.00037729359766764975 0.00023606918996986009 -0.00023259033292114735 -0.00045884911251775206 -2.9629694411742745e-05 -5.720392254935161e-05 -4.9732273002134331e-05 -0.0012867515683160911 -9.9645372371632931e-06 -0.0002332174636655729 0.00018636419757329359 -4.6795556012400158e-05 3.524158026675691e-05 3.524158026675691e-05 0.00044244875732411305 -0.00032914127424168429
leaf_weight=166.90828098356724 73.26802933216095 91.641722902655602 98.423879623413086 118.33428494632244 88.721404075622559 78.757251262664795 223.78107948601246 126.17898769676685 65.47887621819973 98.228274941444397 90.632304728031158 192.23010750114918 68.784906208515167 53.73573425412178 93.683643937110901 554.53257156908512 129.30173802375793 107.32861660420895 314.45754711329937 144.47757303714752 153.50252839922905 313.54807002842426 113.97086317837238 143.26829679310322 114.43532717227936 815.28402976691723 845.98387412726879 90.548108041286469 102.28777828812599 254.63510130345821 654.97673186659813 53.144255936145782 185.10484299063683 112.25916418433189 55.496010452508926 104.64133946597576 52.204018592834473 69.836222320795059 111.47538164258003 25.163837283849716 1648.3278106600046 104.26503944396973 25.716444492340088 40.428747177124023 17.345070362091064 278.17124797403812 120.15087720751762 89.955774590373039 218.67059487104416 1007.5664149969816 1896.1985390037298 24820.577446743846 122.92358182370663 57.680231973528862 27.17273160815239 89.485211700201035 47.196514025330544 237.86374920606613 80.66653273999691 78.825043678283691 418.05379994213581 126.77863948047161 521.15043695271015 73.309931099414825 1567.0369388461113 71.359427690505981 351.74568143486977 23456.75476834178 60.014889851212502 175.52278259396553 3666.349066644907 63.708580493927002 99.645816177129745 112.41519638895988 86.18087637424469 74.813106894493103 164.88043473660946 55.904916822910309 159.77053488790989 381.77235502004623 438.9969799220562 61.549192667007446 586.55308696627617 1934.682080462575 240.03640905022621 123.51658214628696 120.80264064669609 518.11263462901115 247.34664435684681 52.959177300333977 122.41806624829769 82.164395689964294 84.733001291751862 114.43032082915306 258.0434041172266 173.63971601426601 95.359205320477486 251.4260438233614 35.391394734382629 78.20267941057682 149.12310738861561 64.749006897211075 93.421991020441055 145.84256610274315 654.48371900618076 91.789540618658066 41.36034095287323 10253.584012791514 194.55925741791725 4115.5973709821701 242.70232498645782 75.247931003570557 276.56193579733372 66.504204854369164 16306.208124682307 202.13810892403126 66.466860353946686 35.854357525706291 5037.6998598128557 610.57974815368652 748.55244535207748 1926.8562159240246 134.99065579473972 722.45365190505981 182.03818294405937 170.66063679754734
leaf_count=72 46 21 27 83 24 21 69 34 28 122 21 60 48 21 28 289 50 46 150 44 68 133 54 74 60 793 383 27 30 161 655 22 81 59 25 49 43 20 62 22 1424 41 22 21 21 143 62 68 107 892 1313 27928 40 21 32 32 21 111 37 24 219 79 366 30 891 21 200 29160 23 66 3580 20 31 42 30 24 108 25 63 244 215 38 376 1600 102 51 46 273 119 20 43 36 27 72 170 65 37 76 37 33 56 20 47 85 381 46 20 12247 195 3332 153 34 290 44 20257 134 66 36 3351 505 496 1291 75 450 100 114
internal_value=3.58498e-05 0.00037327 0.000188517 3.08191e-05 -0.000545773 0.000901392 0.000339112 0.000430054 5.43801e-05 6.01287e-05 0.00139744 0.000499437 -2.91164e-05 -1.33737e-05 8.17165e-05 0.000157026 0.000192103 -3.58484e-05 0.000134732 -0.000162579 5.40708e-05 0.000173645 -0.000184079 0.000438948 0.000202191 -2.01067e-05 0.000244822 0.0003414 0.000125288 6.83406e-05 7.71629e-05 -0.000188093 0.000309589 -1.6302e-05 0.000238453 -0.000413134 0.000151028 -4.5001e-05 1.73266e-05 0.000162955 0.000137641 0.000430312 1.48952e-05 -0.000147276 2.86475e-05 2.76991e-05 -0.000184384 3.48798e-05 1.06021e-05 -1.11667e-05 -1.88412e-05 7.93719e-05 9.24435e-05 0.000406231 4.89359e-05 4.41421e-05 8.88374e-05 -0.000119546 -0.000215817 0.000693645 -0.000236251 3.64692e-05 -8.53159e-06 -2.77888e-05 -9.0422e-05 0.000871713 -5.28696e-05 3.15421e-05 -0.000304102 -0.00041377 -2.37717e-05 -2.96384e-05 -3.22786e-05 -0.000137546 -0.000456978 -0.000793581 -4.15099e-05 -0.000109269 -0.000288801 -2.63561e-05 6.621e-05 -4.35869e-05 3.28576e-05 -3.46904e-05 -0.000216775 -0.000390124 0.000253445 0.000144518 0.000223363 0.000290587 -0.000146205 0.000106734 -0.000735944 6.90028e-05 0.000163386 -0.00043013 -0.000239374 0.000306239 -3.07015e-05 -0.000105416 0.000433345 0.000475401 2.71497e-05 -7.20686e-05 -0.00013381 0.000162261 0.000175266 5.16744e-05 -5.70056e-05 4.70505e-05 0.000185225 -3.00132e-05 -3.16642e-05 -2.94749e-05 -4.35466e-05 1.95064e-07 -0.000126982 -0.000543454 -1.53079e-05 -0.000107838 0.000128258 -1.09536e-05 1.13345e-05 0.000108775 0.000269542 -7.26609e-05
internal_weight=118277 1527.28 1140.07 116750 187.145 387.21 952.92 204.936 76062.4 71230.3 182.274 678.683 4832.1 40687.7 2631.44 4132.7 3465.91 274.237 2212.78 238.161 67097.6 1974.62 418.659 473.367 257.704 38056.3 1400.13 486.453 262.672 43127 36868.6 281.895 1086.58 666.792 901.48 218.612 2992.55 172.124 6258.39 2940.34 2706.77 233.567 1058.45 569.958 23970.7 23953.3 398.322 5688.43 574.488 1032.73 4763.31 36586.7 25456.4 270.089 11130.3 147.165 25186.3 365.727 318.53 215.663 458.483 200.047 4644.98 4123.83 2227.63 150.184 1918.78 23555 308.848 235.538 37241 33574.6 33318.8 1720.47 383.058 174.459 1337.41 1104.19 566.839 31598.3 2550.51 1029.87 968.325 29047.8 590.197 350.161 233.218 1520.63 1002.52 255.818 208.599 138.069 148.442 537.354 422.924 428.769 255.13 755.172 28457.6 201.719 202.082 316.175 5598.47 985.538 800.326 185.212 260.031 11103.1 849.536 4612.93 497.337 228.75 28422.2 28145.7 18953.8 9191.89 2647.58 102.321 8241.2 2545.26 950.691 8174.7 6077.18 1039.48 317.029 2097.52
internal_count=120989 478 381 120511 51 97 330 55 82321 78969 42 212 3352 38190 1169 3017 2669 118 941 72 75952 869 228 225 134 37021 595 151 79 46461 41816 116 474 348 408 103 2444 50 4645 2430 2339 91 923 317 29491 29487 205 4328 274 914 3328 41700 28428 88 13272 53 28340 166 148 91 240 125 3262 2855 1218 45 1091 29282 127 89 36367 32419 32320 777 128 55 649 561 221 31543 1435 635 620 30108 251 131 88 800 483 99 73 61 47 340 278 160 100 370 29857 84 76 96 4294 559 466 93 127 13262 850 3735 314 102 29844 29659 23546 6113 2207 102 5483 2105 630 5447 4042 647 175 1405
is_linear=0
shrinkage=1


end of trees

feature_importances:
price_ma_ratio_4h=9
range_hl_1h=8
volatility_96=7
zscore_close_48=6
vol_ma_ratio_4h=6
volatility_4h=6
number_of_trades=5
ret_32=5
zscore_close_96=5
rsi_14=5
ret_16=4
avg_trade_size=4
volatility_20=4
vol_ma_ratio_1h=4
price_ma_ratio_1h=4
ret_1_4h=4
ret_4=3
price_ma_ratio_20=3
price_ma_ratio_96=3
ema_12=3
MACD_12_26_9=3
STOCHd_14_3_3=3
ADXR_14_2=3
DMN_14=3
taker_buy_quote_asset_volume=2
price_ma_ratio_5=2
volume_ma_ratio_10=2
zscore_volume_10=2
sma_20=2
STOCHk_14_3_3=2
zscore_volume_96=1
zscore_taker_buy_96=1
BBU_20_2.0_2.0=1
ret_1_1h=1

parameters:
[boosting: gbdt]
[objective: regression]
[metric: l2]
[tree_learner: serial]
[device_type: cuda]
[data_sample_strategy: bagging]
[data: ]
[valid: ]
[num_iterations: 1000]
[learning_rate: 0.03]
[num_leaves: 127]
[num_threads: 20]
[seed: 42]
[deterministic: 0]
[force_col_wise: 0]
[force_row_wise: 1]
[histogram_pool_size: -1]
[max_depth: -1]
[min_data_in_leaf: 20]
[min_sum_hessian_in_leaf: 0.001]
[bagging_fraction: 0.8]
[pos_bagging_fraction: 1]
[neg_bagging_fraction: 1]
[bagging_freq: 0]
[bagging_seed: 400]
[bagging_by_query: 0]
[feature_fraction: 0.8]
[feature_fraction_bynode: 1]
[feature_fraction_seed: 30056]
[extra_trees: 0]
[extra_seed: 12879]
[early_stopping_round: 0]
[early_stopping_min_delta: 0]
[first_metric_only: 0]
[max_delta_step: 0]
[lambda_l1: 0.2]
[lambda_l2: 0.2]
[linear_lambda: 0]
[min_gain_to_split: 0]
[drop_rate: 0.1]
[max_drop: 50]
[skip_drop: 0.5]
[xgboost_dart_mode: 0]
[uniform_drop: 0]
[drop_seed: 17869]
[top_rate: 0.2]
[other_rate: 0.1]
[min_data_per_group: 100]
[max_cat_threshold: 32]
[cat_l2: 10]
[cat_smooth: 10]
[max_cat_to_onehot: 4]
[top_k: 20]
[monotone_constraints: ]
[monotone_constraints_method: basic]
[monotone_penalty: 0]
[feature_contri: ]
[forcedsplits_filename: ]
[refit_decay_rate: 0.9]
[cegb_tradeoff: 1]
[cegb_penalty_split: 0]
[cegb_penalty_feature_lazy: ]
[cegb_penalty_feature_coupled: ]
[path_smooth: 0]
[interaction_constraints: ]
[verbosity: -1]
[saved_feature_importance_type: 0]
[use_quantized_grad: 0]
[num_grad_quant_bins: 4]
[quant_train_renew_leaf: 0]
[stochastic_rounding: 1]
[linear_tree: 0]
[max_bin: 255]
[max_bin_by_feature: ]
[min_data_in_bin: 3]
[bin_construct_sample_cnt: 200000]
[data_random_seed: 175]
[is_enable_sparse: 1]
[enable_bundle: 1]
[use_missing: 1]
[zero_as_missing: 0]
[feature_pre_filter: 1]
[pre_partition: 0]
[two_round: 0]
[header: 0]
[label_column: ]
[weight_column: ]
[group_column: ]
[ignore_column: ]
[categorical_feature: ]
[forcedbins_filename: ]
[precise_float_parser: 0]
[parser_config_file: ]
[objective_seed: 16083]
[num_class: 1]
[is_unbalance: 0]
[scale_pos_weight: 1]
[sigmoid: 1]
[boost_from_average: 1]
[reg_sqrt: 0]
[alpha: 0.9]
[fair_c: 1]
[poisson_max_delta_step: 0.7]
[tweedie_variance_power: 1.5]
[lambdarank_truncation_level: 30]
[lambdarank_norm: 1]
[label_gain: ]
[lambdarank_position_bias_regularization: 0]
[eval_at: ]
[multi_error_top_k: 1]
[auc_mu_weights: ]
[num_machines: 1]
[local_listen_port: 12400]
[time_out: 120]
[machine_list_filename: ]
[machines: ]
[gpu_platform_id: 0]
[gpu_device_id: 0]
[gpu_use_dp: 0]
[num_gpu: 1]

end of parameters

pandas_categorical:[]
