tree
version=v4
num_class=1
num_tree_per_iteration=1
label_index=0
max_feature_idx=64
objective=regression
feature_names=open high low close volume quote_asset_volume number_of_trades taker_buy_base_asset_volume taker_buy_quote_asset_volume ret_1 ret_2 ret_4 ret_8 range_hl range_oc volume_chg_1 trade_count_chg_1 volatility_5 price_ma_ratio_5 volume_ma_ratio_5 zscore_close_5 zscore_volume_5 volatility_10 price_ma_ratio_10 volume_ma_ratio_10 zscore_close_10 zscore_volume_10 volatility_20 price_ma_ratio_20 volume_ma_ratio_20 zscore_close_20 zscore_volume_20 volatility_48 price_ma_ratio_48 volume_ma_ratio_48 zscore_close_48 zscore_volume_48 volatility_96 price_ma_ratio_96 volume_ma_ratio_96 zscore_close_96 zscore_volume_96 ema_12 ema_26 ema_50 sma_20 sma_60 rsi_14 rsi_28 atr_14 MACD_12_26_9 MACDh_12_26_9 MACDs_12_26_9 BBL_20_2.0_2.0 BBM_20_2.0_2.0 BBU_20_2.0_2.0 BBB_20_2.0_2.0 BBP_20_2.0_2.0 STOCHk_14_3_3 STOCHd_14_3_3 STOCHh_14_3_3 ADX_14 ADXR_14_2 DMP_14 DMN_14
feature_infos=[716.66999999999996:4852.3299999999999] [721.89999999999998:4877.54] [715.60000000000002:4847] [716.64999999999998:4852.3299999999999] [0:1181952.0819999999] [0:3297601643.8953199] [0:1219180] [0:632188.35199999996] [0:1681510168.4810901] [-0.12644703249046962:0.1009014774799053] [-0.13130813174121958:0.14580989616952222] [-0.22781918774541976:0.15469538819110817] [-0.24833417204692509:0.26546222876406644] [0:0.46544323631356538] [-0.1264470324904696:0.10090147747990533] [-1:inf] [-1:inf] [3.7488373419997361e-05:0.07498118263969511] [-0.13991659302262882:0.089164236484549964] [-1:3.9459981706001681] [-1.7886177661436795:1.7888543785839393] [-1.7879105855337039:1.7888152396054273] [0.0001160023164162905:0.068136138044410904] [-0.1893941143415776:0.11301309795654513] [-1:7.441971382333751] [-2.8345651698106531:2.8350696977010483] [-2.3567456027184606:2.8457371473856279] [0.0002450328158310948:0.050872643882240068] [-0.24031328194689883:0.12644413026249857] [-1:12.570229969474711] [-4.209749514643204:4.19234132511344] [-2.2811692117721267:4.2452151230919313] [0.0002970137037256562:0.037234095704908578] [-0.28155197531489773:0.1583407103632446] [-1:23.130676961540477] [-6.3490442320174907:6.1431564745397527] [-1.9468479345948142:6.7373366735594304] [0.00033063061320806364:0.030409913811468799] [-0.33308385418565034:0.23577985885727681] [-1:29.958747815702228] [-8.1780814469653507:7.7598990026462724] [-1.8181721572624392:9.4840742661367958] [724.00638691023391:4839.1932727456733] [726.79126636415504:4815.4977304844979] [729.8455718314658:4798.1954983625155] [727.17899999999986:4838.8634999999995] [729.64250000000015:4802.0726666666651] [4.129737648064232:95.624613228907393] [7.2654587073772721:89.692649145390021] [0.5467101004573508:237.67506212424723] [-194.42234872779272:130.80727327971817] [-66.59892090960858:58.613771987099028] [-154.66344813152972:119.58466140923244] [709.13085749532388:4805.4679577395736] [727.17899999999986:4838.8634999999995] [732.45348048324979:4933.9345183504474] [0.11348006558153138:41.871721064603527] [-0.55243737944380611:1.5480853321941721] [1.0462429503062696:99.636661892345501] [2.8530254484900173:98.527301151013802] [-30.075887675236881:30.273087614642719] [5.2572012594061945:83.075834920966614] [5.4276135974974071:82.697264299028859] [1.2425112740028748:75.9021943393074] [0.55760662701925612:79.170064275738881]
tree_sizes=3072 2712 2732 2766 2697 2635 2736 2650 2626 2646 2631 2645 2640 2768 2779 2737 2691 2647 2627 2804 2800 2614 2776 2692 2629 2756 2740 2768 2585 2707 2723 2783 2773 2712 2805 2722 2668 2742 2713 2671 2675 2744 2674 2610 2759 2717 2667 2690 2678 2816 2745 2706 2673 2704 2565 2680 2720 2632 2654 2647 2602 2680 2771 2611 2616 2685 2659 2686 2692 2647 2666 2655 2742 2749 2590 2757 2741 2690 2677 2696 2617 2612 2819 2724 2670 2697 2638 2674 2637 2639 2681 2628 2747 2577 2625 2686 2716 2647 2655 2650 2646 2667 2656 2625 2716

Tree=0
num_leaves=31
num_cat=0
split_feature=33 13 53 51 42 9 11 38 40 20 16 17 8 13 11 11 21 24 52 13 14 20 24 12 17 60 14 53 40 37
split_gain=0.00236756 0.00313738 0.00481274 0.00192175 0.000864187 0.000734518 0.000842171 0.000516101 0.000450478 0.000835361 0.000569396 0.000693327 0.000397818 0.000380506 0.00041731 0.000348451 0.000749657 0.000343425 0.000301163 0.000271249 0.000320595 0.000514596 0.000562647 0.000245102 0.00040603 0.000311 0.0003672 0.00030722 0.000391047 0.000236848
threshold=-0.068153446931123227 0.035759048698962341 2241.0142595780057 -9.6875665081844122 1063.3164558635756 0.0074127563397436988 0.036662493983954832 0.061809482872368433 -2.3904976356791159 0.20361540669857955 0.25101976171112333 0.010326561851572966 89372122.260705009 0.0058849050636252736 -0.0016270466465759801 -0.018630153885137165 -0.3573318492596112 -0.41656833311120023 -27.138900403931931 0.011543510132711871 -0.0044939447457768454 1.3470863754953346 -0.40900511422711044 -0.016430863105004297 0.01138700459620803 10.29693014528422 0.0098207403139323989 3291.2250623991717 0.33518109545697167 0.0077541290980391352
decision_type=2 2 2 2 2 2 2 2 2 2 2 2 2 2 2 2 2 2 2 2 2 2 2 2 2 2 2 2 2 2
left_child=1 8 3 -3 12 29 7 17 15 10 11 -10 13 -2 -15 16 -1 -7 -5 -16 -21 22 -22 -19 -25 26 -26 28 -28 -6
right_child=4 2 -4 18 5 6 -8 -9 9 -11 -12 -13 -14 14 19 -17 -18 23 -20 20 21 -23 -24 24 25 -27 27 -29 -30 -31
leaf_value=2.3629520579422899e-05 2.3629520579422899e-05 0.00018216311894339436 2.3629520579422899e-05 5.9077139976309972e-05 2.3407277614253351e-05 2.3629520579422899e-05 1.1536061305327755e-05 1.887479108714732e-05 2.3629520579422899e-05 2.3629520579422899e-05 2.3629520579422899e-05 -3.9463721532051214e-05 2.3629520579422899e-05 2.3629520579422899e-05 2.4173747164444495e-05 2.3629520579422899e-05 6.6679651889334983e-05 2.3629520579422899e-05 2.3629520579422899e-05 2.3629520579422899e-05 2.3629520579422899e-05 2.3629520579422899e-05 9.3306627892882399e-05 2.9737080237740819e-05 2.3629520579422899e-05 2.3629520579422899e-05 7.3250657359252418e-05 2.3629520579422899e-05 2.3629520579422899e-05 2.11748765847956e-05
leaf_weight=37 243 48 47 33 110461 131 231 232 20 38 20 55 77 220 187 78 78 324 25 43 21 56 76 2793 44 87 119 24 48 5258
leaf_count=37 243 48 47 33 110461 131 231 232 20 38 20 55 77 220 187 78 78 324 25 43 21 56 76 2793 44 87 119 24 48 5258
internal_value=2.36506e-05 4.58131e-05 8.35227e-05 0.000122151 2.35414e-05 2.34507e-05 2.76076e-05 2.91107e-05 2.36295e-05 1.49956e-05 -7.70385e-06 -2.10926e-05 3.31414e-05 3.5701e-05 3.99851e-05 3.71118e-05 4.82734e-05 3.03363e-05 3.77477e-05 4.66509e-05 5.78799e-05 6.50012e-05 8.04375e-05 3.11581e-05 3.20226e-05 4.56231e-05 5.1823e-05 5.78325e-05 6.2636e-05 2.32886e-05
internal_weight=121154 479 153 106 120675 119752 4033 3802 326 133 95 75 923 846 603 193 115 3570 58 383 196 153 97 3439 3115 322 235 191 167 115719
internal_count=121154 479 153 106 120675 119752 4033 3802 326 133 95 75 923 846 603 193 115 3570 58 383 196 153 97 3439 3115 322 235 191 167 115719
is_linear=0
shrinkage=1


Tree=1
num_leaves=31
num_cat=0
split_feature=33 13 53 51 42 8 49 62 8 13 64 21 62 52 23 53 39 10 28 32 37 5 24 53 63 15 58 56 60 48
split_gain=0.00232904 0.00307102 0.00474514 0.00185066 0.000853524 0.000401537 0.000747336 0.000549235 0.000395058 0.000375895 0.00040059 0.000345556 0.000312149 0.000296191 0.000228872 0.000496551 0.000338459 0.000412063 0.000437234 0.000370433 0.000366184 0.000310429 0.00038079 0.000352213 0.000333451 0.000333009 0.000372807 0.000266251 0.000467914 0.000326472
threshold=-0.068153446931123227 0.035759048698962341 2241.0142595780057 -9.6875665081844122 1063.3164558635756 86879686.833705023 33.3400812061953 46.022016435450816 89372122.260705009 0.0058849050636252736 28.261469678948878 -0.92123806727198099 52.263655591119736 -27.138900403931931 0.0042531367024879483 1039.9468585008024 1.0246396581016832 -0.00073505298895704108 0.011461988854005402 0.0065720015475489151 0.0052667190460229203 49432574.841805004 0.52794545938117265 2105.4411604390903 36.900633390667466 -0.42479086751400991 74.334252817198248 4.5037049549560768 -3.9943221051326101 43.59501077754156
decision_type=2 2 2 2 2 2 2 2 2 2 2 2 2 2 2 2 2 2 2 2 2 2 2 2 2 2 2 2 2 2
left_child=1 5 3 -3 8 6 -1 -7 9 -2 -11 -9 -8 -5 15 -6 17 19 -19 -16 -20 -22 23 24 25 -23 -27 -21 -29 -30
right_child=4 2 -4 13 14 7 12 11 -10 10 -12 -13 -14 -15 16 -17 -18 18 20 27 21 22 -24 -25 -26 26 -28 28 29 -31
leaf_value=0 0 0.00015695483540667846 0 3.5095292029387585e-05 -3.6039546674540209e-05 0 -5.0084359294511125e-05 0 0 1.9628814565268331e-05 0 3.704871313481959e-05 0 0 8.3693090629768297e-08 -3.5445473282632946e-07 3.3959965864962642e-06 7.0054731359018397e-07 0 0 0 0 0 -2.2808783921394331e-06 0 0 -2.2328948653672683e-05 0 0 2.1748970912266823e-05
leaf_weight=37 243 48 47 33 40 98 46 26 77 518 85 87 32 25 1699 99275 3942 8556 2666 174 411 84 443 1077 126 135 567 130 46 381
leaf_count=37 243 48 47 33 40 98 46 26 77 518 85 87 32 25 1699 99275 3942 8556 2666 174 411 84 443 1077 126 135 567 130 46 381
internal_value=2.0721e-08 2.20027e-05 5.93201e-05 9.7695e-05 -8.7014e-08 0 -9.28965e-06 1.19604e-05 9.45339e-06 1.20077e-05 1.62661e-05 2.74241e-05 -3.2906e-05 1.39172e-05 -1.77264e-07 -3.89038e-07 7.53996e-07 1.32541e-09 -5.32425e-07 3.91347e-06 -2.81033e-06 -5.30876e-06 -6.76082e-06 -8.66205e-06 -1.4003e-05 -1.64294e-05 -1.86986e-05 1.0077e-05 1.34551e-05 1.8592e-05
internal_weight=121154 479 153 106 120675 326 115 211 923 846 603 113 78 58 119752 99315 20437 16495 14065 2430 5509 2843 2432 1989 912 786 702 731 557 427
internal_count=121154 479 153 106 120675 326 115 211 923 846 603 113 78 58 119752 99315 20437 16495 14065 2430 5509 2843 2432 1989 912 786 702 731 557 427
is_linear=0
shrinkage=0.01


Tree=2
num_leaves=31
num_cat=0
split_feature=28 13 60 56 47 51 18 61 42 14 11 13 11 24 10 64 37 41 58 23 34 26 28 37 6 64 58 63 13 47
split_gain=0.00214799 0.00143471 0.00337178 0.00282122 0.0024886 0.00141713 0.00331121 0.00139733 0.00104396 0.000748544 0.000815276 0.000448124 0.000656103 0.000504212 0.000916719 0.000504966 0.000385835 0.000641163 0.000759833 0.000544221 0.000549688 0.000454318 0.000527548 0.000667118 0.00067386 0.000572614 0.000442796 0.000441549 0.000413453 0.00036314
threshold=-0.036330688243683344 0.035759048698962341 -7.6595564506214506 9.1437708270376312 38.408927533504546 -9.6875665081844122 -0.020600464638485024 48.109042260353355 1063.3164558635756 0.0090315992850982293 0.036662493983954832 0.028723742750869245 -0.018630153885137165 1.0882778036717655 -0.01315170441160046 40.10646798496488 0.0077541290980391352 -0.32141746985889985 18.346123785864105 0.00012795774998719536 -0.42056824703109058 1.6952945593120468 -0.012223376701958165 0.014666010655518794 41238.500000000007 34.53481756211152 47.866410065171415 20.173118377892909 0.0087544399836435947 56.815611224732699
decision_type=2 2 2 2 2 2 2 2 2 2 2 2 2 2 2 2 2 2 2 2 2 2 2 2 2 2 2 2 2 2
left_child=1 11 -3 -4 5 6 -5 -7 -2 16 -11 12 13 14 15 -1 -10 19 -19 20 28 22 23 24 -20 27 -24 -26 -18 -21
right_child=8 2 3 4 -6 7 -8 -9 9 10 -12 -13 -14 -15 -16 -17 17 18 21 29 -22 -23 26 -25 25 -27 -28 -29 -30 -31
leaf_value=4.8626448974336379e-05 1.0640419546785462e-05 -8.05633825147777e-06 0 0.00018858258198094319 0 0 0 7.9336540798681811e-05 -2.0398570881451494e-07 7.1903200976259759e-06 -1.0304371022992142e-05 -3.6848221300725008e-06 0 0 0 0 0 3.7083451670586631e-06 0 7.4995011396798176e-06 0 0 0 0 -4.2708432444294205e-05 0 -9.7455881770642442e-06 0 -1.8363511600110993e-05 0
leaf_weight=134 888 44 52 47 20 20 25 22 111291 2417 213 134 214 64 141 39 374 265 70 1016 748 237 222 22 260 29 927 20 385 814
leaf_count=134 888 44 52 47 20 20 25 22 111291 2417 213 134 214 64 141 39 374 265 70 1016 748 237 222 22 260 29 927 20 385 814
internal_value=2.0263e-08 1.49294e-05 3.84578e-05 6.01991e-05 8.44416e-05 0.000102754 0.000136613 0 -1.1806e-07 -2.14914e-07 5.01238e-06 4.71289e-06 9.99156e-06 1.81604e-05 2.36104e-05 3.92499e-05 -3.49888e-07 -2.99176e-06 -7.39916e-06 0 -4.72032e-06 -1.01656e-05 -1.21838e-05 -2.4412e-05 -2.8398e-05 -3.47413e-05 -6.17239e-06 -3.91948e-05 -1.07999e-05 3.37439e-06
internal_weight=121154 956 230 186 134 114 72 42 120198 119310 2630 726 592 378 314 173 116680 5389 2052 3337 1507 1787 1550 401 379 309 1149 280 759 1830
internal_count=121154 956 230 186 134 114 72 42 120198 119310 2630 726 592 378 314 173 116680 5389 2052 3337 1507 1787 1550 401 379 309 1149 280 759 1830
is_linear=0
shrinkage=0.01


Tree=3
num_leaves=31
num_cat=0
split_feature=33 13 1 51 9 18 56 42 62 61 37 40 20 15 6 37 10 39 1 59 41 41 7 35 50 37 40 28 13 60
split_gain=0.00224292 0.00294156 0.00439902 0.00127193 0.000824954 0.000855907 0.000640372 0.000591327 0.000528199 0.000439792 0.000828611 0.000427284 0.000816126 0.000599379 0.000402626 0.000418987 0.000334176 0.000331936 0.00033166 0.000304145 0.000299724 0.000260014 0.000257459 0.000339275 0.000251366 0.000226373 0.000488548 0.00105398 0.000735652 0.000578235
threshold=-0.068153446931123227 0.035759048698962341 2500.0350000000003 -9.6875665081844122 0.0074127563397436988 0.019946136170001853 4.0613047339424613 1063.3164558635756 47.026610066011827 37.267328437541579 0.0073785774315428898 -2.3904976356791159 0.20361540669857955 0.25484239341579801 84846.000000000015 0.011181613749438593 -0.01315170441160046 0.70557129113505235 1036.2600000000002 24.875034572705768 -1.0225084884663127 0.3993245758370943 38288.041500000007 -0.88754236844955681 22.182552138381428 0.0077541290980391352 -1.6666781852631247 -0.036330688243683344 0.028723742750869245 5.0004296492221956
decision_type=2 2 2 2 2 2 2 2 2 2 2 2 2 2 2 2 2 2 2 2 2 2 2 2 2 2 2 2 2 2
left_child=1 11 3 -3 7 17 -7 9 -5 10 -2 19 13 14 -13 -16 -12 21 -8 -1 -18 -6 -20 -24 -19 -9 28 -28 -27 -29
right_child=4 2 -4 8 5 6 18 25 -10 -11 16 12 -14 -15 15 -17 20 24 22 -21 -22 -23 23 -25 -26 26 27 29 -30 -31
leaf_value=0 0 0.00013704059719616039 0 0 4.6656021976779517e-06 2.9422750574238373e-06 0 -2.1608290099471076e-07 4.5770412798206144e-05 0 0 0 0 0 0 -0.00010018682298260532 0 1.093774469322787e-05 0 3.9409171758520243e-05 3.584074248257657e-05 -1.4989544504621167e-06 0 -2.7982520900549797e-05 0 -2.9324480771024184e-06 3.412328956141363e-05 -4.0982373332215082e-06 -5.650350777767145e-05 3.7852528349057986e-06
leaf_weight=152 370 57 35 31 1543 71 21 110461 30 139 39 28 38 21 23 23 24 1560 44 41 190 575 21 230 129 395 78 3744 45 996
leaf_count=152 370 57 35 31 1543 71 21 110461 30 139 39 28 38 21 23 23 24 1560 44 41 190 575 21 230 129 395 78 3744 45 996
internal_value=1.98481e-08 2.15925e-05 5.81243e-05 9.00027e-05 -8.50077e-08 4.24577e-06 -7.87154e-06 -2.58118e-07 1.30653e-05 8.42434e-06 1.25447e-05 0 -8.29081e-06 -3.0878e-05 -4.50675e-05 -6.42925e-05 2.67317e-05 6.00322e-06 -1.66267e-05 1.31822e-05 3.16339e-05 2.04785e-06 -2.02105e-05 -2.4135e-05 9.77841e-06 -3.32589e-07 -2.39971e-06 -1.01808e-06 -1.29779e-05 -2.01969e-06
internal_weight=121154 479 153 118 120675 4194 387 116481 61 762 623 326 133 95 74 46 253 3807 316 193 214 2118 295 251 1689 115719 5258 4818 440 4740
internal_count=121154 479 153 118 120675 4194 387 116481 61 762 623 326 133 95 74 46 253 3807 316 193 214 2118 295 251 1689 115719 5258 4818 440 4740
is_linear=0
shrinkage=0.01


Tree=4
num_leaves=31
num_cat=0
split_feature=33 13 53 51 9 18 56 42 61 49 40 20 6 52 32 11 21 39 31 1 52 58 49 53 14 24 11 23 54 52
split_gain=0.00220617 0.00287188 0.00462947 0.00170212 0.000809129 0.000832765 0.000628682 0.000579024 0.000434194 0.000761195 0.000419256 0.000805733 0.000472124 0.000383602 0.000351397 0.00033727 0.000732805 0.000337085 0.000327354 0.000327056 0.000283881 0.00026891 0.000250913 0.000526365 0.000552349 0.000824318 0.000594595 0.000586457 0.000604756 0.00069555
threshold=-0.068153446931123227 0.035759048698962341 2241.0142595780057 -9.6875665081844122 0.0074127563397436988 0.019946136170001853 4.0613047339424613 1063.3164558635756 37.267328437541579 11.943852968439986 -2.3904976356791159 0.20361540669857955 84846.000000000015 15.183675959950143 0.012237087030984351 -0.018630153885137165 -0.3573318492596112 0.79797316713039146 1.8536278811444276 1036.2600000000002 -27.138900403931931 19.104755031199737 14.610241644689181 1431.9310533528126 -0.018583602341921232 1.4881640468700412 -0.024974349831428874 -0.021401204317340657 1205.1360000000002 7.2459091829053959
decision_type=2 2 2 2 2 2 2 2 2 2 2 2 2 2 2 2 2 2 2 2 2 2 2 2 2 2 2 2 2 2
left_child=1 10 3 -3 7 13 -7 8 9 -2 15 12 -12 17 -14 16 -1 -6 -18 -8 -5 -11 -9 24 25 26 -24 -26 -29 -30
right_child=4 2 -4 20 5 6 19 22 -10 21 11 -13 14 -15 -16 -17 18 -19 -20 -21 -22 -23 23 -25 27 -27 -28 28 29 -31
leaf_value=0 0 0.00015311084302235009 0 3.4076534969036474e-05 2.9088331874207863e-06 2.9129352161577056e-06 0 0 0 0 0 0 0 0 -6.7938743046514928e-05 0 5.5964984670593531e-05 1.1509517214620973e-05 0 -1.9992436218548849e-05 0 3.1401608550357316e-05 -8.3223270538093676e-05 -6.464841741376734e-07 1.398975960334525e-05 0 0 0 -1.5031122373580894e-05 0
leaf_weight=37 401 48 47 33 1949 71 21 76572 139 20 37 38 21 424 37 78 55 1434 23 295 25 202 35 37086 111 20 31 576 863 425
leaf_count=37 401 48 47 33 1949 71 21 76572 139 20 37 38 21 424 37 78 55 1434 23 295 25 202 35 37086 111 20 31 576 863 425
internal_value=1.952e-08 2.14152e-05 5.75248e-05 9.55656e-05 -8.39716e-08 4.20482e-06 -7.71071e-06 -2.55571e-07 8.335e-06 1.24354e-05 0 -8.11781e-06 -3.06359e-05 5.94176e-06 -4.84402e-05 1.30986e-05 2.40938e-05 7.14615e-06 4.23352e-05 -1.64231e-05 1.32152e-05 2.78619e-05 -3.29436e-07 -9.80693e-07 -6.02355e-06 -3.43835e-05 -5.27692e-05 -3.77272e-06 -5.9047e-06 -9.86919e-06
internal_weight=121154 479 153 106 120675 4194 387 116481 762 623 326 133 95 3807 58 193 115 3383 78 316 58 222 115719 39147 2061 86 66 1975 1864 1288
internal_count=121154 479 153 106 120675 4194 387 116481 762 623 326 133 95 3807 58 193 115 3383 78 316 58 222 115719 39147 2061 86 66 1975 1864 1288
is_linear=0
shrinkage=0.01


Tree=5
num_leaves=31
num_cat=0
split_feature=33 18 47 1 27 44 9 18 56 42 20 8 32 19 37 61 37 52 59 4 20 36 10 1 40 50 59 24 6 41
split_gain=0.00216737 0.00251165 0.00324486 0.00349962 0.0013448 0.00081584 0.000793965 0.000811648 0.000617993 0.000567616 0.000552898 0.000962875 0.00178714 0.000767523 0.000687383 0.000429003 0.000791696 0.000378277 0.000328355 0.000374635 0.000499268 0.000375304 0.000327058 0.000322854 0.000315217 0.000336175 0.000423275 0.000394333 0.000393008 0.000294598
threshold=-0.068153446931123227 -0.020600464638485024 29.374707584833427 2500.0350000000003 0.015053755622143285 1292.133328667026 0.0074127563397436988 0.019946136170001853 4.0613047339424613 1063.3164558635756 -0.91820074940730267 74236350.013595015 0.018133386792613431 0.0087684221403839819 0.008234122690369378 37.267328437541579 0.0073785774315428898 15.183675959950143 12.782282429293906 34889.602500000008 1.2599489499744549 1.1051952187731384 -0.01315170441160046 1036.2600000000002 2.6140009589963045 -31.55141899507657 19.498566930632215 1.1328300306297763 35013.500000000007 -1.0225084884663127
decision_type=2 2 2 2 2 2 2 2 2 2 2 2 2 2 2 2 2 2 2 2 2 2 2 2 2 2 2 2 2 2
left_child=1 2 3 4 5 -1 9 17 -9 15 13 -12 -13 14 -3 16 -2 18 -8 -20 24 -22 -18 -10 25 -21 -27 28 -28 -24
right_child=6 10 -4 -5 -6 -7 7 8 23 -11 11 12 -14 -15 -16 -17 22 -19 19 20 21 -23 29 -25 -26 26 27 -29 -30 -31
leaf_value=0 0 0 0 0 0.00022958870283064416 6.9160542958249062e-05 0 2.8838839493852138e-06 0 -3.2612584496471127e-07 0 6.6043244824060514e-07 0.00012112738757903845 0 -8.4250362204580458e-05 0 0 0 0 0 0 8.5550633622820759e-06 0 -1.9792647181464245e-05 0 0 0 0 3.118041197107435e-05 3.5235063808448187e-05
leaf_weight=20 370 25 41 34 21 50 132 71 21 115719 47 143 21 54 23 139 39 424 543 122 747 1103 24 295 28 118 89 56 445 190
leaf_count=20 370 25 41 34 21 50 132 71 21 115719 47 143 21 54 23 139 39 424 543 122 747 1103 24 295 28 118 89 56 445 190
internal_value=1.92782e-08 2.12266e-05 5.30125e-05 7.95134e-05 0.000111878 4.75214e-05 -8.26888e-08 4.16552e-06 -7.56374e-06 -2.52826e-07 0 1.30747e-05 2.83951e-05 -1.37014e-05 -4.46141e-05 8.25177e-06 1.23336e-05 5.88351e-06 7.08061e-06 7.89113e-06 9.41215e-06 4.83272e-06 2.62123e-05 -1.62366e-05 1.69523e-05 1.83042e-05 2.09816e-05 2.44941e-05 2.71417e-05 3.10624e-05
internal_weight=121154 479 166 125 91 70 120675 4194 387 116481 313 211 164 102 48 762 623 3807 3383 3251 2708 1850 253 316 858 830 708 590 534 214
internal_count=121154 479 166 125 91 70 120675 4194 387 116481 313 211 164 102 48 762 623 3807 3383 3251 2708 1850 253 316 858 830 708 590 534 214
is_linear=0
shrinkage=0.01


Tree=6
num_leaves=31
num_cat=0
split_feature=28 13 60 16 40 53 42 14 11 27 22 32 61 15 17 10 37 41 58 23 34 27 26 28 37 48 12 5 58 63
split_gain=0.0020121 0.00129912 0.00323711 0.00287212 0.00313316 0.00309986 0.000980048 0.000701089 0.000754848 0.000551882 0.000737739 0.00060809 0.00127132 0.000548223 0.000592454 0.000539709 0.00036481 0.000622514 0.000743567 0.000528512 0.000539138 0.000457271 0.000446811 0.000507467 0.000656261 0.000598267 0.000605004 0.000663586 0.000433745 0.000357961
threshold=-0.036330688243683344 0.035759048698962341 -7.6595564506214506 0.67326158559742755 -2.0105742972345109 2241.0142595780057 1063.3164558635756 0.0090315992850982293 0.036662493983954832 0.0090469653741044997 0.012576487828362315 0.0084083729454573746 33.3412275543647 -0.20645363341250503 0.012065787117825966 1.0000000180025095e-35 0.0077541290980391352 -0.32141746985889985 18.346123785864105 0.00012795774998719536 -0.42056824703109058 0.0060202251012501 1.6952945593120468 -0.012223376701958165 0.014666010655518794 35.839275420170416 -0.00043025885207442766 69161899.165205017 47.866410065171415 19.430551689112068
decision_type=2 2 2 2 2 2 2 2 2 2 2 2 2 2 2 2 2 2 2 2 2 2 2 2 2 2 2 2 2 2
left_child=1 9 -3 4 5 -4 -2 16 -9 -1 11 -11 -13 -12 -15 -16 -8 19 -19 20 21 -18 23 24 25 -20 27 -27 -25 -29
right_child=6 2 3 -5 -6 -7 7 8 -10 10 13 12 -14 14 15 -17 17 18 22 -21 -22 -23 -24 28 -26 26 -28 29 -30 -31
leaf_value=1.4478307581756518e-05 1.0309884939190446e-05 -8.2899594921260472e-06 0.00015892296550518476 0 0 0 -1.96091243829272e-07 6.9627163402753677e-06 -9.7265960043645677e-06 0 0 0 -8.2494788984667936e-05 0 4.7520778588038062e-05 0 0 3.7191232708706254e-06 0 3.3662710331372915e-06 0 -1.5174198543094985e-05 0 0 0 0 0 -4.6332559170845799e-05 -9.602076314841098e-06 0
leaf_weight=335 888 44 61 70 31 24 111291 2417 213 51 113 51 37 38 78 23 187 265 26 1830 748 572 237 222 22 42 48 242 927 21
leaf_count=335 888 44 61 70 31 24 111291 2417 213 51 113 51 37 38 78 23 187 265 26 1830 748 572 237 222 22 42 48 242 927 21
internal_value=1.89108e-08 1.44507e-05 3.69628e-05 5.84063e-05 8.90955e-05 0.000120431 -1.12985e-07 -2.0734e-07 4.85004e-06 4.55645e-06 0 -2.16456e-05 -3.78007e-05 5.82407e-06 2.13376e-05 3.48092e-05 -3.38484e-07 -2.90788e-06 -7.2484e-06 0 -4.6158e-06 -1.06448e-05 -9.99412e-06 -1.1999e-05 -2.4038e-05 -2.80074e-05 -3.18048e-05 -3.69982e-05 -6.05357e-06 -4.28885e-05
internal_weight=121154 956 230 186 116 85 120198 119310 2630 726 391 139 88 252 139 101 116680 5389 2052 3337 1507 759 1787 1550 401 379 353 305 1149 263
internal_count=121154 956 230 186 116 85 120198 119310 2630 726 391 139 88 252 139 101 116680 5389 2052 3337 1507 759 1787 1550 401 379 353 305 1149 263
is_linear=0
shrinkage=0.01


Tree=7
num_leaves=31
num_cat=0
split_feature=33 13 53 51 9 10 23 42 61 37 40 25 32 52 31 10 19 22 59 23 55 50 59 41 52 36 63 17 49 53
split_gain=0.00208964 0.00270925 0.00445949 0.00163241 0.000763545 0.000653376 0.000787712 0.000542278 0.000420704 0.000775543 0.000396363 0.000474826 0.000489161 0.000322758 0.000339065 0.000320089 0.000318236 0.000349936 0.000483247 0.000481673 0.000424166 0.000369749 0.000297305 0.000288936 0.000264712 0.000252967 0.000483206 0.000458776 0.000244002 0.000507035
threshold=-0.068153446931123227 0.035759048698962341 2241.0142595780057 -9.6875665081844122 0.0074127563397436988 0.026455404355568705 0.029447666829021227 1063.3164558635756 37.267328437541579 0.0073785774315428898 -2.3904976356791159 -0.75234532165756585 0.010690794016589369 15.183675959950143 0.047946569023745049 -0.01315170441160046 -0.22159882242825249 0.0086696871883815852 12.782282429293906 0.024100786075068163 2667.8178454260647 -2.0036649860561506 24.875034572705768 -1.0225084884663127 -27.138900403931931 2.7185124025644765 22.383932658357832 0.0098665556836395486 14.610241644689181 1431.9310533528126
decision_type=2 2 2 2 2 2 2 2 2 2 2 2 2 2 2 2 2 2 2 2 2 2 2 2 2 2 2 2 2 2
left_child=1 10 3 -3 7 13 -7 8 9 -2 22 12 -12 14 -6 -11 -16 21 -19 20 25 -18 -1 -17 -5 26 27 -20 -9 -30
right_child=4 2 -4 24 5 6 -8 28 -10 15 11 -13 -14 -15 16 23 17 18 19 -21 -22 -23 -24 -25 -26 -27 -28 -29 29 -31
leaf_value=0 0 0.00014968536599032983 0 3.2382458118800385e-05 0 0 -2.3374163435337228e-05 0 0 0 0 0 -4.810231002212493e-05 0 0 0 0 0 0 0 0 8.9726011848256762e-06 3.8535130671926238e-05 3.4779975327617105e-05 0 0 0 5.9483103505461505e-05 -5.9133202906958099e-06 -6.3275567988894854e-07
leaf_weight=152 370 48 47 33 941 183 172 76572 139 39 21 67 45 434 92 24 543 46 31 53 70 1441 41 190 25 20 46 122 2061 37086
leaf_count=152 370 48 47 33 941 183 172 76572 139 39 21 67 45 434 92 24 543 46 31 53 70 1441 41 190 25 20 46 122 2061 37086
internal_value=1.8538e-08 2.08432e-05 5.59226e-05 9.33302e-05 -8.04115e-08 4.08517e-06 -6.56535e-06 -2.47574e-07 8.06264e-06 1.21249e-05 0 -7.83968e-06 -2.89987e-05 5.59128e-06 6.68769e-06 2.58484e-05 8.69276e-06 9.58696e-06 2.11694e-05 2.54873e-05 3.05811e-05 6.31198e-06 1.27587e-05 3.06467e-05 1.1973e-05 3.77805e-05 4.12027e-05 5.02276e-05 -3.19593e-07 -9.61883e-07
internal_weight=121154 479 153 106 120675 4194 355 116481 762 623 326 133 66 3839 3405 253 2464 2372 388 342 289 1984 193 214 58 219 199 153 115719 39147
internal_count=121154 479 153 106 120675 4194 355 116481 762 623 326 133 66 3839 3405 253 2464 2372 388 342 289 1984 193 214 58 219 199 153 115719 39147
is_linear=0
shrinkage=0.01


Tree=8
num_leaves=31
num_cat=0
split_feature=33 13 53 51 9 18 56 40 20 16 17 2 62 37 19 52 39 1 59 52 26 24 35 17 36 22 6 2 51 22
split_gain=0.00205759 0.00264923 0.00439794 0.00156927 0.000749174 0.000769786 0.000599567 0.000388985 0.000778614 0.000541154 0.000661981 0.0003772 0.000444824 0.00051031 0.000539221 0.000366528 0.000323062 0.000316292 0.000289207 0.000260365 0.000242576 0.000246013 0.000235192 0.000245252 0.000231052 0.000305203 0.00035746 0.000368609 0.000424945 0.000380411
threshold=-0.068153446931123227 0.035759048698962341 2241.0142595780057 -9.6875665081844122 0.0074127563397436988 0.019946136170001853 4.0613047339424613 -2.3904976356791159 0.20361540669857955 0.25101976171112333 0.010326561851572966 1057.6100000000001 33.670452372074521 0.0073785774315428898 0.45222614426964375 15.183675959950143 0.79797316713039146 1036.2600000000002 24.875034572705768 -27.138900403931931 0.64400642112603945 -0.41656833311120023 -0.88754236844955681 0.0075431104754065861 0.58627906354807646 0.0061302012330059358 35967.500000000007 2744.2750000000005 -4.2237871535962661 0.0073629328163516998
decision_type=2 2 2 2 2 2 2 2 2 2 2 2 2 2 2 2 2 2 2 2 2 2 2 2 2 2 2 2 2 2
left_child=1 7 3 -3 11 15 -7 18 9 10 -9 12 13 -2 -15 16 20 -8 -1 -5 21 -6 -19 -24 25 -23 -27 28 -28 -30
right_child=4 2 -4 19 5 6 17 8 -10 -11 -12 -13 -14 14 -16 -17 -18 22 -20 -21 -22 24 23 -25 -26 26 27 -29 29 -31
leaf_value=0 0 0.00014819472402148723 0 3.2060603854521339e-05 0 2.8027571640317469e-06 0 0 0 0 -6.1092948985722189e-05 -3.0720269430030598e-07 0 2.9881926395680844e-05 0 0 1.1177759389397913e-05 0 3.815164868392104e-05 0 0 0 0 -2.5635297307943758e-05 0 0 0 0 0 3.3545717304189839e-05
leaf_weight=152 277 48 47 33 138 71 21 20 38 20 55 115739 234 205 26 424 1434 25 41 25 702 273 27 243 148 218 62 111 57 240
leaf_count=152 277 48 47 33 138 71 21 20 38 20 55 115739 234 205 26 424 1434 25 41 25 702 273 27 243 148 218 62 111 57 240
internal_value=1.83432e-08 2.06832e-05 5.53839e-05 9.2553e-05 -7.93442e-08 4.04663e-06 -7.32093e-06 0 -7.67717e-06 -3.00056e-05 -4.31209e-05 -2.4508e-07 6.74772e-06 1.24107e-05 2.36492e-05 5.72784e-06 6.9104e-06 -1.5921e-05 1.26769e-05 1.17894e-05 2.74374e-06 5.58705e-06 -1.94591e-05 -2.23771e-05 7.56822e-06 9.49396e-06 1.30476e-05 1.8033e-05 2.29848e-05 2.79552e-05
internal_weight=121154 479 153 106 120675 4194 387 326 133 95 75 116481 742 508 231 3807 3383 316 193 58 1949 1247 295 270 1109 961 688 470 359 297
internal_count=121154 479 153 106 120675 4194 387 326 133 95 75 116481 742 508 231 3807 3383 316 193 58 1949 1247 295 270 1109 961 688 470 359 297
is_linear=0
shrinkage=0.01


Tree=9
num_leaves=31
num_cat=0
split_feature=33 13 42 35 32 43 32 9 11 38 24 40 20 16 17 11 21 31 22 5 11 51 20 12 22 33 0 59 13 40
split_gain=0.00203112 0.00258544 0.00384508 0.00227179 0.00228743 0.000738096 0.000660206 0.000523302 0.000863673 0.000508219 0.000395927 0.000379958 0.000763643 0.000532372 0.000649958 0.000322361 0.000713314 0.000319803 0.000316275 0.000436394 0.000352276 0.000322789 0.000278082 0.000268803 0.000366801 0.00100442 0.00045273 0.00044092 0.000498169 0.000340308
threshold=-0.068153446931123227 0.035759048698962341 2540.3189331767994 -2.0120447855074635 0.014657021704236625 1030.0328526221817 0.011381444349408744 0.0074127563397436988 0.036662493983954832 0.061809482872368433 -0.41656833311120023 -2.3904976356791159 0.20361540669857955 0.25101976171112333 0.010326561851572966 -0.018630153885137165 -0.3573318492596112 1.8536278811444276 0.0050487247271885681 178550598.50252002 -0.015238285846572995 7.7361731112339909 1.2360144680591076 -0.016430863105004297 0.0086696871883815852 0.011667838425936885 3335.0800000000004 28.927549157728869 0.013040887030610416 -0.29371587821472567
decision_type=2 2 2 2 2 2 2 2 2 2 2 2 2 2 2 2 2 2 2 2 2 2 2 2 2 2 2 2 2 2
left_child=1 11 3 4 6 18 -3 -7 9 10 -9 15 13 14 -13 16 -1 -18 -2 20 -20 -22 -10 -12 29 26 27 -26 -29 -25
right_child=5 2 -4 -5 -6 7 -8 8 22 -11 23 12 -14 -15 -16 -17 17 -19 19 -21 21 -23 -24 24 25 -27 -28 28 -30 -31
leaf_value=0 0 5.8596815106861794e-05 0 0 0.00019944314894075534 -2.8306617615172716e-07 0 -3.3659911859905743e-06 0 -5.6412661409647342e-06 0 0 0 0 -6.0484234357621362e-05 0 5.4871443729928652e-05 0 0 0 3.0033180363029876e-05 0 -2.0294581344607537e-05 0 0 0 0 0 4.4156182557935703e-05 7.2217698484988846e-06
leaf_weight=37 115 25 32 38 32 116125 26 135 71 234 336 20 38 20 55 78 55 23 36 49 238 24 166 616 112 181 48 25 209 1955
leaf_count=37 115 25 32 38 32 116125 26 135 71 234 336 20 38 20 55 78 55 23 36 49 238 24 166 616 112 181 48 25 209 1955
internal_value=1.79536e-08 2.05501e-05 5.48505e-05 8.3519e-05 0.000113542 -7.84012e-08 2.00126e-05 -1.43354e-07 3.33595e-06 4.8668e-06 6.0998e-06 0 -7.42491e-06 -2.96527e-05 -4.2674e-05 1.25959e-05 2.33647e-05 4.14291e-05 1.24881e-05 1.72829e-05 2.22289e-05 2.63879e-05 -1.30901e-05 7.04132e-06 7.9636e-06 1.71038e-05 2.61086e-05 3.01154e-05 3.91015e-05 5.1404e-06
internal_weight=121154 479 153 121 83 120675 51 120213 4088 3851 3617 326 133 95 75 193 115 78 462 347 298 262 237 3482 3146 575 394 346 234 2571
internal_count=121154 479 153 121 83 120675 51 120213 4088 3851 3617 326 133 95 75 193 115 78 462 347 298 262 237 3482 3146 575 394 346 234 2571
is_linear=0
shrinkage=0.01


Tree=10
num_leaves=31
num_cat=0
split_feature=33 13 53 51 42 9 11 38 8 41 3 63 8 13 11 13 24 14 20 31 40 12 22 33 40 3 17 51 52 23
split_gain=0.00200014 0.00253062 0.00429113 0.00150513 0.000721367 0.000604513 0.000708354 0.000474949 0.000373696 0.000660889 0.000443908 0.000389126 0.000365107 0.00034054 0.000417858 0.00033787 0.000326729 0.000325369 0.000558485 0.000704663 0.000267321 0.000266535 0.000471023 0.000804748 0.000409576 0.000387421 0.000321034 0.000315726 0.000252122 0.000247238
threshold=-0.068153446931123227 0.035759048698962341 2241.0142595780057 -9.6875665081844122 1063.3164558635756 0.0074127563397436988 0.036662493983954832 0.044402586616595803 86879686.833705023 0.77259946211696617 1482.3150000000003 7.7253051482617279 89372122.260705009 0.0058849050636252736 -0.00081558008228277401 0.011329617653763542 -0.41656833311120023 -0.0044939447457768454 1.3470863754953346 -0.89603636857914981 -2.2237344673037476 -0.015202129244065941 0.0086696871883815852 0.011667838425936885 -0.29371587821472567 3376.6350000000007 0.0068137870166807644 -2.5666359498005287 -27.138900403931931 0.008033917961300709
decision_type=2 2 2 2 2 2 2 2 2 2 2 2 2 2 2 2 2 2 2 2 2 2 2 2 2 2 2 2 2 2
left_child=1 8 3 -3 12 -6 7 16 10 -10 -1 -12 13 -2 -15 -16 -7 -17 19 -19 -13 -18 24 25 -23 26 -24 -28 -5 -21
right_child=4 2 -4 28 5 6 -8 -9 9 -11 11 20 -14 14 15 17 21 18 -20 29 -22 22 23 -25 -26 -27 27 -29 -30 -31
leaf_value=0 0 0.00014581117257321278 0 3.1243682143289634e-05 -3.1066775424799867e-07 0 -1.093174813462088e-05 -9.7500500553911787e-07 4.2993295003377331e-05 0 0 0 0 0 0 0 0 0 0 0 -7.4875553639359635e-05 0 0 0 7.8461972569060853e-06 0 0 3.9852544031607596e-05 0 9.5062985262438197e-05
leaf_weight=47 243 48 47 33 115719 124 231 534 51 160 27 20 77 234 176 41 336 25 57 26 21 603 26 139 1691 47 70 232 25 44
leaf_count=47 243 48 47 33 115719 124 231 534 51 160 27 20 77 234 176 41 336 25 57 26 21 603 26 139 1691 47 70 232 25 44
internal_value=1.73293e-08 2.03928e-05 5.43383e-05 9.11043e-05 -7.77781e-08 -1.62074e-07 3.60544e-06 5.01522e-06 0 1.16268e-05 -8.74959e-06 -2.79321e-05 8.69029e-06 1.12045e-05 1.52502e-05 2.2207e-05 6.606e-06 3.34258e-05 4.03984e-05 5.65318e-05 -4.72862e-05 7.46671e-06 8.4802e-06 1.90136e-05 5.24683e-06 2.66446e-05 3.04901e-05 3.34045e-05 1.11199e-05 7.30599e-05
internal_weight=121154 479 153 106 120675 119752 4033 3802 326 211 115 68 923 846 603 369 3268 193 152 95 41 3144 2808 514 2294 375 328 302 58 70
internal_count=121154 479 153 106 120675 119752 4033 3802 326 211 115 68 923 846 603 369 3268 193 152 95 41 3144 2808 514 2294 375 328 302 58 70
is_linear=0
shrinkage=0.01


Tree=11
num_leaves=31
num_cat=0
split_feature=33 13 53 51 42 9 11 38 40 20 15 17 8 13 11 13 24 14 20 31 11 7 12 22 33 38 0 17 51 32
split_gain=0.00196482 0.0024789 0.00423227 0.00144547 0.000713775 0.000588878 0.000694872 0.000467191 0.000365908 0.000746755 0.000564851 0.000663747 0.000363006 0.000337164 0.000412057 0.000328528 0.000322859 0.000319561 0.000545057 0.000690902 0.000316106 0.000529555 0.000261991 0.000460188 0.000790699 0.000406505 0.000405656 0.000317127 0.000306512 0.000285565
threshold=-0.068153446931123227 0.035759048698962341 2241.0142595780057 -9.6875665081844122 1063.3164558635756 0.0074127563397436988 0.036662493983954832 0.044402586616595803 -2.3904976356791159 0.20361540669857955 0.25484239341579801 0.010326561851572966 89372122.260705009 0.0058849050636252736 -0.00081558008228277401 0.011329617653763542 -0.41656833311120023 -0.0044939447457768454 1.3470863754953346 -0.89603636857914981 -0.018630153885137165 87392.679000000018 -0.015202129244065941 0.0086696871883815852 0.011667838425936885 0.012877540056397853 3335.0800000000004 0.0068137870166807644 -2.5666359498005287 0.0062893713043500844
decision_type=2 2 2 2 2 2 2 2 2 2 2 2 2 2 2 2 2 2 2 2 2 2 2 2 2 2 2 2 2 2
left_child=1 8 3 -3 12 -6 7 16 20 10 11 -10 13 -2 -15 -16 -7 -17 19 -19 21 -1 -18 25 26 -24 27 -25 -29 -30
right_child=4 2 -4 -5 5 6 -8 -9 9 -11 -12 -13 -14 14 15 17 22 18 -20 -21 -22 -23 23 24 -26 -27 -28 28 29 -31
leaf_value=3.7518939516034546e-05 0 0.00014435910899964976 0 1.0942730863012141e-05 -3.0756104122240655e-07 0 -1.082252567842931e-05 -9.6525860864605562e-07 0 0 0 -6.1408637873991656e-05 0 0 0 0 0 0 0 7.2464100884828692e-05 0 0 0 0 0 9.6050352782982596e-06 0 0 0 4.3134170458264038e-05
leaf_weight=81 243 48 47 58 115719 124 231 534 20 38 21 54 77 234 176 41 336 25 57 70 78 34 1184 26 139 1110 46 70 22 211
leaf_count=81 243 48 47 58 115719 124 231 534 20 38 21 54 77 234 176 41 336 25 57 70 78 34 1184 26 139 1110 46 70 22 211
internal_value=1.69106e-08 2.02123e-05 5.38141e-05 9.03482e-05 -7.67588e-08 -1.60698e-07 3.55717e-06 4.95738e-06 0 -7.17332e-06 -2.92644e-05 -4.31281e-05 8.64498e-06 1.1155e-05 1.51809e-05 2.20937e-05 6.53711e-06 3.32093e-05 4.01236e-05 5.60924e-05 1.24063e-05 2.30766e-05 7.3951e-06 8.40003e-06 1.88338e-05 5.18899e-06 2.63982e-05 3.02897e-05 3.31773e-05 3.95295e-05
internal_weight=121154 479 153 106 120675 119752 4033 3802 326 133 95 74 923 846 603 369 3268 193 152 95 193 115 3144 2808 514 2294 375 329 303 233
internal_count=121154 479 153 106 120675 119752 4033 3802 326 133 95 74 923 846 603 369 3268 193 152 95 193 115 3144 2808 514 2294 375 329 303 233
is_linear=0
shrinkage=0.01


Tree=12
num_leaves=31
num_cat=0
split_feature=33 13 1 47 27 40 9 18 56 8 41 1 2 62 37 19 52 39 1 63 7 35 26 24 36 22 6 50 1 22
split_gain=0.00193527 0.00242721 0.00398214 0.00136462 0.00173796 0.000980059 0.000681993 0.000723353 0.000582836 0.000363224 0.000653026 0.000434227 0.000354436 0.000434058 0.000488766 0.000526414 0.000348716 0.000324328 0.000306374 0.000259984 0.000250798 0.000321154 0.000231239 0.000233536 0.000222687 0.000292562 0.000348374 0.000449879 0.000386718 0.000554559
threshold=-0.068153446931123227 0.035759048698962341 2500.0350000000003 29.374707584833427 0.013801115045820539 -2.2779126750658936 0.0074127563397436988 0.019946136170001853 4.0613047339424613 86879686.833705023 0.77259946211696617 1621.7200000000003 1057.6100000000001 33.670452372074521 0.0073785774315428898 0.45222614426964375 15.183675959950143 0.79797316713039146 1036.2600000000002 7.7253051482617279 38288.041500000007 -0.88754236844955681 0.64400642112603945 -0.41656833311120023 0.58627906354807646 0.0061302012330059358 35967.500000000007 -35.247371317816935 2716.0400000000004 0.0073629328163516998
decision_type=2 2 2 2 2 2 2 2 2 2 2 2 2 2 2 2 2 2 2 2 2 2 2 2 2 2 2 2 2 2
left_child=1 9 3 4 -3 -5 12 16 -9 11 -11 -1 13 14 -2 -16 17 22 -10 -13 -20 -22 23 -8 25 -25 -27 -28 29 -29
right_child=6 2 -4 5 -6 -7 7 8 18 10 -12 19 -14 -15 15 -17 -18 -19 20 -21 21 -23 -24 24 -26 26 27 28 -30 -31
leaf_value=0 0 1.3537936229308842e-05 0 0 0.00022125828794428504 5.5576080184499297e-05 0 2.6844085374924866e-06 0 4.2669667907233583e-05 0 0 -2.9522453817659326e-07 0 2.9343422495542288e-05 0 0 1.0891627174390414e-05 0 -4.636694065511267e-05 0 -2.6789421018197458e-05 0 0 0 0 0 0 0 3.3444937832186821e-05
leaf_weight=54 277 37 35 26 23 32 138 71 21 51 160 25 115739 234 205 26 424 1434 44 36 21 230 702 273 148 218 65 63 88 254
leaf_count=54 277 37 35 26 23 32 138 71 21 51 160 25 115739 234 205 26 424 1434 44 36 21 230 702 273 148 218 65 63 88 254
internal_value=1.65184e-08 2.00602e-05 5.33204e-05 8.39875e-05 0.000126857 4.99183e-06 -7.56179e-08 3.85977e-06 -7.11571e-06 0 1.14971e-05 -8.54172e-06 -2.34492e-07 6.54163e-06 1.21617e-05 2.31629e-05 5.50112e-06 6.66049e-06 -1.5643e-05 -2.91008e-05 -1.91285e-05 -2.3018e-05 2.52053e-06 5.33569e-06 7.28465e-06 9.1872e-06 1.26648e-05 1.75743e-05 2.16662e-05 2.68621e-05
internal_weight=121154 479 153 118 60 58 120675 4194 387 326 211 115 116481 742 508 231 3807 3383 316 61 295 251 1949 1247 1109 961 688 470 405 317
internal_count=121154 479 153 118 60 58 120675 4194 387 326 211 115 116481 742 508 231 3807 3383 316 61 295 251 1949 1247 1109 961 688 470 405 317
is_linear=0
shrinkage=0.01


Tree=13
num_leaves=31
num_cat=0
split_feature=33 13 53 51 43 9 11 38 24 8 49 41 22 5 11 51 1 24 14 61 20 12 10 37 14 33 20 51 58 49
split_gain=0.00190365 0.00238045 0.00414004 0.00138071 0.000695161 0.000470378 0.000799857 0.000483261 0.000379114 0.000355415 0.000689512 0.000639529 0.000300231 0.000419607 0.00034046 0.000316208 0.000315265 0.000313917 0.000331579 0.000276848 0.00026814 0.000257794 0.000356214 0.000488931 0.000255857 0.000327721 0.000353616 0.000304303 0.000501129 0.000702853
threshold=-0.068153446931123227 0.035759048698962341 2241.0142595780057 -9.6875665081844122 1030.0328526221817 0.0074127563397436988 0.036662493983954832 0.061809482872368433 -0.41656833311120023 86879686.833705023 33.3400812061953 0.77259946211696617 0.0050487247271885681 178550598.50252002 -0.015238285846572995 7.7361731112339909 1036.2600000000002 -0.5549093263657543 0.0016232881198823244 53.229286351017656 1.2360144680591076 -0.016430863105004297 0.00090331895371231774 0.0073785774315428898 -0.0091069321484515253 -0.047793206217642652 0.70436958488858281 -7.9580376678324622 58.977287408456277 14.812214598634172
decision_type=2 2 2 2 2 2 2 2 2 2 2 2 2 2 2 2 2 2 2 2 2 2 2 2 2 2 2 2 2 2
left_child=1 9 3 -3 12 24 7 8 -7 10 -1 -11 -2 14 -14 16 17 -16 -19 -12 -8 -10 23 -23 27 26 -26 -6 29 -29
right_child=4 2 -4 -5 5 6 20 -9 21 11 19 -13 13 -15 15 -17 -18 18 -20 -21 -22 22 -24 -25 25 -27 -28 28 -30 -31
leaf_value=0 0 0.00014211852996150241 0 1.0389321666895778e-05 2.1835321116277264e-06 -3.3437069186161269e-06 0 -5.5628780346888888e-06 0 4.2244644462527951e-05 -4.7618232399590102e-05 0 0 0 0 0 0 0 5.8478266391356068e-05 0 -1.9685392423047351e-05 0 5.8880454230999841e-06 4.585824103649207e-05 1.1838023143317508e-05 -2.3569887316103231e-07 0 0 5.8633962652026801e-08 -1.2465490424649538e-05
leaf_weight=37 115 48 47 58 327 135 71 234 336 51 46 160 36 49 27 24 32 91 88 32 166 116 2950 80 468 113004 56 543 571 1156
leaf_count=37 115 48 47 58 327 135 71 234 336 51 46 160 36 49 27 24 32 91 88 32 166 116 2950 80 468 113004 56 543 571 1156
internal_value=1.61034e-08 1.98959e-05 5.28394e-05 8.9028e-05 -7.47883e-08 -1.38311e-07 3.15804e-06 4.64706e-06 5.86077e-06 0 -8.39683e-06 1.13941e-05 1.21197e-05 1.67932e-05 2.16579e-05 2.57549e-05 2.93751e-05 3.39073e-05 3.87054e-05 -3.13942e-05 -1.25888e-05 6.79216e-06 7.69766e-06 2.47068e-05 -2.71582e-07 -1.81918e-07 7.59668e-06 -3.42089e-06 -5.10932e-06 -8.02299e-06
internal_weight=121154 479 153 106 120675 120213 4088 3851 3617 326 115 211 462 347 298 262 238 206 179 78 237 3482 3146 196 116125 113528 524 2597 2270 1699
internal_count=121154 479 153 106 120675 120213 4088 3851 3617 326 115 211 462 347 298 262 238 206 179 78 237 3482 3146 196 116125 113528 524 2597 2270 1699
is_linear=0
shrinkage=0.01


Tree=14
num_leaves=31
num_cat=0
split_feature=33 13 1 47 27 40 42 9 38 18 39 8 40 20 15 17 13 64 17 59 59 37 56 9 49 43 14 23 34 56
split_gain=0.00187416 0.00233164 0.00389689 0.00135784 0.00165601 0.000951379 0.000684455 0.000549351 0.000634381 0.00047367 0.000440953 0.000354913 0.000354377 0.00072873 0.000554212 0.000647024 0.000325138 0.000362281 0.000312155 0.000282184 0.000277768 0.000301643 0.000352733 0.000261797 0.000238057 0.000499549 0.000768179 0.000730842 0.00061069 0.00055924
threshold=-0.068153446931123227 0.035759048698962341 2500.0350000000003 29.374707584833427 0.013801115045820539 -2.2779126750658936 1063.3164558635756 0.0074127563397436988 0.061809482872368433 0.015763958973231355 0.73636354104300994 89372122.260705009 -2.3904976356791159 0.20361540669857955 0.25484239341579801 0.010326561851572966 0.0058849050636252736 28.261469678948878 0.0041304350074851089 24.875034572705768 12.782282429293906 0.0048461183314369776 10.873827023977393 -0.0091103330037681767 14.610241644689181 1675.7416180319835 -0.018583602341921232 -0.024803178583789883 2.2288692612492214 9.9032246672307291
decision_type=2 2 2 2 2 2 2 2 2 2 2 2 2 2 2 2 2 2 2 2 2 2 2 2 2 2 2 2 2 2
left_child=1 12 3 4 -3 -5 11 24 9 10 -9 16 19 14 15 -14 -2 23 -12 -1 -20 -22 -23 -18 -8 26 28 -28 -26 -27
right_child=6 2 -4 5 -6 -7 7 8 -10 -11 18 -13 13 -15 -16 -17 17 -19 20 -21 21 22 -24 -25 25 29 27 -29 -30 -31
leaf_value=0 0 1.28917488887886e-05 0 0 0.00021812353845171892 5.4643839302686797e-05 0 1.8735246705668074e-06 -8.4610347890173285e-06 -1.1705844774633456e-06 0 0 0 0 0 -6.0661769251985001e-05 0 0 0 3.7262142831979551e-05 6.3022342294172662e-06 2.7127989838594343e-05 0 2.0447529127582979e-05 -4.7601887212791055e-05 -7.3871952581150723e-07 1.8019255721060214e-05 -4.5274005673812234e-06 0 8.5212113422191923e-06
leaf_weight=152 243 37 35 26 23 32 76572 1832 294 525 211 77 20 38 21 54 48 85 46 41 734 366 25 470 79 35027 121 3254 28 638
leaf_count=152 243 37 35 26 23 32 76572 1832 294 525 211 77 20 38 21 54 48 85 46 41 734 366 25 470 79 35027 121 3254 28 638
internal_value=1.57246e-08 1.97417e-05 5.23548e-05 8.27619e-05 0.00012525 4.16518e-06 -7.36617e-08 -1.56202e-07 3.43324e-06 4.90377e-06 6.51826e-06 8.46662e-06 0 -6.9594e-06 -2.88659e-05 -4.26143e-05 1.09612e-05 1.49149e-05 1.12272e-05 1.22488e-05 1.32443e-05 1.43969e-05 2.4469e-05 1.81343e-05 -2.98589e-07 -9.33623e-07 -4.62687e-06 -3.12548e-06 -3.32328e-05 -5.16948e-07
internal_weight=121154 479 153 118 60 58 120675 119752 4033 3739 3214 923 326 133 95 74 846 603 1382 193 1171 1125 391 518 115719 39147 3482 3375 107 35665
internal_count=121154 479 153 118 60 58 120675 119752 4033 3739 3214 923 326 133 95 74 846 603 1382 193 1171 1125 391 518 115719 39147 3482 3375 107 35665
is_linear=0
shrinkage=0.01


Tree=15
num_leaves=31
num_cat=0
split_feature=33 13 53 51 43 14 11 38 19 40 18 6 11 21 31 25 51 13 8 13 32 49 53 14 24 11 11 30 12 5
split_gain=0.00185235 0.00227778 0.00405021 0.00131795 0.000668344 0.000425123 0.000711809 0.000440345 0.000404845 0.000346168 0.000559054 0.000398293 0.000309779 0.000699772 0.000311618 0.000305474 0.000328102 0.000471214 0.00060407 0.000556673 0.000299353 0.000263344 0.000358276 0.000626235 0.000754698 0.000774355 0.000752909 0.000843684 0.000666293 0.000610081
threshold=-0.068153446931123227 0.035759048698962341 2241.0142595780057 -9.6875665081844122 1030.0328526221817 0.0056279004235720532 0.036662493983954832 0.044402586616595803 -0.31484935552135579 -2.3904976356791159 2.0393976131960482e-05 84846.000000000015 -0.018630153885137165 -0.3573318492596112 1.8536278811444276 -0.2400087094101071 6.4779837957662725 0.011329617653763542 32825566.251995001 0.028723742750869245 0.012237087030984351 14.402600369709818 1431.9310533528126 -0.018583602341921232 1.4881640468700412 -0.024974349831428874 -0.022125166233710299 -0.7297138235610704 -0.028734514787408291 111304384.74654002
decision_type=2 2 2 2 2 2 2 2 2 2 2 2 2 2 2 2 2 2 2 2 2 2 2 2 2 2 2 2 2 2
left_child=1 9 3 -3 15 21 7 8 -7 12 11 -11 13 -1 -15 -2 17 -17 -19 -20 -13 -6 23 24 25 -23 28 29 -25 -28
right_child=4 2 -4 -5 5 6 -8 -9 -10 10 -12 20 -14 14 -16 16 -18 18 19 -21 -22 22 -24 26 -26 -27 27 -29 -30 -31
leaf_value=0 0 0.0001399129815979308 0 9.8497421709545369e-06 2.1079283137781516e-08 -2.0427059792755785e-06 -1.2394162682863791e-05 -2.4597705505695511e-06 5.1503852239790101e-06 0 0 0 0 5.396091798278233e-05 0 0 0 0 5.9583455979170697e-05 0 -6.3947163600335755e-05 -7.9692698179961946e-05 -6.8056706340392741e-07 3.0834764999535801e-05 0 0 -2.3765142082873895e-05 0 0 0
leaf_weight=37 139 48 47 58 74978 483 266 787 5379 37 43 21 78 55 23 142 46 30 82 23 32 40 36279 105 20 35 359 1295 87 100
leaf_count=37 139 48 47 58 74978 483 266 787 5379 37 43 21 78 55 23 142 46 30 82 23 32 40 36279 105 20 35 359 1295 87 100
internal_value=1.53949e-08 1.96271e-05 5.18821e-05 8.77313e-05 -7.26461e-08 -1.35253e-07 2.23887e-06 3.12543e-06 4.21649e-06 0 -6.71347e-06 -2.61983e-05 1.21697e-05 2.27439e-05 4.07049e-05 1.18836e-05 1.72183e-05 2.15414e-05 3.60546e-05 4.73798e-05 -4.37307e-05 -2.97811e-07 -9.7395e-07 -5.20846e-06 -3.27971e-05 -4.86345e-05 -2.83076e-06 -5.72491e-06 1.31811e-05 -1.75765e-05
internal_weight=121154 479 153 106 120675 120213 6915 6649 5862 326 133 90 193 115 78 462 323 277 135 105 53 113298 38320 2041 95 75 1946 1754 192 459
internal_count=121154 479 153 106 120675 120213 6915 6649 5862 326 133 90 193 115 78 462 323 277 135 105 53 113298 38320 2041 95 75 1946 1754 192 459
is_linear=0
shrinkage=0.01


Tree=16
num_leaves=31
num_cat=0
split_feature=33 13 53 51 42 8 8 49 41 13 11 13 51 20 61 52 34 26 27 36 57 23 13 51 33 23 36 34 11 64
split_gain=0.00182019 0.00223459 0.00399812 0.0012572 0.000659818 0.000348336 0.000343593 0.000671582 0.000634249 0.000314164 0.000398615 0.000313935 0.000272172 0.000330953 0.00026442 0.000234989 0.000231191 0.000224137 0.000221376 0.000214958 0.000202269 0.000202182 0.000320944 0.00143895 0.00129774 0.000501064 0.000494952 0.000726573 0.000365893 0.000378575
threshold=-0.068153446931123227 0.035759048698962341 2241.0142595780057 -9.6875665081844122 1063.3164558635756 89372122.260705009 86879686.833705023 33.3400812061953 0.77259946211696617 0.0058849050636252736 -0.00081558008228277401 0.011329617653763542 -0.074623663650216318 1.3470863754953346 53.229286351017656 -27.138900403931931 -0.40110753740168825 -1.3692031025768185 0.0048094159933768964 1.1901729693917804 -0.0098228630479151868 0.0042531367024879483 0.028723742750869245 -6.5904989750925376 -0.019103242077168455 -0.024803178583789883 0.56432332037523614 4.6424270806840715 -0.022125166233710299 42.586999156431965
decision_type=2 2 2 2 2 2 2 2 2 2 2 2 2 2 2 2 2 2 2 2 2 2 2 2 2 2 2 2 2 2
left_child=1 6 3 20 5 9 7 -1 -8 -2 -11 -12 -13 16 -9 -5 -14 18 -6 -7 -3 22 25 -24 26 28 -25 -28 29 -19
right_child=4 2 -4 15 17 19 8 14 -10 10 11 12 13 -15 -16 -17 -18 21 -20 -21 -22 -23 23 24 -26 -27 27 -29 -30 -31
leaf_value=0 0 0.00019365672864729452 0 2.957193539982818e-05 -2.7649243984320115e-07 -2.7132204887082429e-05 4.1982618489697634e-05 -4.6789204321037651e-05 0 0 0 0 0 0 0 0 6.1127222530043477e-05 1.9668338140208124e-05 -8.0439058683194677e-06 0 0 8.1902994983845994e-07 5.0443099496112187e-06 0 0 -2.8683241472361681e-07 -6.6958761008743969e-05 0 0 0
leaf_weight=37 243 25 47 33 2130 29 51 46 160 234 176 53 21 43 32 25 76 313 721 48 23 20141 151 20 88 95901 95 34 61 97
leaf_count=37 243 25 47 33 2130 29 51 46 160 234 176 53 21 43 32 25 76 313 721 48 23 20141 151 20 88 95901 95 34 61 97
internal_value=1.51665e-08 1.94558e-05 5.14064e-05 8.70451e-05 -7.22136e-08 8.31228e-06 0 -8.09138e-06 1.12683e-05 1.07956e-05 1.46826e-05 2.14518e-05 3.22783e-05 4.03718e-05 -3.09071e-05 9.75159e-06 5.18788e-05 -1.53553e-07 -2.94271e-06 0 0.00013852 -6.84171e-08 -2.73814e-07 -9.47525e-06 -2.71543e-05 -2.15996e-07 -4.51891e-05 -5.2357e-05 9.95667e-06 1.42505e-05
internal_weight=121154 479 153 106 120675 923 326 115 211 846 603 369 193 140 78 58 97 119752 2851 77 48 116901 96760 388 237 96372 149 129 471 410
internal_count=121154 479 153 106 120675 923 326 115 211 846 603 369 193 140 78 58 97 119752 2851 77 48 116901 96760 388 237 96372 149 129 471 410
is_linear=0
shrinkage=0.01


Tree=17
num_leaves=31
num_cat=0
split_feature=33 18 60 56 62 62 42 9 11 20 8 32 19 37 52 8 41 27 40 41 49 30 63 34 60 31 40 15 25 49
split_gain=0.00179749 0.0022073 0.00367079 0.00205401 0.00284662 0.00201594 0.000653091 0.000527318 0.000634788 0.000481129 0.000864379 0.00159132 0.00073528 0.000644484 0.000361796 0.00034473 0.000343418 0.00029218 0.000309795 0.000309197 0.000476292 0.00029131 0.000357787 0.000506368 0.000270362 0.000424834 0.000391338 0.000314377 0.00024924 0.000230115
threshold=-0.068153446931123227 -0.020600464638485024 -8.0910333247613178 9.1437708270376312 46.512431501370529 42.13149787818579 1063.3164558635756 0.0074127563397436988 0.036662493983954832 -0.91820074940730267 74236350.013595015 0.018133386792613431 0.0087684221403839819 0.008234122690369378 15.183675959950143 89372122.260705009 0.83863168744440453 0.0056785884200846156 -1.477977908022815 -1.0225084884663127 21.823853342550965 -1.4509049216893473 10.276368506769396 0.59412995201911079 9.6630818897672217 2.7941491471137554 -2.0858919729567504 3.5163965912923909 -1.2884607730640161 14.610241644689181
decision_type=2 2 2 2 2 2 2 2 2 2 2 2 2 2 2 2 2 2 2 2 2 2 2 2 2 2 2 2 2 2
left_child=1 2 -1 -4 5 -5 15 29 14 12 -11 21 13 -3 16 17 -9 -2 -19 -20 28 -12 23 -23 25 26 -18 -28 -21 -8
right_child=6 9 3 4 -6 -7 7 8 -10 10 11 -13 -14 -15 -16 -17 24 18 19 20 -22 22 -24 -25 -26 -27 27 -29 -30 -31
leaf_value=0 0 0 0 7.1409545076337697e-05 0.00018380672508176645 0 1.1480223304218511e-09 1.2335517923752036e-06 -1.0280058388514174e-05 0 0 0.00011389774327465104 0 -8.2168483721285022e-05 -6.0527221700654149e-07 0 0 0 0 0 0 5.8994219829160041e-05 0 0 0 0 2.154741968528187e-05 0 3.1750075588633205e-05 -9.1641355212674477e-07
leaf_weight=36 369 25 23 46 36 25 76572 1673 231 47 53 21 54 23 422 77 101 59 30 20 109 33 30 27 517 408 630 51 259 39147
leaf_count=36 369 25 23 46 36 25 76572 1673 231 47 53 21 54 23 422 77 101 59 30 20 109 33 30 27 517 408 630 51 259 39147
internal_value=1.49077e-08 1.93346e-05 4.90504e-05 7.67498e-05 9.52387e-05 2.18509e-05 -7.11376e-08 -1.52146e-07 3.36389e-06 0 1.18087e-05 2.65665e-05 -1.35131e-05 -4.37339e-05 4.71938e-06 8.27048e-06 5.97585e-06 1.07407e-05 1.63033e-05 1.94261e-05 2.20497e-05 0 1.79711e-05 3.28365e-05 9.45149e-06 1.22821e-05 1.68477e-05 1.95801e-05 2.90962e-05 -2.91975e-07
internal_weight=121154 479 166 130 107 71 120675 119752 4033 313 211 164 102 48 3802 923 3380 846 477 418 388 143 90 60 1707 1190 782 681 279 115719
internal_count=121154 479 166 130 107 71 120675 119752 4033 313 211 164 102 48 3802 923 3380 846 477 418 388 143 90 60 1707 1190 782 681 279 115719
is_linear=0
shrinkage=0.01


Tree=18
num_leaves=31
num_cat=0
split_feature=33 13 53 51 42 9 11 38 8 40 20 15 17 13 11 13 9 20 31 11 21 31 17 12 3 17 59 38 50 62
split_gain=0.00174984 0.00215124 0.0039219 0.00123655 0.000639078 0.000517218 0.000624182 0.000435817 0.000340674 0.000329536 0.000699467 0.000539115 0.000628378 0.00030626 0.00039062 0.000308062 0.000312793 0.000526505 0.000661352 0.000299801 0.000683516 0.000305434 0.00028925 0.000283936 0.000311864 0.000241088 0.000762578 0.000438635 0.000390065 0.000327776
threshold=-0.068153446931123227 0.035759048698962341 2241.0142595780057 -9.6875665081844122 1063.3164558635756 0.0074127563397436988 0.036662493983954832 0.044402586616595803 89372122.260705009 -2.3904976356791159 0.20361540669857955 0.25484239341579801 0.010326561851572966 0.0058849050636252736 -0.00081558008228277401 0.011329617653763542 -0.0044919762203841076 1.3470863754953346 -0.89603636857914981 -0.018630153885137165 -0.3573318492596112 1.8536278811444276 0.0083523870462158412 -0.014622065566927188 3808.3350000000005 0.010326561851572966 28.620940162022439 0.0012682682156781591 4.8310922412360933 20.669662843921529
decision_type=2 2 2 2 2 2 2 2 2 2 2 2 2 2 2 2 2 2 2 2 2 2 2 2 2 2 2 2 2 2
left_child=1 9 3 -3 8 -6 7 23 13 19 11 12 -11 -2 -15 -16 -17 18 -18 20 -1 -22 -20 -7 25 27 -27 -25 29 -28
right_child=4 2 -4 -5 5 6 -8 -9 -10 10 -12 -13 -14 14 15 16 17 -19 22 -21 21 -23 -24 24 -26 26 28 -29 -30 -31
leaf_value=0 0 0.00013669709180369664 0 8.9790995026333717e-06 -2.8888235766968373e-07 0 -1.017734569891013e-05 -9.8603031142536397e-07 0 0 0 0 -5.9588293784547931e-05 0 0 0 0 0 0 0 5.3173432517223108e-05 0 9.2152046489163737e-05 0 0 0 0 9.0553029845350497e-06 0 3.9970910220371296e-05
leaf_weight=37 243 48 47 58 115719 377 231 534 77 20 38 21 54 234 176 41 25 57 26 78 55 23 44 820 262 100 61 1390 78 180
leaf_count=37 243 48 47 58 115719 377 231 534 77 20 38 21 54 234 176 41 25 57 26 78 55 23 44 820 262 100 61 1390 78 180
internal_value=1.44337e-08 1.90769e-05 5.04236e-05 8.57946e-05 -6.99314e-08 -1.50244e-07 3.33164e-06 4.67892e-06 8.18141e-06 0 -6.57336e-06 -2.81991e-05 -4.17949e-05 1.06436e-05 1.44809e-05 2.11755e-05 3.188e-05 3.86734e-05 5.42603e-05 1.1865e-05 2.22787e-05 4.00655e-05 7.0248e-05 6.21655e-06 7.31473e-06 8.40825e-06 1.82656e-05 5.63299e-06 2.60203e-05 3.25227e-05
internal_weight=121154 479 153 106 120675 119752 4033 3802 923 326 133 95 74 846 603 369 193 152 95 193 115 78 70 3268 2891 2629 419 2210 319 241
internal_count=121154 479 153 106 120675 119752 4033 3802 923 326 133 95 74 846 603 369 193 152 95 193 115 78 70 3268 2891 2629 419 2210 319 241
is_linear=0
shrinkage=0.01


Tree=19
num_leaves=31
num_cat=0
split_feature=33 13 53 51 43 14 23 10 38 14 47 10 8 49 41 25 51 13 8 13 49 23 20 26 35 14 59 54 55 39
split_gain=0.00172386 0.00210595 0.00387194 0.00117818 0.000631732 0.000399249 0.000537256 0.000610856 0.00038513 0.000368562 0.000335719 0.000373219 0.000326548 0.000656728 0.000626452 0.000291865 0.000321184 0.000448336 0.000587017 0.000532281 0.000263688 0.000481128 0.000750743 0.000699972 0.00068042 0.000586776 0.000634192 0.000395668 0.000635806 0.000410735
threshold=-0.068153446931123227 0.035759048698962341 2241.0142595780057 -9.6875665081844122 1030.0328526221817 0.0049155438572451937 0.029447666829021227 0.026455404355568705 0.048355191893396661 0.0098207403139323989 44.74398464584813 -0.00070098887088965156 86879686.833705023 33.3400812061953 0.77259946211696617 -0.2400087094101071 6.4779837957662725 0.011329617653763542 32825566.251995001 0.028723742750869245 15.568777015460256 -0.024803178583789883 -1.5794202952591596 -0.20327324261300483 -2.4783403502922994 -0.0091069321484515253 54.659820969029234 1531.1347499999999 1230.6804569891915 1.1151272227103903
decision_type=2 2 2 2 2 2 2 2 2 2 2 2 2 2 2 2 2 2 2 2 2 2 2 2 2 2 2 2 2 2
left_child=1 12 3 -3 15 20 8 -8 9 -7 -11 -12 13 -1 -14 -2 17 -17 -19 -20 -6 22 -22 -24 -25 26 -23 28 -27 -30
right_child=4 2 -4 -5 5 6 7 -9 -10 10 11 -13 14 -15 -16 16 -18 18 19 -21 21 25 23 24 -26 27 -28 -29 29 -31
leaf_value=0 0 0.00013533578754723442 0 8.8896182856980142e-06 0 1.7043473677676995e-06 0 -2.4354079479759926e-05 -3.1390038663466882e-06 0 5.0765593146409518e-05 7.2408460123434785e-06 4.1506785721931994e-05 -3.0504029701658001e-05 0 0 0 0 5.8340366945153469e-05 0 -4.3879345838196252e-06 -1.3012491470594561e-05 0 0 3.6375926865463811e-05 1.1739259475094591e-06 0 -5.7019666136761391e-07 -1.2486112657995194e-05 0
leaf_weight=37 139 48 47 58 78909 6025 135 154 730 331 40 1387 51 78 160 142 46 30 82 23 114 884 57 185 184 350 647 29012 1019 50
leaf_count=37 139 48 47 58 78909 6025 135 154 730 331 40 1387 51 78 160 142 46 30 82 23 114 884 57 185 184 350 647 29012 1019 50
internal_value=1.40921e-08 1.89352e-05 4.99613e-05 8.51277e-05 -6.88979e-08 -1.30225e-07 1.88914e-06 -1.02482e-05 2.53634e-06 3.32569e-06 7.74399e-06 9.86917e-06 0 -7.84615e-06 1.10016e-05 1.15546e-05 1.677e-05 2.10658e-05 3.52344e-05 4.64058e-05 -3.0772e-07 -1.06577e-06 7.7946e-06 1.57479e-05 2.18146e-05 -1.27809e-06 -7.50731e-06 -8.98928e-07 -6.2097e-06 -1.04975e-05
internal_weight=121154 479 153 106 120675 120213 8802 289 8513 7783 1758 1427 326 115 211 462 323 277 135 105 111411 32502 540 426 369 31962 1531 30431 1419 1069
internal_count=121154 479 153 106 120675 120213 8802 289 8513 7783 1758 1427 326 115 211 462 323 277 135 105 111411 32502 540 426 369 31962 1531 30431 1419 1069
is_linear=0
shrinkage=0.01


Tree=20
num_leaves=31
num_cat=0
split_feature=28 57 51 1 49 42 11 14 11 62 17 31 25 51 32 18 8 23 60 37 39 23 11 29 8 17 23 5 34 17
split_gain=0.00166839 0.000992657 0.00244097 0.00202124 0.00161505 0.000808265 0.00061606 0.000559977 0.000600657 0.000539121 0.000554912 0.000895461 0.000728304 0.000404606 0.000379322 0.00037892 0.000365637 0.00157063 0.000349605 0.000339797 0.000533039 0.000759948 0.000662009 0.000656892 0.000591955 0.000984943 0.000662348 0.000559412 0.000570745 0.000511879
threshold=-0.036330688243683344 0.027363559980361701 -6.5904989750925376 2402.8200000000006 18.608317503065383 1063.3164558635756 0.0024106471469101946 0.0090315992850982293 0.036662493983954832 47.026610066011827 0.010787859059181696 1.0654677586045331 -0.79639287577653628 -4.5168112839393126 0.012237087030984351 0.0088812289784064875 180764435.08137503 -0.024803178583789883 -1.5363434686163442 0.0077541290980391352 -0.32775404821124632 -0.00060914533981121222 0.0031315653155568062 -0.18408726240581355 144007614.57636502 0.0081290477155278821 -0.01235042529484409 189303495.55816504 0.28930276452572973 0.0065697318053461124
decision_type=2 2 2 2 2 2 2 2 2 2 2 2 2 2 2 2 2 2 2 2 2 2 2 2 2 2 2 2 2 2
left_child=1 2 3 4 -1 -2 9 19 -9 10 -3 12 14 -4 -12 -8 17 -11 -5 -7 21 23 24 -21 27 -26 -27 -22 -29 -23
right_child=5 6 13 18 -6 7 15 8 -10 16 11 -13 -14 -15 -16 -17 -18 -19 -20 20 22 29 -24 -25 25 26 -28 28 -30 -31
leaf_value=0 9.3645819571223088e-06 0 -2.7046240460040742e-05 -1.1500862439845735e-07 7.550270109523533e-05 -1.6604596040059499e-07 5.0708276186295632e-05 6.2653575891993166e-06 -8.2416618772789804e-06 7.8644928643884854e-05 0 0 0 0 -8.8273411651132439e-05 0 0 0 1.9578718400847912e-05 -1.1222288342442649e-05 -1.4565974734679247e-06 0 -1.2552170031300992e-05 1.7846043119836936e-06 0 -7.9812576110601757e-05 0 3.3370036646902595e-05 0 1.1353153719209214e-05
leaf_weight=64 888 92 62 89 152 111291 38 2417 213 32 53 52 26 35 39 20 24 87 91 853 1202 1051 1021 304 28 35 26 99 115 655
leaf_count=64 888 92 62 89 152 111291 38 2417 213 32 53 52 26 35 39 20 24 87 91 853 1202 1051 1021 304 28 35 26 99 115 655
internal_value=1.37662e-08 1.31635e-05 2.31779e-05 3.56667e-05 5.715e-05 -9.78728e-08 0 -1.85079e-07 4.32952e-06 -1.77261e-06 -1.37614e-05 -2.48551e-05 -4.05849e-05 -7.19987e-06 -5.38659e-05 3.2197e-05 6.21489e-06 1.87921e-05 0 -3.03987e-07 -2.78145e-06 0 -6.13228e-06 -6.07672e-06 -4.47169e-07 -2.58264e-05 -5.0809e-05 0 1.57878e-05 4.41539e-06
internal_weight=121154 956 493 396 216 120198 463 119310 2630 405 262 170 118 97 92 58 143 119 180 116680 5389 2863 2526 1157 1505 89 61 1416 214 1706
internal_count=121154 956 493 396 216 120198 463 119310 2630 405 262 170 118 97 92 58 143 119 180 116680 5389 2863 2526 1157 1505 89 61 1416 214 1706
is_linear=0
shrinkage=0.01


Tree=21
num_leaves=31
num_cat=0
split_feature=33 18 60 56 62 61 43 20 8 34 19 53 38 9 56 19 38 60 37 18 36 22 50 35 50 22 5 11 51 1
split_gain=0.001669 0.00208949 0.00355494 0.00199341 0.00277104 0.00198983 0.000610521 0.000452707 0.000829033 0.000982624 0.00162049 0.000928425 0.000761486 0.000401924 0.000778114 0.000515311 0.000394966 0.000362443 0.000385364 0.000307474 0.00038887 0.000795951 0.000437016 0.000409665 0.00046899 0.000277429 0.000393453 0.000321343 0.000303836 0.000311643
threshold=-0.068153446931123227 -0.020600464638485024 -8.0910333247613178 9.1437708270376312 46.512431501370529 38.056677451391799 1030.0328526221817 -0.91820074940730267 74236350.013595015 0.59412995201911079 -0.18555255836235121 2199.148850759243 -0.094780255989111925 0.0074127563397436988 9.1437708270376312 -0.051531553187074468 0.044402586616595803 3.1557494539688276 0.0086322976919906008 0.015763958973231355 -0.35425826008348521 0.0086696871883815852 -2.0036649860561506 -2.2903149295228622 2.928690214036465 0.0050487247271885681 178550598.50252002 -0.015238285846572995 7.7361731112339909 1036.2600000000002
decision_type=2 2 2 2 2 2 2 2 2 2 2 2 2 2 2 2 2 2 2 2 2 2 2 2 2 2 2 2 2 2
left_child=1 2 -1 -4 5 -5 25 12 -9 10 11 -10 -3 -8 16 -16 19 18 -17 20 -15 22 -22 -23 -25 -2 27 -27 29 -29
right_child=6 7 3 4 -6 -7 13 8 9 -11 -12 -13 -14 14 15 17 -18 -19 -20 -21 21 23 -24 24 -26 26 -28 28 -30 -31
leaf_value=0 0 -4.2917812506857438e-05 0 8.5633883560755442e-05 0.00018034895836666371 0 -2.5214153796972365e-07 0 0.0001163742087978178 0 0 0 0 0 0 0 -3.2248311202892477e-07 0 -4.8961391092156287e-05 0 0 0 8.5970160017381028e-06 3.1616219554310628e-05 0 0 0 3.2693892979747588e-05 0 0
leaf_weight=36 115 51 23 31 36 40 116125 47 34 83 27 20 51 415 211 39 530 95 65 351 698 20 1309 306 49 36 49 206 24 32
leaf_count=36 115 51 23 31 36 40 116125 47 34 83 27 20 51 415 211 39 530 95 65 351 698 20 1309 306 49 36 49 206 24 32
internal_value=1.34979e-08 1.8632e-05 4.752e-05 7.49192e-05 9.31486e-05 2.04621e-05 -6.71813e-08 0 1.13301e-05 2.58845e-05 5.06458e-05 8.26595e-05 -1.33296e-05 -1.2775e-07 2.91639e-06 -8.55002e-06 4.73874e-06 -2.02293e-05 -3.36178e-05 6.2261e-06 7.39058e-06 8.96996e-06 5.14146e-06 2.41159e-05 2.70122e-05 1.13589e-05 1.58639e-05 2.06146e-05 2.46143e-05 2.81862e-05
internal_weight=121154 479 166 130 107 71 120675 313 211 164 81 54 102 120213 4088 410 3678 199 104 3148 2797 2382 2007 375 355 462 347 298 262 238
internal_count=121154 479 166 130 107 71 120675 313 211 164 81 54 102 120213 4088 410 3678 199 104 3148 2797 2382 2007 375 355 462 347 298 262 238
is_linear=0
shrinkage=0.01


Tree=22
num_leaves=31
num_cat=0
split_feature=17 63 53 37 8 14 42 53 46 13 46 14 56 40 43 40 18 37 40 58 14 37 2 10 12 11 22 40 27 60
split_gain=0.00127084 0.00230698 0.00222184 0.00375548 0.00231017 0.00370333 0.00083111 0.00132443 0.000675039 0.000506948 0.000759988 0.000470036 0.000499787 0.000451377 0.00060969 0.000511582 0.000509579 0.000402217 0.00154217 0.00145598 0.00136944 0.0010355 0.00115152 0.000744718 0.000542147 0.000566989 0.000528449 0.000501836 0.000367713 0.000614285
threshold=0.016155596468354818 14.056572621178129 2230.185709019866 0.011876419707751046 61741429.739155002 0.0074044700864072301 2827.8199797180218 2382.5183947157243 1034.70225 0.022824028214916855 2585.0722500000002 0.0083337018591084656 7.2837270477960141 -0.14968045945857514 1651.2197955166125 -1.3305023040846182 0.015763958973231355 0.009220012041983262 -1.6666781852631247 9.4773506413270265 -0.00017654764845814397 0.0095346420823280657 3287.1500000000001 -0.001203571366936995 -0.040675313682658913 -0.018630153885137165 0.010956751496447073 -1.2940328101058716 0.0060862483941644318 5.0004296492221956
decision_type=2 2 2 2 2 2 2 2 2 2 2 2 2 2 2 2 2 2 2 2 2 2 2 2 2 2 2 2 2 2
left_child=8 2 3 -2 -5 -6 7 -4 -1 -3 13 17 -13 15 -15 -11 -17 24 19 -19 21 -21 -23 26 25 -10 -20 -25 -29 -30
right_child=1 9 6 4 5 -7 -8 -9 11 10 -12 12 -14 14 -16 16 -18 18 23 20 -22 22 -24 27 -26 -27 -28 28 29 -31
leaf_value=1.2926880899313191e-05 0 7.223974560674183e-06 0 0 0.00016789388642950064 1.2007376057108102e-07 1.9315900702148357e-05 -8.8021643082168683e-05 1.8552976816401848e-05 0 -4.5299205349705964e-05 5.9905895466357769e-06 -3.1158607008578676e-06 -3.4069050056995816e-05 0 5.747908721807768e-05 0 0 0 0 0 -7.3861185034123877e-05 0 9.0100757655999928e-06 -2.0686039828848555e-07 0 1.6002147581345663e-05 0 -1.7375079712955064e-05 0
leaf_weight=394 127 257 43 47 55 52 75 24 315 33 55 2422 484 79 36 35 34 42 1073 21 68 128 24 66 113493 131 272 265 670 334
leaf_count=394 127 257 43 47 55 52 75 24 315 33 55 2422 484 79 36 35 34 42 1073 21 68 128 24 66 113493 131 272 265 670 334
internal_value=1.30114e-08 1.15132e-05 2.90409e-05 4.53805e-05 7.86828e-05 0.000105168 0 -2.86225e-05 -8.48655e-08 0 -1.17018e-05 -1.44371e-07 3.7856e-06 0 -1.63932e-05 1.17788e-05 3.07276e-05 -2.59178e-07 -3.92438e-06 -2.64513e-05 -3.77511e-05 -5.26815e-05 -6.19567e-05 -7.97597e-07 -1.46304e-07 1.07743e-05 3.53995e-06 -6.66541e-06 -9.05777e-06 -1.18453e-05
internal_weight=121154 952 423 281 154 107 142 67 120202 529 272 119808 2906 217 115 102 69 116902 2963 283 241 173 152 2680 113939 446 1345 1335 1269 1004
internal_count=121154 952 423 281 154 107 142 67 120202 529 272 119808 2906 217 115 102 69 116902 2963 283 241 173 152 2680 113939 446 1345 1335 1269 1004
is_linear=0
shrinkage=0.01


Tree=23
num_leaves=31
num_cat=0
split_feature=33 18 60 56 61 61 43 20 16 19 53 38 63 14 11 41 52 14 21 25 51 22 59 36 49 23 20 26 35 14
split_gain=0.00161239 0.00203263 0.00347758 0.0019505 0.00182764 0.00186131 0.000586005 0.000430239 0.000798542 0.00193087 0.00112847 0.000742053 0.000508237 0.00037458 0.000580483 0.000354771 0.000292912 0.000360304 0.000285424 0.000283994 0.000310021 0.000383065 0.000277726 0.000350852 0.000257438 0.000457139 0.000736011 0.000683671 0.000672003 0.000574852
threshold=-0.068153446931123227 -0.020600464638485024 -8.0910333247613178 9.1437708270376312 48.109042260353355 38.056677451391799 1030.0328526221817 -0.91820074940730267 -0.29605039993523036 -0.18555255836235121 2241.0142595780057 -0.094780255989111925 10.427440921218263 0.0049155438572451937 0.036662493983954832 1.2121833620442939 10.819804517858783 0.0070121861989510927 -0.053441005895994327 -0.2400087094101071 6.4779837957662725 0.0050487247271885681 87.543560009505413 -0.7641085815640466 15.568777015460256 -0.024803178583789883 -1.5794202952591596 -0.20327324261300483 -2.4783403502922994 -0.0091069321484515253
decision_type=2 2 2 2 2 2 2 2 2 2 2 2 2 2 2 2 2 2 2 2 2 2 2 2 2 2 2 2 2 2
left_child=1 2 -1 -4 5 -5 19 11 -9 10 12 18 -10 24 15 -15 17 -17 -3 -2 21 -21 23 -23 -8 26 -26 -28 -29 -27
right_child=6 7 3 4 -6 -7 13 8 9 -11 -12 -13 -14 14 -16 16 -18 -19 -20 20 -22 22 -24 -25 25 29 27 28 -30 -31
leaf_value=0 0 -7.1944708711114426e-05 0 8.4470439636415674e-05 0.00016825020922878658 0 0 0 0.00011800290005076788 0 0 0 0 7.6401955431675698e-07 -1.1246429452470227e-05 0 0 1.030984801464888e-05 0 0 0 0 0 3.9555481983987345e-05 -4.4807944664927949e-06 -7.4206275997558477e-06 0 0 3.5934683779353091e-05 -8.7922959904480232e-07
leaf_weight=36 139 23 23 31 37 39 78909 57 33 69 32 51 20 6006 275 708 402 1411 28 67 46 47 24 139 114 1531 57 185 184 30431
leaf_count=36 139 23 23 31 37 39 78909 57 33 69 32 51 20 6006 275 708 402 1411 28 67 46 47 24 139 114 1531 57 185 184 30431
internal_value=1.28141e-08 1.83136e-05 4.67976e-05 7.39358e-05 9.19719e-05 2.27989e-05 -6.57116e-08 0 1.10284e-05 2.61619e-05 5.92033e-05 -1.30243e-05 8.79461e-05 -1.25385e-07 1.82968e-06 2.48619e-06 5.79541e-06 7.33347e-06 -4.22839e-05 1.11276e-05 1.62772e-05 2.05123e-05 2.71497e-05 3.13252e-05 -2.97799e-07 -1.04693e-06 7.57318e-06 1.54921e-05 2.14997e-05 -1.25519e-06
internal_weight=121154 479 166 130 107 70 120675 313 211 154 85 102 53 120213 8802 8527 2521 2119 51 462 323 277 210 186 111411 32502 540 426 369 31962
internal_count=121154 479 166 130 107 70 120675 313 211 154 85 102 53 120213 8802 8527 2521 2119 51 462 323 277 210 186 111411 32502 540 426 369 31962
is_linear=0
shrinkage=0.01


Tree=24
num_leaves=31
num_cat=0
split_feature=33 18 60 56 62 61 42 9 38 18 20 8 32 38 5 17 8 25 62 10 27 9 41 20 25 24 57 10 63 34
split_gain=0.00157191 0.00199066 0.0034297 0.00191872 0.00261471 0.00191102 0.000583287 0.000458107 0.000580419 0.000434718 0.000417438 0.000805365 0.00152525 0.000732396 0.00037627 0.000385716 0.000327206 0.000291801 0.000338539 0.000288752 0.000268597 0.00035012 0.000273831 0.000302648 0.000365347 0.000263136 0.000256076 0.000397255 0.000536604 0.000252145
threshold=-0.068153446931123227 -0.020600464638485024 -8.0910333247613178 9.1437708270376312 46.512431501370529 38.056677451391799 1063.3164558635756 0.0074127563397436988 0.061809482872368433 0.015763958973231355 -0.91820074940730267 74236350.013595015 0.018133386792613431 -0.094780255989111925 178550598.50252002 0.0043666300034819316 89372122.260705009 -0.85214301937493497 20.113515288864395 0.0061838524381917512 0.0063060371137974337 -0.0091103330037681767 -1.0225084884663127 1.3470863754953346 0.25369347075325288 -0.41656833311120023 0.13899529553459442 0.02079434969051475 10.276368506769396 0.083465405829999742
decision_type=2 2 2 2 2 2 2 2 2 2 2 2 2 2 2 2 2 2 2 2 2 2 2 2 2 2 2 2 2 2
left_child=1 2 -1 -4 5 -5 16 -8 9 14 13 -12 26 29 19 -16 20 -17 -19 25 -2 -22 -23 24 -24 -9 -13 28 -28 -3
right_child=6 10 3 4 -6 -7 7 8 -10 -11 11 12 -14 -15 15 17 -18 18 -20 -21 21 22 23 -25 -26 -27 27 -29 -30 -31
leaf_value=0 0 0 0 8.3631130638446525e-05 0.00017628360959208084 0 -2.7371425352580645e-07 0 -8.2170669998992448e-06 -1.1948130149771977e-06 0 0 0.00011029482327120484 0 0 0 0 0 1.8770112410740125e-05 0 0 0 0 0 4.0269095016238113e-05 1.0528848661864243e-05 5.1308841293495335e-05 0 0 -6.0807136827721614e-05
leaf_weight=36 440 20 23 31 36 40 115719 59 294 525 47 53 21 51 207 89 77 197 711 1371 50 28 124 53 151 580 45 22 23 31
leaf_count=36 440 20 23 31 36 40 115719 59 294 525 47 53 21 51 207 89 77 197 711 1371 50 28 124 53 151 580 45 22 23 31
internal_value=1.23796e-08 1.80823e-05 4.62655e-05 7.32565e-05 9.1147e-05 1.95153e-05 -6.48435e-08 -1.42307e-07 3.13211e-06 4.55977e-06 0 1.0844e-05 2.53324e-05 -1.28624e-05 6.12203e-06 1.11222e-05 7.81689e-06 1.37135e-05 1.54473e-05 2.13119e-06 1.02631e-05 1.68983e-05 2.05895e-05 2.33137e-05 2.75351e-05 7.71089e-06 0 1.68493e-05 3.0951e-05 -4.19607e-05
internal_weight=121154 479 166 130 107 71 120675 119752 4033 3739 313 211 164 102 3214 1204 923 997 908 2010 846 406 356 328 275 639 143 90 68 51
internal_count=121154 479 166 130 107 71 120675 119752 4033 3739 313 211 164 102 3214 1204 923 997 908 2010 846 406 356 328 275 639 143 90 68 51
is_linear=0
shrinkage=0.01


Tree=25
num_leaves=31
num_cat=0
split_feature=28 57 51 0 49 42 61 5 5 57 17 61 14 14 11 32 51 3 56 24 37 27 8 23 10 12 31 49 31 0
split_gain=0.00152759 0.000944707 0.00234513 0.00220737 0.00158862 0.00075074 0.000573016 0.00086655 0.00106076 0.000678761 0.000608243 0.000915415 0.000738107 0.00050914 0.000564159 0.000489866 0.000395731 0.00037902 0.000867856 0.000406691 0.000327716 0.000519478 0.000642749 0.000872955 0.000578358 0.000930718 0.000599892 0.000613083 0.000582634 0.000354259
threshold=-0.036330688243683344 0.027363559980361701 -6.5904989750925376 2390.2200000000007 18.608317503065383 1063.3164558635756 48.109042260353355 130403804.39839001 169914172.59280503 0.16359486906450851 0.0088374874064006785 34.664603056153972 0.0003396896284115556 0.0090315992850982293 0.036662493983954832 0.0084083729454573746 -4.5168112839393126 2433.9800000000005 9.1437708270376312 0.51157178709599005 0.0077541290980391352 0.0065746504568023724 144007614.57636502 -0.01235042529484409 -0.00079622502724169253 0.0081630154190924804 -0.37316293208502876 17.57285925898341 -1.0313452132508292 3335.0800000000004
decision_type=2 2 2 2 2 2 2 2 2 2 2 2 2 2 2 2 2 2 2 2 2 2 2 2 2 2 2 2 2 2
left_child=1 2 3 4 -1 -2 9 -8 -9 10 -3 -12 15 20 -15 -13 -4 -5 -19 -20 -7 -22 24 -24 25 26 27 -23 -29 -30
right_child=5 6 16 17 -6 13 7 8 -10 -11 11 12 -14 14 -16 -17 -18 18 19 -21 21 22 23 -25 -26 -27 -28 28 29 -31
leaf_value=0 9.0247260941888538e-06 0 -2.6813998378190388e-05 -2.6172781107390506e-05 7.4712070489032375e-05 -1.5642065039381809e-07 0 8.5979549131813153e-05 0 3.9422110241817812e-06 0 0 0 6.0189397924536908e-06 -7.9816203800512317e-06 -9.7547106445461542e-05 0 0 0 7.9127323933038084e-05 1.2159242811164575e-06 0 -7.2590339796176989e-05 0 -7.5958301396449744e-06 1.1499202111684376e-05 0 0 -2.5107735733773996e-05 0
leaf_weight=64 888 58 62 20 153 111291 32 32 117 68 69 20 30 2417 213 37 35 114 21 24 1546 120 37 81 1786 536 714 125 376 68
leaf_count=64 888 58 62 20 153 111291 32 32 117 68 69 20 30 2417 213 37 35 114 21 24 1546 120 37 81 1786 536 714 125 376 68
internal_value=1.19424e-08 1.2596e-05 2.23417e-05 3.46449e-05 5.66191e-05 -9.34225e-08 0 1.58125e-05 2.97399e-05 -6.51962e-06 -1.91816e-05 -2.98991e-05 -5.1489e-05 -1.78065e-07 4.12413e-06 -7.30202e-05 -7.27766e-06 0 1.22947e-05 4.95221e-05 -2.92186e-07 -2.72472e-06 -4.83038e-06 -3.03288e-05 -3.48417e-06 0 -3.9748e-06 -1.09183e-05 -1.58761e-05 -2.13106e-05
internal_weight=121154 956 493 396 217 120198 463 181 149 282 214 156 87 119310 2630 57 97 179 159 45 116680 5389 3843 118 3725 1939 1403 689 569 444
internal_count=121154 956 493 396 217 120198 463 181 149 282 214 156 87 119310 2630 57 97 179 159 45 116680 5389 3843 118 3725 1939 1403 689 569 444
is_linear=0
shrinkage=0.01


Tree=26
num_leaves=31
num_cat=0
split_feature=28 57 51 0 49 43 11 61 34 39 37 11 36 51 9 23 10 18 3 56 24 6 15 49 43 60 46 39 11 52
split_gain=0.00150086 0.000921635 0.00230396 0.00216686 0.00154751 0.000683171 0.000566964 0.000668718 0.000576095 0.000610179 0.000723198 0.000547011 0.00119631 0.000389251 0.000382085 0.000600825 0.000545075 0.000372544 0.000371646 0.000853774 0.000395516 0.000365248 0.000634172 0.000288815 0.000493978 0.000382484 0.000319428 0.000276506 0.000486542 0.000245794
threshold=-0.036330688243683344 0.027363559980361701 -6.5904989750925376 2390.2200000000007 18.608317503065383 1030.0328526221817 0.0024106471469101946 44.818126912000089 0.091783930073988676 2.4086776499178759 0.007073569510711984 -0.018630153885137165 2.0190427739987045 -4.5168112839393126 0.0083342931498771051 0.029447666829021227 0.026455404355568705 0.0088812289784064875 2433.9800000000005 9.1437708270376312 0.51157178709599005 75931.500000000015 -0.21486911792096317 14.610241644689181 1675.7416180319835 7.5574415725748034 1204.4710833333336 0.73636354104300994 0.022721245006265382 11.766593005684298
decision_type=2 2 2 2 2 2 2 2 2 2 2 2 2 2 2 2 2 2 2 2 2 2 2 2 2 2 2 2 2 2
left_child=1 2 3 4 -1 -2 7 8 -3 10 -10 12 21 -4 23 27 -17 -8 -5 -20 -21 -9 -23 -7 25 26 -25 -16 -29 -28
right_child=5 6 13 18 -6 14 17 11 9 -11 -12 -13 -14 -15 15 16 -18 -19 19 20 -22 22 -24 24 -26 -27 29 28 -30 -31
leaf_value=0 1.2109597803618335e-05 0 -2.6546719140025795e-05 -2.5913630976568728e-05 7.3965927799678828e-05 6.8496886536949476e-08 4.9213026391210626e-05 0 0 0 -4.9137054934553028e-05 0 0 0 4.3606992134319471e-07 0 -2.3005212612928793e-05 0 0 0 7.8342588428862022e-05 0 0.00010976595159796677 0 -5.4804060324635286e-07 9.6784833578771435e-07 -9.2990308351284165e-06 1.1681666920962173e-05 0 0
leaf_weight=64 453 59 62 20 153 77152 38 22 38 20 105 86 25 35 1497 94 143 20 114 21 24 27 23 657 35923 435 1961 1083 309 491
leaf_count=64 453 59 62 20 153 77152 38 22 38 20 105 86 25 35 1497 94 143 20 114 21 24 27 23 657 35923 435 1961 1083 309 491
internal_value=1.16921e-08 1.24856e-05 2.21157e-05 3.43216e-05 5.60928e-05 -9.22413e-08 0 -1.88083e-06 -1.68454e-05 -2.7191e-05 -3.56191e-05 5.35442e-06 2.48355e-05 -7.10663e-06 -1.55124e-07 3.24859e-06 -9.47162e-06 3.08145e-05 0 1.21754e-05 4.9102e-05 4.98731e-05 6.56123e-05 -2.63516e-07 -9.63224e-07 -4.60707e-06 -6.03036e-06 4.98492e-06 8.43954e-06 -7.68989e-06
internal_weight=121154 956 493 396 217 120198 463 405 222 163 143 183 97 97 119745 3126 237 58 179 159 45 72 50 116619 39467 3544 3109 2889 1392 2452
internal_count=121154 956 493 396 217 120198 463 405 222 163 143 183 97 97 119745 3126 237 58 179 159 45 72 50 116619 39467 3544 3109 2889 1392 2452
is_linear=0
shrinkage=0.01


Tree=27
num_leaves=31
num_cat=0
split_feature=28 57 51 53 49 42 11 61 34 39 37 11 31 14 11 51 18 37 39 23 11 29 8 17 23 5 34 17 7 30
split_gain=0.00147502 0.000898613 0.00226358 0.00181951 0.00131723 0.000725455 0.000554525 0.000649761 0.000565463 0.000601505 0.000709317 0.000537205 0.000806322 0.000489676 0.00054466 0.000382867 0.000365694 0.000315676 0.000523898 0.000737549 0.000652718 0.00063706 0.000561764 0.0009567 0.000627059 0.000546201 0.000557184 0.000502618 0.000584919 0.000495205
threshold=-0.036330688243683344 0.027363559980361701 -6.5904989750925376 2409.7534872682536 18.608317503065383 1063.3164558635756 0.0024106471469101946 44.818126912000089 0.091783930073988676 2.4086776499178759 0.007073569510711984 -0.018630153885137165 1.1354077148964332 0.0090315992850982293 0.036662493983954832 -4.5168112839393126 0.0088812289784064875 0.0077541290980391352 -0.32775404821124632 -0.00060914533981121222 0.0031315653155568062 -0.18408726240581355 144007614.57636502 0.0081290477155278821 -0.01235042529484409 189303495.55816504 0.28930276452572973 0.0065697318053461124 29086.363500000003 1.2180337917313306
decision_type=2 2 2 2 2 2 2 2 2 2 2 2 2 2 2 2 2 2 2 2 2 2 2 2 2 2 2 2 2 2
left_child=1 2 3 4 -1 -2 7 8 -3 10 -10 12 -9 17 -15 -4 -8 -7 19 21 22 -19 25 -24 -25 -20 -27 -21 29 -29
right_child=5 6 15 -5 -6 13 16 11 9 -11 -12 -13 -14 14 -16 -17 -18 18 20 27 -22 -23 23 24 -26 26 -28 28 -30 -31
leaf_value=0 8.8719377281915635e-06 0 -2.6282105531986694e-05 0 6.919085650211048e-05 -1.5296507256989376e-07 4.8723472192388571e-05 4.5535526002086475e-05 0 0 -4.8646619813860895e-05 0 0 5.9143895084741361e-06 -7.7859966773078924e-06 0 0 -1.0983330327617408e-05 -1.3653325746419716e-06 0 -1.2360358096534549e-05 1.806425778515011e-06 0 -7.810647497535683e-05 0 3.3010474236077915e-05 0 2.1189905230866306e-05 0 0
leaf_weight=64 888 59 62 171 161 111291 38 67 38 20 105 86 30 2417 213 35 20 853 1202 1051 1021 304 28 35 26 99 115 427 74 154
leaf_count=64 888 59 62 171 161 111291 38 67 38 20 105 86 30 2417 213 35 20 853 1202 1051 1021 304 28 35 26 99 115 427 74 154
internal_value=1.13938e-08 1.23783e-05 2.1892e-05 3.40016e-05 5.33097e-05 -9.08508e-08 0 -1.8158e-06 -1.66132e-05 -2.68749e-05 -3.52588e-05 5.21661e-06 2.45758e-05 -1.74337e-07 4.04391e-06 -6.93729e-06 3.04932e-05 -2.86565e-07 -2.67438e-06 0 -5.99973e-06 -5.8948e-06 -3.54852e-07 -2.51377e-05 -4.98422e-05 0 1.56376e-05 4.43395e-06 1.13097e-05 1.56472e-05
internal_weight=121154 956 493 396 225 120198 463 405 222 163 143 183 97 119310 2630 97 58 116680 5389 2863 2526 1157 1505 89 61 1416 214 1706 655 581
internal_count=121154 956 493 396 225 120198 463 405 222 163 143 183 97 119310 2630 97 58 116680 5389 2863 2526 1157 1505 89 61 1416 214 1706 655 581
is_linear=0
shrinkage=0.01


Tree=28
num_leaves=31
num_cat=0
split_feature=33 18 60 22 16 50 42 9 56 20 20 8 32 19 37 12 8 18 22 36 32 16 6 23 63 42 30 10 63 20
split_gain=0.00145759 0.00186366 0.00331815 0.00186904 0.00257421 0.000780226 0.000539931 0.000423707 0.000566279 0.000555621 0.000395441 0.000785365 0.00148476 0.000698622 0.000598352 0.000386524 0.000316884 0.000264194 0.000403121 0.000599594 0.000329555 0.000306811 0.000353385 0.000260384 0.000322626 0.000399091 0.000242277 0.0003873 0.000523687 0.00024212
threshold=-0.068153446931123227 -0.020600464638485024 -8.0910333247613178 0.010956751496447073 0.83905628456819592 -35.247371317816935 1063.3164558635756 0.0074127563397436988 8.6297624953938001 1.1652685568228804 -0.91820074940730267 74236350.013595015 0.018133386792613431 0.0087684221403839819 0.008234122690369378 0.027420602791007557 89372122.260705009 0.015763958973231355 0.0086696871883815852 -0.46232472405827635 0.0044782289366078415 0.31090021823671871 34690.500000000007 -0.017428599344355918 22.71485854383387 3048.467685063441 -1.4509049216893473 0.02079434969051475 10.276368506769396 1.6545066619432405
decision_type=2 2 2 2 2 2 2 2 2 2 2 2 2 2 2 2 2 2 2 2 2 2 2 2 2 2 2 2 2 2
left_child=1 2 -1 -4 5 -5 16 -8 17 -10 13 -12 26 14 -3 -11 -2 18 20 -20 -9 22 -21 -24 25 -25 -13 28 -28 -17
right_child=6 10 3 4 -6 -7 7 8 9 15 11 12 -14 -15 -16 29 -18 -19 19 21 -22 -23 23 24 -26 -27 27 -29 -30 -31
leaf_value=0 9.9574696072902828e-06 0 0 0.00015524906579526216 0 0 -2.6363764595444385e-07 7.2370457208927509e-06 0 0 0 0 0.00010863602178979596 0 -7.9344249218060025e-05 -3.459852519060516e-05 0 0 0 0 0 0 0 4.7226634617478269e-05 0 0 5.0512061435554127e-05 0 0 0
leaf_weight=36 846 25 30 49 25 26 115719 1116 217 109 47 53 21 54 23 111 77 491 110 37 1444 111 27 154 42 40 45 22 23 24
leaf_count=36 846 25 30 49 25 26 115719 1116 217 109 47 53 21 54 23 111 77 491 110 37 1444 111 27 154 42 40 45 22 23 24
internal_value=1.11238e-08 1.74132e-05 4.46722e-05 7.13854e-05 9.21244e-05 0.000121373 -6.14988e-08 -1.36651e-07 3.01093e-06 -5.64302e-06 0 1.04776e-05 2.48898e-05 -1.26516e-05 -4.22943e-05 -1.69608e-05 7.52043e-06 4.68794e-06 5.83551e-06 1.51566e-05 3.1563e-06 2.09044e-05 2.64721e-05 3.05541e-05 3.39191e-05 3.95658e-05 0 1.6389e-05 3.03831e-05 -2.8381e-05
internal_weight=121154 479 166 130 100 75 120675 119752 4033 461 313 211 164 102 48 244 923 3572 3081 521 2560 411 300 263 236 194 143 90 68 135
internal_count=121154 479 166 130 100 75 120675 119752 4033 461 313 211 164 102 48 244 923 3572 3081 521 2560 411 300 263 236 194 143 90 68 135
is_linear=0
shrinkage=0.01


Tree=29
num_leaves=31
num_cat=0
split_feature=28 57 51 1 49 42 61 18 5 60 17 17 46 16 14 18 56 51 33 37 41 58 23 34 27 47 49 51 25 30
split_gain=0.00142637 0.000877039 0.00221365 0.00183911 0.00139085 0.000696345 0.000523499 0.000914854 0.000835222 0.00133379 0.00232952 0.000821277 0.000912132 0.00053511 0.000472326 0.000511259 0.000428089 0.000376565 0.000381062 0.000309901 0.000594495 0.000701636 0.000479009 0.000506846 0.000432782 0.000355763 0.000363118 0.000447164 0.000335259 0.000312621
threshold=-0.036330688243683344 0.027363559980361701 -6.5904989750925376 2402.8200000000006 18.608317503065383 1063.3164558635756 48.109042260353355 -0.0084409092079096842 130403804.39839001 3.0817203377535667 0.014365253926951128 0.0088374874064006785 2748.4313333333339 0.38223122498811962 0.0090315992850982293 0.019946136170001853 4.0613047339424613 -4.5168112839393126 -0.05444101725865113 0.0077541290980391352 -0.32141746985889985 18.346123785864105 0.00012795774998719536 -0.42056824703109058 0.0060202251012501 56.815611224732699 26.357122046651202 10.023415091194488 1.3482934904476764 -1.6114123082635479
decision_type=2 2 2 2 2 2 2 2 2 2 2 2 2 2 2 2 2 2 2 2 2 2 2 2 2 2 2 2 2 2
left_child=1 2 3 4 -1 -2 7 11 -8 10 -10 -3 13 -13 19 -16 -17 18 -4 -7 22 -22 23 24 -21 26 -24 28 -28 -26
right_child=5 6 17 -5 -6 14 8 -9 9 -11 -12 12 -14 -15 15 16 -18 -19 -20 20 21 -23 25 -25 29 -27 27 -29 -30 -31
leaf_value=0 8.6910785551294698e-06 0 -4.7083960084543032e-05 0 7.1093289024559431e-05 -1.4923911179253134e-07 0 0 0 0 0.00011196823709891462 -7.2160814695363811e-05 0 0 6.1061370439651488e-06 1.5543795678114525e-06 -1.3597301466800971e-05 0 0 0 3.7026767769277329e-06 -9.5721013978973443e-06 0 0 0 0 2.4374569912657764e-05 0 0 -1.6698914623849675e-05
leaf_weight=64 888 31 36 180 152 111291 32 146 58 52 39 63 22 20 2292 69 269 35 26 187 265 1787 574 748 27 814 288 121 33 545
leaf_count=64 888 31 36 180 152 111291 32 146 58 52 39 63 22 20 2292 69 269 35 26 187 265 1787 574 748 27 814 288 121 33 545
internal_value=1.07734e-08 1.21726e-05 2.15661e-05 3.35612e-05 5.39886e-05 -8.91361e-08 0 -6.17393e-06 1.51507e-05 2.89582e-05 5.15694e-05 -2.73985e-05 -4.18637e-05 -5.75525e-05 -1.71263e-07 3.97067e-06 -4.59146e-06 -6.79581e-06 -2.60304e-05 -2.81771e-07 -2.64753e-06 -6.88301e-06 0 -4.21727e-06 -1.01029e-05 3.39499e-06 7.46778e-06 1.45008e-05 2.07051e-05 -1.45279e-05
internal_weight=121154 956 493 396 216 120198 463 282 181 149 97 136 105 83 119310 2630 338 97 62 116680 5389 2052 3337 1507 759 1830 1016 442 321 572
internal_count=121154 956 493 396 216 120198 463 282 181 149 97 136 105 83 119310 2630 338 97 62 116680 5389 2052 3337 1507 759 1830 1016 442 321 572
is_linear=0
shrinkage=0.01


Tree=30
num_leaves=31
num_cat=0
split_feature=28 57 56 6 27 42 9 59 11 61 11 31 64 14 11 59 45 20 56 23 2 37 41 23 6 27 20 63 59 47
split_gain=0.00140441 0.00085957 0.00157681 0.00245874 0.00383762 0.000682462 0.000583107 0.00067316 0.000525314 0.000614646 0.000516026 0.000785093 0.000509495 0.000462951 0.000519531 0.000450685 0.000502342 0.000684842 0.000918468 0.00045981 0.000389132 0.000301781 0.000582003 0.000466649 0.000437779 0.000817902 0.00043367 0.000427412 0.000402397 0.000350067
threshold=-0.036330688243683344 0.027363559980361701 9.1437708270376312 122572.50000000001 0.013801115045820539 1063.3164558635756 -0.018586810818489782 16.875817385420572 0.0024106471469101946 44.818126912000089 -0.018630153885137165 1.1354077148964332 44.655873778327397 0.0090315992850982293 0.036662493983954832 8.9886212925734039 3298.8755000000006 -0.33119033349887311 9.1437708270376312 -0.021401204317340657 2319.4500000000003 0.0077541290980391352 -0.32141746985889985 0.00012795774998719536 42142.500000000007 0.0061577389771746939 -1.1908089719012884 21.963507898630422 15.67989311129528 56.815611224732699
decision_type=2 2 2 2 2 2 2 2 2 2 2 2 2 2 2 2 2 2 2 2 2 2 2 2 2 2 2 2 2 2
left_child=1 2 6 -4 -5 -2 7 -1 9 15 11 -11 20 21 -15 -3 17 18 -17 -20 -8 -7 23 24 25 -23 -24 -27 -28 -25
right_child=5 8 3 4 -6 13 12 -9 -10 10 -12 -13 -14 14 -16 16 -18 -19 19 -21 -22 22 26 29 -26 27 28 -29 -30 -31
leaf_value=0 8.6041872557267608e-06 0 0 0 0.00015129076476036086 -1.4774683363476851e-07 3.6837205296289747e-05 -3.4768841285715208e-05 2.9673004884767275e-05 4.4716119323094879e-05 0 0 0 5.7698768905830579e-06 -7.5409898059527821e-06 0 0 0 -7.670819967851237e-05 0 0 0 0 7.398696536658409e-06 7.2461593570255349e-07 -1.8681768951423294e-05 0 0 -1.1067808847124474e-05 0
leaf_weight=33 888 41 56 65 44 111291 104 62 58 67 86 30 71 2417 213 28 26 39 61 27 58 357 503 1016 447 556 91 147 1458 814
leaf_count=33 888 41 56 65 44 111291 104 62 58 67 86 30 71 2417 213 28 26 39 61 27 58 357 503 1016 447 556 91 147 1458 814
internal_value=1.06126e-08 1.20792e-05 2.13814e-05 4.80903e-05 7.58304e-05 -8.77508e-08 1.83052e-06 -9.09561e-06 0 -1.78222e-06 4.82022e-06 2.39725e-05 1.48657e-05 -1.69221e-07 3.93096e-06 -1.62251e-05 -2.3907e-05 -3.14796e-05 -4.3737e-05 -5.96787e-05 2.51364e-05 -2.78787e-07 -2.61375e-06 0 -4.15689e-06 -8.1016e-06 -6.80444e-06 -1.46721e-05 -9.45127e-06 3.35663e-06
internal_weight=121154 956 493 165 109 120198 328 95 463 405 183 97 233 119310 2630 222 181 155 116 88 162 116680 5389 3337 1507 1060 2052 703 1549 1830
internal_count=121154 956 493 165 109 120198 328 95 463 405 183 97 233 119310 2630 222 181 155 116 88 162 116680 5389 3337 1507 1060 2052 703 1549 1830
is_linear=0
shrinkage=0.01


Tree=31
num_leaves=31
num_cat=0
split_feature=28 60 60 60 30 56 20 16 22 47 62 20 42 56 14 11 48 48 21 49 43 16 26 23 60 48 60 38 9 38
split_gain=0.001384 0.00085841 0.00161117 0.00124561 0.00127756 0.00245931 0.0010774 0.00190879 0.00243192 0.000822719 0.0008982 0.000818988 0.000668878 0.00045427 0.000452127 0.000510751 0.000395643 0.000302479 0.000698675 0.000278367 0.00059371 0.00040274 0.000398245 0.00049207 0.000277818 0.000311186 0.000352541 0.000455878 0.000340403 0.000275366
threshold=-0.036330688243683344 -7.6595564506214506 -5.7289611274265626 -5.2037068897994834 -1.8702585962247498 14.621394269948965 -0.97083975312488258 -0.099444707953028053 0.013728515158259741 23.732651847499671 34.816369679665492 -1.5347270133854474 1063.3164558635756 6.4540286387078405 0.0090315992850982293 0.036662493983954832 35.415602985382584 37.328267908636725 -0.93811939338539285 14.610241644689181 1675.7416180319835 0.52389435180051858 -0.06803911215023796 -0.0032619814860644354 -10.293864267931708 34.963410693397499 7.2946448342431092 0.0070993756372530479 0.0040825604356453668 0.061809482872368433
decision_type=2 2 2 2 2 2 2 2 2 2 2 2 2 2 2 2 2 2 2 2 2 2 2 2 2 2 2 2 2 2
left_child=1 -1 16 -4 5 11 9 17 -9 -6 -11 -5 -2 -13 19 29 -3 -8 -19 -14 21 22 23 24 -21 -26 27 28 -27 -16
right_child=12 2 3 4 6 -7 7 8 -10 10 -12 13 14 -15 15 -17 -18 18 -20 20 -22 -23 -24 -25 25 26 -28 -29 -30 -31
leaf_value=-1.8111197014677777e-06 8.5181689271530704e-06 0.00010125008000167118 -4.0408567239981186e-05 0 0 0.0001436493136953596 0 0 8.5640673059970144e-05 0 -7.1427168075632289e-05 0 5.0660194616215788e-08 3.1323137633313592e-05 6.8873486708152563e-06 -7.4656500407790776e-06 0 0 -5.5759967812975993e-05 0 -5.1530686705338202e-07 -1.6693045316397669e-05 9.6205024800531853e-07 -7.6528518796516191e-07 0 -3.0191526939461113e-05 0 0 0 0
leaf_weight=117 888 34 28 97 48 22 124 45 65 24 46 32 76972 198 2243 213 20 24 32 97 36187 350 893 1540 59 318 25 196 43 174
leaf_count=117 888 34 28 97 48 22 124 45 65 24 46 32 76972 198 2243 213 20 24 32 97 36187 350 893 1540 59 318 25 196 43 174
internal_value=1.04456e-08 1.19916e-05 1.62996e-05 9.64439e-06 1.41472e-05 2.82815e-05 0 1.23311e-05 4.61795e-05 -2.31987e-05 -4.55866e-05 1.43242e-05 -8.64908e-08 2.54443e-05 -1.67311e-07 3.88404e-06 7.57545e-05 0 -2.31995e-05 -2.75777e-07 -9.58923e-07 -4.9499e-06 -3.0221e-06 -5.46177e-06 -1.25499e-05 -1.49884e-05 -1.73456e-05 -1.94329e-05 -2.66228e-05 5.71218e-06
internal_weight=121154 956 839 785 757 349 408 290 110 118 70 327 120198 230 119310 2630 54 180 56 116680 39708 3521 3171 2278 738 641 582 557 361 2417
internal_count=121154 956 839 785 757 349 408 290 110 118 70 327 120198 230 119310 2630 54 180 56 116680 39708 3521 3171 2278 738 641 582 557 361 2417
is_linear=0
shrinkage=0.01


Tree=32
num_leaves=31
num_cat=0
split_feature=28 60 13 20 47 42 20 14 18 56 52 30 61 56 24 61 18 59 55 37 39 20 25 17 7 30 16 60 27 29
split_gain=0.00135531 0.000847366 0.00243739 0.00257569 0.00194866 0.000655657 0.000640539 0.000440315 0.000486111 0.000426877 0.000540788 0.000419642 0.000450029 0.000417741 0.000397732 0.000337696 0.000640709 0.000506201 0.000647376 0.00028969 0.00049728 0.000630662 0.000597962 0.000589219 0.000653978 0.000593905 0.000698626 0.000644815 0.000675078 0.000551626
threshold=-0.036330688243683344 -7.6595564506214506 0.035759048698962341 -1.4647674541546745 38.408927533504546 1063.3164558635756 -0.40456231027339967 0.0090315992850982293 0.019946136170001853 12.258001441360461 -11.91811504641001 -1.8702585962247498 49.711892626127288 4.0613047339424613 1.2363145543660807 45.258781997570296 -0.0084409092079096842 9.9912957704375369 2544.767152144334 0.0077541290980391352 -0.32775404821124632 -1.1650695934834023 0.032445900642777678 0.0065697318053461124 29086.363500000003 1.2180337917313306 -0.38117595901390416 -3.2708729692698468 0.0082766900631644335 -0.18408726240581355
decision_type=2 2 2 2 2 2 2 2 2 2 2 2 2 2 2 2 2 2 2 2 2 2 2 2 2 2 2 2 2 2
left_child=1 -1 11 9 6 -2 -5 19 -9 10 -4 12 14 -10 -3 16 17 -13 -19 -7 22 -22 29 -24 25 26 -25 -28 -29 -21
right_child=5 2 3 4 -6 7 -8 8 13 -11 -12 15 -14 -15 -16 -17 -18 18 -20 20 21 -23 23 24 -26 -27 27 28 -30 -31
leaf_value=-1.7930410476361706e-06 8.4330064830214548e-06 2.5489488187017673e-05 -4.4073617758933841e-05 0.00011843793238836173 0 -1.4438787724516054e-07 0 5.9263155387138393e-06 1.4516391055059545e-06 4.2310183369877306e-05 0 0 0 -1.3400899628252533e-05 0 5.6086343533394937e-06 0 -7.3818601741021517e-05 0 -9.2146019579988467e-06 3.1799929303722259e-07 -8.7864381113489726e-06 0 0 0 0 0 0 4.328955432218309e-05 2.4898760144590136e-06
leaf_weight=117 888 208 31 69 20 111291 23 2292 69 20 23 21 33 269 53 160 115 38 25 967 608 1918 958 40 72 154 62 66 222 322
leaf_count=117 888 208 31 69 20 111291 23 2292 69 20 23 21 33 269 53 160 115 38 25 967 608 1918 958 40 72 154 62 66 222 322
internal_value=1.01852e-08 1.18666e-05 1.61546e-05 4.93903e-05 7.96486e-05 -8.57347e-08 9.91642e-05 -1.65915e-07 3.83136e-06 0 -1.09735e-05 3.61373e-06 1.31009e-05 -4.45615e-06 1.91209e-05 0 -1.20095e-05 -3.31987e-05 -4.76374e-05 -2.73162e-07 -2.56132e-06 -5.80347e-06 0 4.42598e-06 1.20692e-05 1.68852e-05 2.34487e-05 2.8498e-05 3.47935e-05 -4.73947e-06
internal_weight=121154 956 839 186 112 120198 92 119310 2630 74 54 653 294 338 261 359 199 84 63 116680 5389 2526 2863 1574 616 544 390 350 288 1289
internal_count=121154 956 839 186 112 120198 92 119310 2630 74 54 653 294 338 261 359 199 84 63 116680 5389 2526 2863 1574 616 544 390 350 288 1289
is_linear=0
shrinkage=0.01


Tree=33
num_leaves=31
num_cat=0
split_feature=33 18 60 22 51 43 22 20 8 34 19 53 38 14 38 10 13 26 25 51 13 8 13 56 40 11 13 40 27 33
split_gain=0.00133162 0.00174214 0.00320106 0.00179803 0.00172348 0.000490758 0.000376359 0.000360306 0.000749916 0.000929841 0.00155138 0.000869671 0.000708153 0.000333176 0.000605409 0.000330165 0.000329013 0.000318453 0.000272535 0.000298689 0.000452802 0.000567642 0.000515255 0.000235722 0.000213435 0.000359346 0.000328902 0.00109497 0.00101164 0.000488136
threshold=-0.068153446931123227 -0.020600464638485024 -8.0910333247613178 0.010956751496447073 -9.6875665081844122 1030.0328526221817 0.015869508370885008 -0.91820074940730267 74236350.013595015 0.59412995201911079 -0.18555255836235121 2199.148850759243 -0.094780255989111925 0.0034759925380342866 0.061809482872368433 0.0038779561757329444 0.022824028214916855 -1.1210711817095944 -0.2400087094101071 6.4779837957662725 0.011329617653763542 32825566.251995001 0.028723742750869245 3.6648625023503372 -0.61903255966175708 -0.008547744152078816 0.025111536667789151 -1.6409933160528185 0.0085104766100866907 -0.047793206217642652
decision_type=2 2 2 2 2 2 2 2 2 2 2 2 2 2 2 2 2 2 2 2 2 2 2 2 2 2 2 2 2 2
left_child=1 2 -1 -4 6 18 -5 12 -9 10 11 -10 16 24 17 -16 -3 -15 -2 20 -20 -22 -23 -17 26 -26 29 28 -28 -7
right_child=5 7 3 4 -6 13 -8 8 9 -11 -12 -13 -14 14 15 23 -18 -19 19 -21 21 22 -24 -25 25 -27 27 -29 -30 -31
leaf_value=0 0 0 0 0 0 8.0120084234217626e-06 0.00017770744962849138 0 0.0001122235460615341 0 0 0 0 -5.5241262811377861e-06 0 0 -6.280143392720993e-05 2.179221289705306e-06 0 0 0 5.6091438192682147e-05 0 -1.6251779714061082e-05 3.1063849694686032e-06 -1.6324230381587599e-07 0 2.1697857060507021e-06 -4.9535150471999172e-05 -9.7680270218807601e-07
leaf_weight=36 139 21 30 28 40 573 32 47 34 83 27 20 51 423 104 66 30 13520 142 46 30 82 23 362 3543 65446 168 127 103 35778
leaf_count=36 139 21 30 28 40 573 32 47 34 83 27 20 51 423 104 66 30 13520 142 46 30 82 23 362 3543 65446 168 127 103 35778
internal_value=9.83983e-09 1.66451e-05 4.29774e-05 6.93998e-05 8.97374e-05 -5.72317e-08 0.00012754 0 9.88518e-06 2.41329e-05 4.81957e-05 7.96385e-05 -1.22725e-05 -1.13242e-07 1.28257e-06 -8.56872e-06 -4.10336e-05 1.802e-06 1.01832e-05 1.52519e-05 1.94673e-05 3.33455e-05 4.43689e-05 -1.29754e-05 -3.23238e-07 0 -9.38837e-07 -1.04113e-05 -2.36791e-05 -7.8005e-07
internal_weight=121154 479 166 130 100 120675 60 313 211 164 81 54 102 120213 14475 532 51 13943 462 323 277 135 105 428 105738 68989 36749 398 271 36351
internal_count=121154 479 166 130 100 120675 60 313 211 164 81 54 102 120213 14475 532 51 13943 462 323 277 135 105 428 105738 68989 36749 398 271 36351
is_linear=0
shrinkage=0.01


Tree=34
num_leaves=31
num_cat=0
split_feature=28 60 13 20 20 42 14 18 57 56 56 52 61 57 27 62 5 10 39 37 41 58 23 34 26 28 37 6 27 58
split_gain=0.00131362 0.00082854 0.00236477 0.00251481 0.00166315 0.000634832 0.000429728 0.000472455 0.000417795 0.000409745 0.000407286 0.000535401 0.000335178 0.000284693 0.000539617 0.000425786 0.00041498 0.000405286 0.000376611 0.000284077 0.000559419 0.000679575 0.000439287 0.00048639 0.000428557 0.000490617 0.000625056 0.000647172 0.000417029 0.000400297
threshold=-0.036330688243683344 -7.6595564506214506 0.035759048698962341 -1.4647674541546745 -0.40456231027339967 1063.3164558635756 0.0090315992850982293 0.019946136170001853 0.027363559980361701 4.0613047339424613 12.258001441360461 -11.91811504641001 49.711892626127288 0.13899529553459442 0.0093462631804605931 48.029622816787004 151465278.57050005 0.012281774497708399 1.2219701965795724 0.0077541290980391352 -0.32141746985889985 18.346123785864105 0.00012795774998719536 -0.42056824703109058 1.6952945593120468 -0.012223376701958165 0.014666010655518794 41238.500000000007 0.0060202251012501 47.866410065171415
decision_type=2 2 2 2 2 2 2 2 2 2 2 2 2 2 2 2 2 2 2 2 2 2 2 2 2 2 2 2 2 2
left_child=1 -1 8 10 -5 -2 19 -8 12 -9 11 -4 -3 14 -10 -16 -15 18 -18 -7 22 -22 23 28 25 26 27 -23 -21 -27
right_child=5 2 3 4 -6 6 7 9 13 -11 -12 -13 -14 16 15 -17 17 -19 -20 20 21 24 -24 -25 -26 29 -28 -29 -30 -31
leaf_value=-1.7008365120193608e-06 8.2978627107506654e-06 1.829755922265826e-05 -4.3800724909091603e-05 0.00010760618668712294 0 -1.4153469538947132e-07 5.8552805179884223e-06 1.4264041277720587e-06 0 -1.3238736570217799e-05 4.1273916416829171e-05 0 0 0 -3.8789341643834694e-05 0 4.8283937164814039e-05 0 0 0 3.7633019850416045e-06 0 3.2838213465550606e-06 0 0 1.1803997598564213e-07 0 -3.3145977188501546e-05 -1.41479818783178e-05 -8.9482392324084174e-06
leaf_weight=117 888 249 31 74 38 111291 2292 69 111 269 20 23 29 60 80 21 53 27 23 187 265 70 1830 748 237 222 22 309 572 927
leaf_count=117 888 249 31 74 38 111291 2292 69 111 269 20 23 29 60 80 21 53 27 23 187 265 70 1830 748 237 222 22 309 572 927
internal_value=9.46874e-09 1.16831e-05 1.59327e-05 4.8687e-05 7.85822e-05 -8.39235e-08 -1.63084e-07 3.78538e-06 3.52903e-06 -4.33223e-06 0 -1.0796e-05 1.33948e-05 0 -1.06636e-05 -2.77787e-05 5.15659e-06 2.10752e-05 3.36662e-05 -2.69231e-07 -2.53514e-06 -6.64356e-06 0 -4.00643e-06 -9.30615e-06 -1.12912e-05 -2.30134e-05 -2.69291e-05 -9.7945e-06 -5.45647e-06
internal_weight=121154 956 839 186 112 120198 119310 2630 653 338 74 54 278 375 212 101 163 103 76 116680 5389 2052 3337 1507 1787 1550 401 379 759 1149
internal_count=121154 956 839 186 112 120198 119310 2630 653 338 74 54 278 375 212 101 163 103 76 116680 5389 2052 3337 1507 1787 1550 401 379 759 1149
is_linear=0
shrinkage=0.01


Tree=35
num_leaves=31
num_cat=0
split_feature=28 60 13 16 40 53 42 14 11 57 11 37 52 55 13 61 24 15 37 41 51 23 57 23 34 27 33 47 19 41
split_gain=0.00128718 0.000818306 0.00232621 0.00240075 0.00266071 0.0025968 0.000622142 0.000421157 0.000480678 0.000408472 0.000415869 0.000626392 0.000570353 0.000717484 0.000458083 0.000330719 0.000374009 0.000324762 0.000275661 0.000546163 0.000593811 0.000842325 0.000679638 0.000428919 0.000477065 0.000410011 0.000374825 0.000338136 0.000352857 0.000399832
