tree
version=v4
num_class=1
num_tree_per_iteration=1
label_index=0
max_feature_idx=18
objective=regression
feature_names=quote_asset_volume ret_4 ret_32 volume_ma_ratio_5 volatility_20 price_ma_ratio_20 zscore_close_20 volatility_48 volatility_96 zscore_close_96 ema_12 rsi_14 rsi_28 MACDh_12_26_9 BBL_20_2.0_2.0 BBU_20_2.0_2.0 BBB_20_2.0_2.0 STOCHh_14_3_3 ADXR_14_2
feature_infos=[0:3297601643.8953199] [-0.22781918774541976:0.15469538819110817] [-0.29840399484321445:0.22123873538606009] [-1:3.9459981706001681] [0.0002450328158310948:0.050872643882240068] [-0.24031328194689883:0.12644413026249857] [-4.209749514643204:4.19234132511344] [0.0002970137037256562:0.037234095704908578] [0.00033063061320806364:0.030409913811468799] [-8.1780814469653507:7.7598990026462724] [724.00638691023391:4839.1932727456733] [4.129737648064232:95.624613228907393] [7.2654587073772721:89.692649145390021] [-66.59892090960858:58.613771987099028] [709.13085749532388:4805.4679577395736] [732.45348048324979:4933.9345183504474] [0.11348006558153138:41.871721064603527] [-30.075887675236881:30.273087614642719] [5.4276135974974071:82.697264299028859]
tree_sizes=1534 1496 1415 1466 1420 1469 1459 1520 1429 1453 1417 1427 1367 1423 1426 1440 1402 1449 1443 1439 1434 1357

Tree=0
num_leaves=15
num_cat=0
split_feature=2 8 12 15 8 8 16 14 2 15 13 18 9 7
split_gain=0.0145646 0.00916195 0.0106635 0.00339194 0.00332215 0.00268057 0.00217074 0.0017399 0.00172485 0.00127549 0.00214021 0.00205899 0.00167134 0.00271397
threshold=-0.091877259883355808 0.01702396299111221 33.148983446398681 1111.9531296348407 0.0070738310231601145 0.0084206326990918425 12.258001441360461 988.31292230922054 -0.013718995700160551 1265.3304690828793 -6.2574478919437206 56.070622150013421 -1.7198446272402086 0.010691113141714415
decision_type=2 2 2 2 2 2 2 2 2 2 2 2 2 2
left_child=1 2 4 5 -1 -2 -7 8 -5 -4 -11 12 13 -12
right_child=3 -3 9 7 -6 6 -8 -9 -10 10 11 -13 -14 -15
leaf_value=4.7475089112023528e-05 5.0380875237795422e-05 0.00025451166013306964 9.508452102028185e-05 4.7475089112023528e-05 0.00017006264634603091 9.1408978152206845e-05 4.7475089112023528e-05 4.7101350261894855e-05 -5.2321884196475188e-05 6.065665344906896e-05 4.7475089112023528e-05 4.7475089112023528e-05 4.7475089112023528e-05 -6.0462378174286643e-05
leaf_weight=56 937 42 33 22 130 415 61 119205 35 65 22 27 26 77
leaf_count=56 937 42 33 22 130 415 61 119205 35 65 22 27 26 77
internal_value=4.75345e-05 0.000102554 8.32426e-05 4.72568e-05 0.000140877 6.26212e-05 8.25049e-05 4.7058e-05 -8.32282e-06 4.74751e-05 3.19582e-05 6.54406e-06 -1.31979e-05 -3.20916e-05
internal_weight=121153 478 436 120675 186 1413 476 119262 57 250 217 152 125 99
internal_count=121153 478 436 120675 186 1413 476 119262 57 250 217 152 125 99
is_linear=0
shrinkage=1


Tree=1
num_leaves=15
num_cat=0
split_feature=2 5 17 8 11 10 9 12 8 9 5 18 8 0
split_gain=0.0143576 0.0113386 0.0112377 0.00886113 0.00724809 0.00343562 0.00291149 0.00437574 0.00214664 0.00167862 0.00127372 0.0017168 0.0012941 0.00306284
threshold=-0.091877259883355808 -0.045828094708467874 -8.0910333247613178 0.014666010655518794 26.195392147317637 1063.3164558635756 -1.7755716821242833 37.328267908636725 0.0070738310231601145 -1.4355747629042546 -0.036330688243683344 33.670640669448574 0.0079663701207809048 245261836.85269502
decision_type=2 2 2 2 2 2 2 2 2 2 2 2 2 2
left_child=1 2 -1 4 8 9 7 -3 -4 -2 11 -7 -12 -14
right_child=5 6 3 -5 -6 10 -8 -9 -10 -11 12 -13 13 -15
leaf_value=-5.0220879861197589e-05 -7.19222354827045e-07 1.3057210673606478e-05 0 0.00029917015084577481 0 3.0675077212106683e-05 6.454494314052031e-05 -8.0443158129573416e-05 0.00017042253550508213 2.5486443757099368e-05 -2.1948749781061145e-07 0 -2.8211262493329236e-06 -3.3921366113023337e-05
leaf_weight=21 153 131 24 38 61 308 67 66 70 769 113487 303 5295 360
leaf_count=21 153 131 24 38 61 308 67 66 70 769 113487 303 5295 360
internal_value=5.87038e-08 5.46869e-05 0.000109365 0.000137116 8.41653e-05 -2.16017e-07 2.74485e-06 -8.17561e-06 0.000139159 1.89698e-05 -3.80465e-07 1.39137e-05 -4.7058e-07 -5.15577e-06
internal_weight=121153 478 214 193 155 120675 264 197 94 922 119753 611 119142 5655
internal_count=121153 478 214 193 155 120675 264 197 94 922 119753 611 119142 5655
is_linear=0
shrinkage=0.01


Tree=2
num_leaves=15
num_cat=0
split_feature=2 8 12 3 10 16 8 6 8 15 13 18 16 0
split_gain=0.0141065 0.00880299 0.0103059 0.00431234 0.00335985 0.00211026 0.00234862 0.00165029 0.00298525 0.00121974 0.00208104 0.00202443 0.00136887 0.000901415
threshold=-0.091877259883355808 0.01702396299111221 33.148983446398681 0.25092910262544682 1063.3164558635756 12.258001441360461 0.0082342861202002893 -1.7444889679380862 0.007534445388240248 1265.3304690828793 -6.2574478919437206 56.070622150013421 8.6310428780914794 245261836.85269502
decision_type=2 2 2 2 2 2 2 2 2 2 2 2 2 2
left_child=1 2 3 7 5 6 -2 -1 -9 -4 13 12 -12 -11
right_child=4 -3 9 -5 -6 -7 -8 8 -10 10 11 -13 -14 -15
leaf_value=0 7.7904524468206401e-06 0.00020341445007736648 4.6486609271925258e-05 0.00015700372162941872 -3.7690633597175521e-07 -1.0250128895066389e-05 5.0127971674255098e-05 0 0.00012351627174542621 5.6856826430213487e-05 0 0 -8.4501119783582097e-05 0
leaf_weight=37 515 42 33 78 119753 118 289 36 35 31 43 27 82 34
leaf_count=37 515 42 33 78 119753 118 289 36 35 31 43 27 82 34
internal_value=5.7626e-08 5.42065e-05 3.51616e-05 9.18212e-05 -2.14101e-07 1.87585e-05 2.55044e-05 2.60574e-05 5.78763e-05 0 -1.52071e-05 -4.03348e-05 -5.99558e-05 1.28217e-05
internal_weight=121153 478 436 186 120675 922 804 108 71 250 217 152 125 65
internal_count=121153 478 436 186 120675 922 804 108 71 250 217 152 125 65
is_linear=0
shrinkage=0.01


Tree=3
num_leaves=15
num_cat=0
split_feature=2 5 14 16 10 11 9 11 16 7 0 15 5 18
split_gain=0.0138734 0.0109561 0.00834438 0.00660657 0.00329311 0.0029998 0.00280059 0.00233964 0.0020784 0.00177134 0.00173547 0.00130648 0.00124578 0.00168535
threshold=-0.091877259883355808 -0.045828094708467874 2409.7534872682536 14.621394269948965 1063.3164558635756 23.732651847499671 -1.7755716821242833 35.684093501036664 12.258001441360461 0.0093086065325147342 201916812.84645003 3337.6567252371146 -0.036330688243683344 33.670640669448574
decision_type=2 2 2 2 2 2 2 2 2 2 2 2 2 2
left_child=1 2 3 5 8 -1 7 -3 9 -2 -9 -4 13 -6
right_child=4 6 11 -5 12 -7 -8 10 -10 -11 -12 -13 -14 -15
leaf_value=0.00011774121622231311 8.9328800687530349e-06 6.7296278571974727e-06 -6.1776243738938442e-05 0.00022763693772277012 3.0372284150879831e-05 0 6.3294653480711744e-05 -8.5905277826061011e-05 -1.0147804909270703e-05 4.7320415908348805e-05 0 3.8464677453205725e-05 -4.6244133126559418e-07 0
leaf_weight=38 514 118 20 72 308 48 67 56 118 290 23 36 119142 303
leaf_count=38 514 118 20 72 308 48 67 56 118 290 23 36 119142 303
internal_value=5.66674e-08 5.37574e-05 0.00010751 0.000144652 -2.11793e-07 5.16083e-05 2.56701e-06 -7.98782e-06 1.8571e-05 2.52744e-05 -5.51848e-05 0 -3.73137e-07 1.37629e-05
internal_weight=121153 478 214 158 120675 86 264 197 922 804 79 56 119753 611
internal_count=121153 478 214 158 120675 86 264 197 922 804 79 56 119753 611
is_linear=0
shrinkage=0.01


Tree=4
num_leaves=15
num_cat=0
split_feature=5 10 6 16 8 12 14 4 4 13 3 0 8 9
split_gain=0.0121766 0.00510283 0.00391513 0.00668181 0.00283562 0.00542447 0.00242519 0.00162297 0.00152962 0.00260727 0.00120934 0.000980705 0.000951832 0.00149576
threshold=-0.045828094708467874 1063.3164558635756 -2.1939399774004156 9.1448483194113539 0.014666010655518794 38.469857247499242 2409.7534872682536 0.013801115045820539 0.0063063503575886666 6.4779837957662725 -0.46860607770532198 30434410.907325003 0.0079663701207809048 -1.6164134185681174
decision_type=2 2 2 2 2 2 2 2 2 2 2 2 2 2
left_child=2 8 3 -1 -4 -6 7 -5 -2 10 -10 -12 -3 -14
right_child=1 12 4 6 5 -7 -8 -9 9 -11 11 -13 13 -15
leaf_value=1.0996302806569564e-05 4.6107395025640402e-06 -1.7054046605893561e-07 0 6.7332779823140373e-05 0.00016679407035787616 0 0 0.00033577698476190839 0 0 0 5.6625157109325245e-05 -1.9583123011643598e-05 -2.1835271158271418e-06
leaf_weight=93 447 113795 230 33 34 44 23 21 37 54 20 349 611 5362
leaf_count=93 447 113795 230 33 34 44 23 21 37 54 20 349 611 5362
internal_value=5.56942e-08 -1.97732e-07 5.03634e-05 9.32193e-05 2.01748e-05 7.23205e-05 0.000166335 0.000209482 2.3394e-05 3.72905e-05 4.70884e-05 5.26031e-05 -3.93129e-07 -4.29882e-06
internal_weight=121153 120675 478 170 308 78 77 54 907 460 406 369 119768 5973
internal_count=121153 120675 478 170 308 78 77 54 907 460 406 369 119768 5973
is_linear=0
shrinkage=0.01


Tree=5
num_leaves=15
num_cat=0
split_feature=2 5 17 6 14 17 15 4 12 12 14 2 16 5
split_gain=0.0135366 0.0105847 0.0109354 0.00553203 0.0035272 0.00456002 0.00310777 0.00257962 0.00255265 0.001914 0.0017052 0.0016943 0.00154295 0.00127258
threshold=-0.091877259883355808 -0.045828094708467874 -8.0910333247613178 -2.1939399774004156 2619.3545587093035 1.0000000180025095e-35 1111.9531296348407 0.0063063503575886666 41.316767302349938 36.991974314827928 988.31292230922054 -0.013718995700160551 12.258001441360461 -0.036330688243683344
decision_type=2 2 2 2 2 2 2 2 2 2 2 2 2 2
left_child=1 2 -1 -4 5 -5 7 -2 9 -3 11 -8 -9 -12
right_child=6 8 3 4 -6 -7 10 12 -10 -11 13 -13 -14 -15
leaf_value=-5.1495125340155038e-05 1.2492397987582256e-06 1.4488294270356789e-05 0.0002421760101448461 0 0 0.00016570563449292694 0 3.8719107039666857e-05 8.1906389624565465e-05 -3.9817363665259475e-05 1.3878429524686995e-05 -9.8833889477728824e-05 0 -4.4690836339346439e-07
leaf_weight=21 866 121 54 46 34 59 22 472 38 105 616 35 75 118589
leaf_count=21 866 121 54 46 34 59 22 472 38 105 616 35 75 118589
internal_value=5.46842e-08 5.31018e-05 0.000105963 0.000133483 7.66022e-05 0.000105438 -2.08145e-07 1.4497e-05 2.63444e-06 -1.91337e-06 -3.99164e-07 -5.52186e-05 3.18075e-05 -3.5608e-07
internal_weight=121153 478 214 193 139 105 120675 1413 264 226 119262 57 547 119205
internal_count=121153 478 214 193 139 105 120675 1413 264 226 119262 57 547 119205
is_linear=0
shrinkage=0.01


Tree=6
num_leaves=15
num_cat=0
split_feature=2 5 17 4 14 10 12 16 4 12 12 12 5 18
split_gain=0.013298 0.0103626 0.0107761 0.00323513 0.00317736 0.00310227 0.00250138 0.00201116 0.00218308 0.00187672 0.0014924 0.00145078 0.00118756 0.00164686
threshold=-0.091877259883355808 -0.045828094708467874 -8.0910333247613178 0.015053755622143285 2284.6977234063484 1063.3164558635756 41.316767302349938 12.258001441360461 0.0063063503575886666 36.991974314827928 40.984576658411086 33.148983446398681 -0.036330688243683344 33.670640669448574
decision_type=2 2 2 2 2 2 2 2 2 2 2 2 2 2
left_child=1 2 -1 11 -5 7 9 8 -2 -3 -10 -4 13 -7
right_child=5 6 3 4 -6 12 -8 -9 10 -11 -12 -13 -14 -15
leaf_value=-5.0985028791265508e-05 4.5521680430475241e-06 1.4343642080840485e-05 8.5095445722518516e-05 0.00024188022092616138 0 2.9872989975133121e-05 8.1091615655130324e-05 -1.0148532091373617e-05 0 -3.9419947286024012e-05 5.064073063430994e-05 0 -4.5043796519026708e-07 0
leaf_weight=21 447 121 89 60 20 308 38 118 27 105 330 24 119142 303
leaf_count=21 447 121 89 60 20 308 38 118 27 105 330 24 119142 303
internal_value=5.40091e-08 5.26322e-05 0.000104947 0.0001323 0.000199885 -2.05779e-07 2.60852e-06 1.80234e-05 2.46465e-05 -1.80605e-06 4.41909e-05 6.6516e-05 -3.6286e-07 1.34368e-05
internal_weight=121153 478 214 193 80 120675 264 922 804 226 357 113 119753 611
internal_count=121153 478 214 193 80 120675 264 922 804 226 357 113 119753 611
is_linear=0
shrinkage=0.01


Tree=7
num_leaves=15
num_cat=0
split_feature=2 5 17 8 11 10 9 12 8 9 5 2 8 0
split_gain=0.0130695 0.0101506 0.0106224 0.00822032 0.0069834 0.00303724 0.00268286 0.00408552 0.00206583 0.00158458 0.00116137 0.00153579 0.00125617 0.00299599
threshold=-0.091877259883355808 -0.045828094708467874 -8.0910333247613178 0.014666010655518794 26.195392147317637 1063.3164558635756 -1.7755716821242833 37.328267908636725 0.0070738310231601145 -1.4355747629042546 -0.036330688243683344 -0.040225681252579852 0.0079663701207809048 245261836.85269502
decision_type=2 2 2 2 2 2 2 2 2 2 2 2 2 2
left_child=1 2 -1 4 8 9 7 -3 -4 -2 11 -7 -12 -14
right_child=5 6 3 -5 -6 10 -8 -9 -10 -11 12 -13 13 -15
leaf_value=-5.0479985186441645e-05 -1.2410432176285127e-06 1.2586539399796118e-05 0 0.00028776148929021743 0 1.4787480053795786e-06 6.2060268166663123e-05 -7.7634616385655782e-05 0.000163961222330294 2.4227505992748671e-05 -1.9834007918429905e-07 4.8389204546507086e-05 -2.7478294286179891e-06 -3.3509459772166249e-05
leaf_weight=21 153 131 24 38 61 500 67 66 70 769 113487 111 5295 360
leaf_count=21 153 131 24 38 61 500 67 66 70 769 113487 111 5295 360
internal_value=5.28956e-08 5.21786e-05 0.000103965 0.000131157 7.95559e-05 -2.03548e-07 2.58286e-06 -7.54593e-06 0.00013357 1.78331e-05 -3.59146e-07 1.32862e-05 -4.45933e-07 -5.0609e-06
internal_weight=121153 478 214 193 155 120675 264 197 94 922 119753 611 119142 5655
internal_count=121153 478 214 193 155 120675 264 197 94 922 119753 611 119142 5655
is_linear=0
shrinkage=0.01


Tree=8
num_leaves=15
num_cat=0
split_feature=2 8 12 3 10 16 4 6 8 15 13 9 12 9
split_gain=0.0128395 0.008123 0.00960549 0.00417205 0.00296976 0.00197214 0.00213503 0.00159566 0.00282542 0.00115275 0.00193093 0.0015161 0.00333702 0.00106213
threshold=-0.091877259883355808 0.01702396299111221 33.148983446398681 0.25092910262544682 1063.3164558635756 12.258001441360461 0.00701325057310469 -1.7444889679380862 0.007534445388240248 1265.3304690828793 -6.2574478919437206 -1.7198446272402086 37.63918094566845 -1.4993457016037706
decision_type=2 2 2 2 2 2 2 2 2 2 2 2 2 2
left_child=1 2 3 7 5 6 -2 -1 -9 -4 -11 12 -12 -3
right_child=4 13 9 -5 -6 -7 -8 8 -10 10 11 -13 -14 -15
leaf_value=0 6.0794342995681022e-06 0.0002909802641295413 4.3774378511925638e-05 0.00015173010302830668 -3.5555448509182541e-07 -1.025245397102699e-05 4.5999504983611884e-05 0 0.00011927501160905441 1.0242903499713701e-05 0 0 -0.00011659501374450153 1.6450327233755369e-05
leaf_weight=37 489 20 33 78 119753 118 315 36 35 65 69 30 53 22
leaf_count=37 489 20 33 78 119753 118 315 36 35 65 69 30 53 22
internal_value=5.18822e-08 5.17178e-05 3.32151e-05 8.79955e-05 -2.01512e-07 1.76331e-05 2.42143e-05 2.32852e-05 5.5363e-05 0 -1.54219e-05 -3.95366e-05 -5.64585e-05 0.000195332
internal_weight=121153 478 436 186 120675 922 804 108 71 250 217 152 122 42
internal_count=121153 478 436 186 120675 922 804 108 71 250 217 152 122 42
is_linear=0
shrinkage=0.01


Tree=9
num_leaves=15
num_cat=0
split_feature=2 5 10 16 11 10 9 12 16 4 6 0 12 5
split_gain=0.0126517 0.00975235 0.00621531 0.0079594 0.00393018 0.00291077 0.00260756 0.00391458 0.00194251 0.00208397 0.0016905 0.00355526 0.00145185 0.00114377
threshold=-0.091877259883355808 -0.045828094708467874 2590.3464326281633 14.621394269948965 23.732651847499671 1063.3164558635756 -1.7755716821242833 37.328267908636725 12.258001441360461 0.0063063503575886666 -1.9370820063463385 234403276.28060502 40.984576658411086 -0.036330688243683344
decision_type=2 2 2 2 2 2 2 2 2 2 2 2 2 2
left_child=1 2 3 4 -1 8 7 -3 9 -2 -5 -12 -11 -7
right_child=5 6 -4 10 -6 13 -8 -9 -10 12 11 -13 -14 -15
leaf_value=0.00011516230309872066 4.259546275376595e-06 1.2145013374498466e-05 0 0.00038038413890978639 0 1.3189813455137863e-05 6.1234549228477887e-05 -7.6023883283352114e-05 -1.0150104180819869e-05 0 0.00018309795482824724 0 4.9484792833480138e-05 -4.3825476055556325e-07
leaf_weight=40 447 131 51 20 50 611 67 66 118 27 33 20 330 119142
leaf_count=40 447 131 51 20 50 611 67 66 118 27 33 20 330 119142
internal_value=5.10855e-08 5.13388e-05 0.000102122 0.000132274 3.94149e-05 -1.99331e-07 2.55718e-06 -7.29896e-06 1.74569e-05 2.39971e-05 0.000219015 0.000119326 4.30952e-05 -3.51999e-07
internal_weight=121153 478 214 163 90 120675 264 197 922 804 73 53 357 119753
internal_count=121153 478 214 163 90 120675 264 197 922 804 73 53 357 119753
is_linear=0
shrinkage=0.01


Tree=10
num_leaves=15
num_cat=0
split_feature=5 10 17 6 4 1 6 7 4 16 0 4 7 12
split_gain=0.0108753 0.00460144 0.00453368 0.00790778 0.0163542 0.00562519 0.00278621 0.00136685 0.00133793 0.00190352 0.00104869 0.00208392 0.000996178 0.00171827
threshold=-0.045828094708467874 1063.3164558635756 -8.7688356141110333 -2.053414460732339 0.015053755622143285 0.0005528175721519758 -2.7553340572174263 0.011382537211277454 0.0063063503575886666 12.258001441360461 402066467.67261505 0.013801115045820539 0.01303136486628465 34.963410693397499
decision_type=2 2 2 2 2 2 2 2 2 2 2 2 2 2
left_child=2 8 6 4 7 10 -1 -4 -2 -10 12 -12 -5 -14
right_child=1 -3 3 5 -6 -7 -8 -9 9 -11 11 -13 13 -15
leaf_value=4.9530748695153504e-06 4.2365364377188675e-06 -3.7042383742172542e-07 7.0034960547206825e-05 0 0.00035598305547062092 0.00014118731857776695 -9.9956865506350349e-05 0 4.6442030439481529e-05 0 0 -0.00011835317883007931 0.00011935209611183922 0
leaf_weight=20 445 119768 118 107 27 31 29 27 354 106 32 21 20 48
leaf_count=20 446 119770 118 106 27 31 29 27 354 106 32 21 20 48
internal_value=5.0072e-08 -1.8423e-07 4.74997e-05 5.94342e-05 0.000114423 1.51405e-05 -1.664e-05 5.52401e-05 2.22419e-05 3.53049e-05 0 -4.08018e-05 9.64633e-06 4.12276e-05
internal_weight=121153 120673 480 431 172 259 49 145 905 460 228 53 175 68
internal_count=121153 120675 478 429 172 257 49 145 907 460 226 53 173 68
is_linear=0
shrinkage=0.01


Tree=11
num_leaves=15
num_cat=0
split_feature=5 18 10 6 14 4 1 16 11 18 6 4 16 8
split_gain=0.0107361 0.00840864 0.00450812 0.00411436 0.00356881 0.00311645 0.00233795 0.00198682 0.00157643 0.00217331 0.00182144 0.00131147 0.00186707 0.000918067
threshold=-0.045828094708467874 56.070622150013421 1063.3164558635756 -2.1939399774004156 2274.9460203238996 0.011513412922610612 0.0005528175721519758 9.1448483194113539 26.195392147317637 37.47731172707141 -1.4734775269738429 0.0063063503575886666 12.258001441360461 0.0079663701207809048
decision_type=2 2 2 2 2 2 2 2 2 2 2 2 2 2
left_child=1 3 11 4 7 -3 8 -1 -5 -10 -11 -2 -13 -4
right_child=2 5 13 6 -6 -7 -8 -9 9 10 -12 12 -14 -15
leaf_value=1.105744618291124e-05 4.1746182624210891e-06 0 -1.4787032974585737e-07 1.065105741903256e-05 0 0.00022611848756436904 9.5257038856213833e-05 0.00017492529299036039 0 -0.00011525004201731975 0 4.5977873420667534e-05 0 -4.2011564504436266e-06
leaf_weight=48 447 23 113795 95 63 38 24 40 85 42 20 354 106 5973
leaf_count=48 447 23 113795 95 63 38 24 40 85 42 20 354 106 5973
internal_value=4.91732e-08 4.72942e-05 -1.82071e-07 2.53909e-05 6.70823e-05 0.000163774 0 0.000108446 -7.65877e-06 -3.3077e-05 -7.79954e-05 2.19905e-05 3.49476e-05 -3.66719e-07
internal_weight=121153 478 120675 417 151 61 266 88 242 147 62 907 460 119768
internal_count=121153 478 120675 417 151 61 266 88 242 147 62 907 460 119768
is_linear=0
shrinkage=0.01


Tree=12
num_leaves=15
num_cat=0
split_feature=1 18 13 18 18 15 17 7 11 7 4 0 1 8
split_gain=0.00613228 0.00862346 0.0053945 0.00380521 0.00353165 0.00326202 0.0017028 0.00229381 0.00196086 0.00174775 0.00105142 0.000937293 0.00069015 0.000855478
threshold=-0.036407938732682159 56.070622150013421 -6.5904989750925376 48.541399943232605 40.814052909814102 1057.3830427977459 -14.482352123661647 0.01303136486628465 32.444412452717494 0.011382537211277454 0.0063063503575886666 216765105.78215003 -0.015238285846572995 0.005932423093726759
decision_type=2 2 2 2 2 2 2 2 2 2 2 2 2 2
left_child=1 2 3 6 -4 10 -1 9 -9 -8 -2 12 -12 -14
right_child=5 -3 4 -5 -6 -7 7 8 -10 -11 11 -13 13 -15
leaf_value=0 0 0.00020141948052097736 0 -4.3073456760777048e-05 -0.00012592095351639265 -2.5552299321983724e-07 4.9190025849690262e-05 0.00019570918621669649 0 0 0 0 0 6.3682631539039669e-05
leaf_weight=39 207 32 97 21 28 120200 171 34 27 32 31 24 44 166
leaf_count=39 207 32 97 21 28 120200 171 34 27 32 31 24 44 166
internal_value=4.84952e-08 3.56333e-05 1.92811e-05 4.34645e-05 -2.73974e-05 -1.3599e-07 5.6083e-05 6.52235e-05 0.000134908 3.43292e-05 2.60561e-05 4.00663e-05 4.64073e-05 5.29111e-05
internal_weight=121153 481 449 324 125 120672 303 264 61 203 472 265 241 210
internal_count=121153 481 449 324 125 120672 303 264 61 203 472 265 241 210
is_linear=0
shrinkage=0.01


Tree=13
num_leaves=15
num_cat=0
split_feature=2 8 12 3 15 8 16 14 2 0 15 13 18 9
split_gain=0.0121062 0.0078296 0.00911628 0.00397641 0.00272561 0.00226622 0.00192863 0.00167052 0.00165093 0.00143857 0.00110565 0.00185385 0.00197629 0.00149074
threshold=-0.091877259883355808 0.01702396299111221 33.148983446398681 0.25092910262544682 1111.9531296348407 0.0084206326990918425 12.258001441360461 988.31292230922054 -0.013718995700160551 402066467.67261505 1265.3304690828793 -6.2574478919437206 56.070622150013421 -1.7198446272402086
decision_type=2 2 2 2 2 2 2 2 2 2 2 2 2 2
left_child=1 2 3 9 5 -2 -7 8 -6 -1 -4 -12 13 -13
right_child=4 -3 10 -5 7 6 -8 -9 -10 -11 11 12 -14 -15
leaf_value=4.7037236091824432e-05 2.1603325389410341e-06 0.00019122990828131047 4.211183634575411e-05 0.0001476098920883792 0 4.0338011503377521e-05 0 -3.2977684286376959e-07 -9.7662618633762558e-05 0 9.0271407501569198e-06 -7.6362791994230775e-05 0 0
leaf_weight=88 937 42 33 78 22 415 61 119205 35 20 65 99 27 26
leaf_count=88 937 42 33 78 22 415 61 119205 35 20 65 99 27 26
internal_value=4.77972e-08 5.0222e-05 3.19721e-05 8.53853e-05 -1.92658e-07 1.35765e-05 3.18389e-05 -3.72585e-07 -5.46194e-05 2.17713e-05 0 -1.54264e-05 -3.90222e-05 -5.8563e-05
internal_weight=121153 478 436 186 120675 1413 476 119262 57 108 250 217 152 125
internal_count=121153 478 436 186 120675 1413 476 119262 57 108 250 217 152 125
is_linear=0
shrinkage=0.01


Tree=14
num_leaves=15
num_cat=0
split_feature=2 5 10 16 11 15 12 4 12 4 1 13 18 3
split_gain=0.0119241 0.00909276 0.00606641 0.00772016 0.00374383 0.00267266 0.00229075 0.00221619 0.00169692 0.00160456 0.00174776 0.00265242 0.00232781 0.00258363
threshold=-0.091877259883355808 -0.045828094708467874 2590.3464326281633 14.621394269948965 23.732651847499671 1111.9531296348407 41.316767302349938 0.0063063503575886666 36.991974314827928 0.015053755622143285 -0.0039495859366822641 -9.6875665081844122 53.156511393383006 0.33015229816719943
decision_type=2 2 2 2 2 2 2 2 2 2 2 2 2 2
left_child=1 2 3 4 -1 7 8 -2 -3 -7 11 -11 13 -13
right_child=5 6 -4 -5 -6 9 -8 -9 -10 10 -12 12 -14 -15
leaf_value=0.0001113028697054416 9.8886167917948901e-07 1.3455133608514718e-05 0 0.00021395133721738893 0 -2.6530366908952968e-07 7.7631311382640012e-05 2.9499547741521082e-05 -3.75327492905639e-05 0 0 -9.2972777968057668e-05 0 0
leaf_weight=40 866 121 51 73 50 118602 38 547 105 58 426 127 20 29
leaf_count=40 866 121 51 73 50 118602 38 547 105 58 426 127 20 29
internal_value=4.71519e-08 4.98434e-05 9.89136e-05 0.00012868 3.70215e-05 -1.90672e-07 2.45206e-06 1.34437e-05 -1.40443e-06 -3.69002e-07 -1.59685e-05 -3.82765e-05 -5.87597e-05 -7.3383e-05
internal_weight=121153 478 214 163 90 120675 264 1413 226 119262 660 234 176 156
internal_count=121153 478 214 163 90 120675 264 1413 226 119262 660 234 176 156
is_linear=0
shrinkage=0.01


Tree=15
num_leaves=15
num_cat=0
split_feature=2 5 17 6 0 4 15 12 4 12 5 14 2 16
split_gain=0.0117176 0.00890281 0.0100989 0.0051461 0.00571292 0.00499976 0.00262499 0.00224486 0.00216678 0.00166819 0.00190998 0.00162034 0.00161772 0.00137273
threshold=-0.091877259883355808 -0.045828094708467874 -8.0910333247613178 -2.1939399774004156 402066467.67261505 0.012521003166873336 1111.9531296348407 41.316767302349938 0.0063063503575886666 37.931316395229778 -0.020862437809183173 988.31292230922054 -0.013718995700160551 12.258001441360461
decision_type=2 2 2 2 2 2 2 2 2 2 2 2 2 2
left_child=1 2 -1 -4 5 -5 8 9 -2 -3 -11 12 -8 -10
right_child=6 7 3 4 -6 -7 11 -9 13 10 -12 -13 -14 -15
leaf_value=-5.269880560314599e-05 9.7897607149643816e-07 8.5407778673751787e-06 0.00022927176514558829 0 0 0.00016231146669212247 0 7.6859061629389503e-05 3.5764376957757244e-05 -0.00010388961027127615 0 -3.2295845206845792e-07 -9.6426784182261296e-05 0
leaf_weight=21 866 146 54 40 33 66 22 38 472 32 48 119205 35 75
leaf_count=21 866 146 54 40 33 66 22 38 472 32 48 119205 35 75
internal_value=4.63964e-08 4.94104e-05 9.79766e-05 0.000124761 6.95207e-05 0.000108233 -1.88494e-07 2.42795e-06 1.33235e-05 -1.30217e-06 -4.41797e-05 -3.65374e-07 -5.37935e-05 2.92047e-05
internal_weight=121153 478 214 193 139 106 120675 264 1413 226 80 119262 57 547
internal_count=121153 478 214 193 139 106 120675 264 1413 226 80 119262 57 547
is_linear=0
shrinkage=0.01


Tree=16
num_leaves=15
num_cat=0
split_feature=5 18 10 7 17 17 13 3 9 7 4 18 13 4
split_gain=0.00994588 0.00796344 0.0042056 0.00420148 0.00222994 0.00276828 0.00250673 0.00329903 0.0025663 0.0037112 0.00243693 0.00145382 0.00123961 0.00234805
threshold=-0.045828094708467874 56.070622150013421 1063.3164558635756 0.0081662635695259646 -8.0910333247613178 7.849589824263874 -6.2574478919437206 -0.27501395518802935 -1.3117298346688495 0.01303136486628465 0.015053755622143285 36.515000663704555 6.4779837957662725 0.00701325057310469
decision_type=2 2 2 2 2 2 2 2 2 2 2 2 2 2
left_child=1 4 12 -3 11 6 7 -6 9 -9 -11 -1 13 -2
right_child=2 3 -4 -5 5 -7 -8 8 -10 10 -12 -13 -14 -15
leaf_value=0 5.6775797923464052e-06 0 -3.5188586927953062e-07 0.00022112877270327277 0 -3.3471115292621037e-05 0 3.9905221812354737e-05 0 0 0.00022999843001077517 -8.7972951910025106e-05 -1.0922873077284338e-06 4.5448305311479395e-05
leaf_weight=35 489 21 119768 40 63 21 42 153 23 24 36 20 54 364
leaf_count=35 489 21 119768 40 63 21 42 153 23 24 36 20 54 364
internal_value=4.57432e-08 4.55226e-05 -1.72978e-07 0.000158915 2.40731e-05 3.5397e-05 4.55169e-05 5.65723e-05 7.38293e-05 8.51028e-05 0.000166619 -1.40848e-05 2.12418e-05 2.49997e-05
internal_weight=121153 478 120675 61 417 362 341 299 236 213 60 55 907 853
internal_count=121153 478 120675 61 417 362 341 299 236 213 60 55 907 853
is_linear=0
shrinkage=0.01


Tree=17
num_leaves=15
num_cat=0
split_feature=2 5 17 6 0 4 15 9 4 14 2 6 13 5
split_gain=0.0113414 0.00856313 0.00983178 0.00497339 0.00561477 0.00483907 0.00252857 0.00242796 0.00207485 0.00158999 0.00159007 0.00147926 0.00113589 0.00112342
threshold=-0.091877259883355808 -0.045828094708467874 -8.0910333247613178 -2.1939399774004156 402066467.67261505 0.012521003166873336 1111.9531296348407 -1.7755716821242833 0.0063063503575886666 988.31292230922054 -0.013718995700160551 -0.86918433543930562 6.4779837957662725 -0.036330688243683344
decision_type=2 2 2 2 2 2 2 2 2 2 2 2 2 2
left_child=1 2 -1 -4 5 -5 8 11 -2 10 -8 -3 -10 -11
right_child=6 7 3 4 -6 -7 9 -9 12 13 -12 -13 -14 -15
leaf_value=-5.1741636575656538e-05 9.415950346068036e-07 0 0.00022579165827064099 0 0 0.00015981307479741441 0 5.914438540111448e-05 3.3618266255737194e-05 1.3055724029822824e-05 -9.555606941319182e-05 -5.287775938134819e-05 0 -4.0312117217678995e-07
leaf_weight=21 866 141 54 40 33 66 22 67 497 616 35 56 50 118589
leaf_count=21 866 141 54 40 33 66 22 67 497 616 35 56 50 118589
internal_value=4.47266e-08 4.86112e-05 9.62615e-05 0.000122754 6.80907e-05 0.000106602 -1.85043e-07 2.37189e-06 1.30758e-05 -3.58946e-07 -5.32843e-05 -6.83493e-06 2.8624e-05 -3.16772e-07
internal_weight=121153 478 214 193 139 106 120675 264 1413 119262 57 197 547 119205
internal_count=121153 478 214 193 139 106 120675 264 1413 119262 57 197 547 119205
is_linear=0
shrinkage=0.01


Tree=18
num_leaves=15
num_cat=0
split_feature=2 5 17 6 0 17 15 9 12 14 2 7 12 16
split_gain=0.0111213 0.00836715 0.00967967 0.00483831 0.00553378 0.00392238 0.00248082 0.00237778 0.00367534 0.00155511 0.00156191 0.00140061 0.00129544 0.00176692
threshold=-0.091877259883355808 -0.045828094708467874 -8.0910333247613178 -2.1939399774004156 402066467.67261505 -1.0000000180025095e-35 1111.9531296348407 -1.7755716821242833 37.328267908636725 988.31292230922054 -0.013718995700160551 0.006893984990605906 40.248743967678386 12.258001441360461
decision_type=2 2 2 2 2 2 2 2 2 2 2 2 2 2
left_child=1 2 -1 -4 5 -5 11 8 -3 10 -8 -2 -13 -14
right_child=6 7 3 4 -6 -7 9 -9 -10 -11 -12 12 13 -15
leaf_value=-5.1229095716855293e-05 2.4380226763353169e-06 1.1815459722306626e-05 0.00022354207724174725 0 0 0.00016900768971527872 0 5.8554704664857127e-05 -7.3541161400938451e-05 -3.1343622054970287e-07 -9.4605835705811539e-05 0 3.988984648910827e-05 0
leaf_weight=21 873 131 54 51 33 55 22 67 66 119205 35 44 426 70
leaf_count=21 873 131 54 51 33 55 22 67 66 119205 35 44 426 70
internal_value=4.40285e-08 4.81374e-05 9.52506e-05 0.000121577 6.7333e-05 0.000105609 -1.82922e-07 2.33399e-06 -6.68477e-06 -3.55332e-07 -5.26996e-05 1.29518e-05 2.62395e-05 3.17905e-05
internal_weight=121153 478 214 193 139 106 120675 264 197 119262 57 1413 540 496
internal_count=121153 478 214 193 139 106 120675 264 197 119262 57 1413 540 496
is_linear=0
shrinkage=0.01


Tree=19
num_leaves=15
num_cat=0
split_feature=2 12 7 10 7 9 10 16 15 4 15 9 16 11
split_gain=0.0109201 0.00642389 0.0065521 0.00399629 0.0120996 0.00261186 0.00242963 0.00176589 0.0017243 0.0016859 0.00149879 0.00264312 0.00236032 0.00113747
threshold=-0.091877259883355808 33.148983446398681 0.018133386792613431 2590.3464326281633 0.01303136486628465 -2.1738675209580967 1063.3164558635756 12.258001441360461 3204.4958901816258 0.00701325057310469 1271.376582671274 -2.2237344673037476 8.6310428780914794 23.732651847499671
decision_type=2 2 2 2 2 2 2 2 2 2 2 2 2 2
left_child=1 3 10 4 13 -4 7 9 -5 -2 -3 -12 -13 -1
right_child=6 2 5 8 -6 -7 -8 -9 -10 -11 11 12 -14 -15
leaf_value=9.4902872861850826e-05 5.5487299005507785e-06 3.9257919526703295e-05 0 -2.7526250413293895e-05 0.00036010046794625198 0.00013582843166601611 -3.2203248622839671e-07 -1.0182613415514352e-05 5.5421046581614058e-05 4.1862000240411749e-05 0 0 -9.2144801671744766e-05 0
leaf_weight=46 489 25 21 21 23 50 119753 118 51 315 72 47 74 48
leaf_count=46 489 25 21 21 23 50 119753 118 51 315 72 47 74 48
internal_value=4.35082e-08 4.77002e-05 9.90682e-06 9.48477e-05 0.000133884 9.6641e-05 -1.81136e-07 1.59464e-05 3.51802e-06 2.22698e-05 -9.23827e-06 -2.59063e-05 -5.70142e-05 5.66544e-05
internal_weight=121153 478 289 189 117 71 120675 922 72 804 218 193 121 94
internal_count=121153 478 289 189 117 71 120675 922 72 804 218 193 121 94
is_linear=0
shrinkage=0.01


Tree=20
num_leaves=15
num_cat=0
split_feature=2 8 12 3 15 8 14 2 6 8 9 15 13 18
split_gain=0.0107686 0.00720919 0.00832373 0.00379963 0.00239067 0.00200463 0.00151719 0.0015352 0.00149552 0.00257117 0.00119724 0.00103456 0.00170107 0.0019333
threshold=-0.091877259883355808 0.01702396299111221 33.148983446398681 0.25092910262544682 1111.9531296348407 0.0084206326990918425 988.31292230922054 -0.013718995700160551 -1.7444889679380862 0.007534445388240248 1.6592284615856177 1265.3304690828793 -6.2574478919437206 56.070622150013421
decision_type=2 2 2 2 2 2 2 2 2 2 2 2 2 2
left_child=1 2 3 8 5 -2 7 -6 -1 -10 -7 -4 -13 -14
right_child=4 -3 11 -5 6 10 -8 -9 9 -11 -12 12 13 -15
leaf_value=0 1.8452539460934872e-06 0.00018280232263402353 3.8898737977696462e-05 0.00014118538675930999 0 3.650929653280932e-05 -3.0711791361106059e-07 -9.3617030454864049e-05 0 0.00011229652788394807 0 6.097729812073377e-06 -5.7523567685128429e-05 0
leaf_weight=37 937 42 33 78 22 409 119205 35 36 35 67 65 125 27
leaf_count=37 937 42 33 78 22 409 119205 35 36 35 67 65 125 27
internal_value=4.26635e-08 4.73687e-05 2.96595e-05 8.08136e-05 -1.79158e-07 1.2714e-05 -3.48706e-07 -5.20519e-05 1.85471e-05 5.12173e-05 2.98994e-05 -4.39767e-07 -1.56605e-05 -3.81014e-05
internal_weight=121153 478 436 186 120675 1413 119262 57 108 71 476 250 217 152
internal_count=121153 478 436 186 120675 1413 119262 57 108 71 476 250 217 152
is_linear=0
shrinkage=0.01


Tree=21
num_leaves=15
num_cat=0
split_feature=5 18 7 15 17 17 13 3 9 7 4 18 12 11
split_gain=0.00910245 0.0075825 0.00399183 0.0029796 0.00207678 0.00265272 0.00242465 0.00320025 0.00243114 0.00350304 0.00232311 0.00142345 0.00106313 0.000961688
threshold=-0.045828094708467874 56.070622150013421 0.0081662635695259646 1057.3830427977459 -8.0910333247613178 7.849589824263874 -6.2574478919437206 -0.27501395518802935 -1.3117298346688495 0.01303136486628465 0.015053755622143285 36.515000663704555 40.248743967678386 27.138077100506276
decision_type=2 2 2 2 2 2 2 2 2 2 2 2 2 2
left_child=1 4 -3 12 11 6 7 -6 9 13 -11 -1 -2 -9
right_child=3 2 -4 -5 5 -7 -8 8 -10 10 -12 -13 -14 -15
leaf_value=0 0 0 0.00021469230763614179 -2.7836594353005e-07 0 -3.3982005936778942e-05 0 5.1805846443197722e-05 0 0 0.00022383763830470776 -8.7050447392618586e-05 3.0819942549525521e-05 0
leaf_weight=35 52 21 40 120204 63 21 42 119 23 24 36 20 419 34
leaf_count=35 52 21 40 120204 63 21 42 119 23 24 36 20 419 34
internal_value=4.20521e-08 4.35515e-05 0.000154123 -1.63525e-07 2.25167e-05 3.35821e-05 4.36221e-05 5.45929e-05 7.16255e-05 8.26073e-05 0.000162079 -1.39395e-05 2.48882e-05 3.82162e-05
internal_weight=121153 478 61 120675 417 362 341 299 236 213 60 55 471 153
internal_count=121153 478 61 120675 417 362 341 299 236 213 60 55 471 153
is_linear=0
shrinkage=0.01


end of trees

feature_importances:
rsi_28=26
ret_32=24
volatility_20=23
price_ma_ratio_20=23
volatility_96=23
BBB_20_2.0_2.0=20
zscore_close_96=18
BBU_20_2.0_2.0=18
ADXR_14_2=17
ema_12=15
STOCHh_14_3_3=15
zscore_close_20=14
volatility_48=13
quote_asset_volume=12
MACDh_12_26_9=12
BBL_20_2.0_2.0=12
rsi_14=10
volume_ma_ratio_5=8
ret_4=5

parameters:
[boosting: gbdt]
[objective: regression]
[metric: l2]
[tree_learner: serial]
[device_type: cuda]
[data_sample_strategy: bagging]
[data: ]
[valid: ]
[num_iterations: 1000]
[learning_rate: 0.01]
[num_leaves: 15]
[num_threads: 20]
[seed: 42]
[deterministic: 0]
[force_col_wise: 0]
[force_row_wise: 1]
[histogram_pool_size: -1]
[max_depth: -1]
[min_data_in_leaf: 20]
[min_sum_hessian_in_leaf: 0.001]
[bagging_fraction: 0.8]
[pos_bagging_fraction: 1]
[neg_bagging_fraction: 1]
[bagging_freq: 0]
[bagging_seed: 400]
[bagging_by_query: 0]
[feature_fraction: 0.8]
[feature_fraction_bynode: 1]
[feature_fraction_seed: 30056]
[extra_trees: 0]
[extra_seed: 12879]
[early_stopping_round: 0]
[early_stopping_min_delta: 0]
[first_metric_only: 0]
[max_delta_step: 0]
[lambda_l1: 0.2]
[lambda_l2: 0.2]
[linear_lambda: 0]
[min_gain_to_split: 0]
[drop_rate: 0.1]
[max_drop: 50]
[skip_drop: 0.5]
[xgboost_dart_mode: 0]
[uniform_drop: 0]
[drop_seed: 17869]
[top_rate: 0.2]
[other_rate: 0.1]
[min_data_per_group: 100]
[max_cat_threshold: 32]
[cat_l2: 10]
[cat_smooth: 10]
[max_cat_to_onehot: 4]
[top_k: 20]
[monotone_constraints: ]
[monotone_constraints_method: basic]
[monotone_penalty: 0]
[feature_contri: ]
[forcedsplits_filename: ]
[refit_decay_rate: 0.9]
[cegb_tradeoff: 1]
[cegb_penalty_split: 0]
[cegb_penalty_feature_lazy: ]
[cegb_penalty_feature_coupled: ]
[path_smooth: 0]
[interaction_constraints: ]
[verbosity: -1]
[saved_feature_importance_type: 0]
[use_quantized_grad: 0]
[num_grad_quant_bins: 4]
[quant_train_renew_leaf: 0]
[stochastic_rounding: 1]
[linear_tree: 0]
[max_bin: 255]
[max_bin_by_feature: ]
[min_data_in_bin: 3]
[bin_construct_sample_cnt: 200000]
[data_random_seed: 175]
[is_enable_sparse: 1]
[enable_bundle: 1]
[use_missing: 1]
[zero_as_missing: 0]
[feature_pre_filter: 1]
[pre_partition: 0]
[two_round: 0]
[header: 0]
[label_column: ]
[weight_column: ]
[group_column: ]
[ignore_column: ]
[categorical_feature: ]
[forcedbins_filename: ]
[precise_float_parser: 0]
[parser_config_file: ]
[objective_seed: 16083]
[num_class: 1]
[is_unbalance: 0]
[scale_pos_weight: 1]
[sigmoid: 1]
[boost_from_average: 1]
[reg_sqrt: 0]
[alpha: 0.9]
[fair_c: 1]
[poisson_max_delta_step: 0.7]
[tweedie_variance_power: 1.5]
[lambdarank_truncation_level: 30]
[lambdarank_norm: 1]
[label_gain: ]
[lambdarank_position_bias_regularization: 0]
[eval_at: ]
[multi_error_top_k: 1]
[auc_mu_weights: ]
[num_machines: 1]
[local_listen_port: 12400]
[time_out: 120]
[machine_list_filename: ]
[machines: ]
[gpu_platform_id: 0]
[gpu_device_id: 0]
[gpu_use_dp: 0]
[num_gpu: 1]

end of parameters

pandas_categorical:[]
